0.873194 21506 272 44 35
100
2.16943 0.634361 0.344563 0.00216909 -0.0870154 0.228675 -0.154675 0.0372601 0.0757505 0.56894 0.263976 -0.0764667 0.160457 0.195002 0.230097 0.0865172 7.9771e-06 -0.401729 0.378997 0.171917 0.0573202 0.160273 -0.255217 0.310911 0.262667 -0.2542 -0.173118 0.24149 -0.0477753 0.143766 -0.202177 0.191387 0.0299124 0.0131411 0.20926 0.250721 0.253668 0.241067 0.171166 0.0451341 0.156639 0.124154 -0.048566 -0.0267191 0.0394954 -0.677043 0.218426 0.08039 -0.0152277 -0.0956783 0.040699 -0.0639073 0.103836 0.0234505 -0.155806 0.0190359 0.0254946 -0.0114103 -0.272659 0.161737 -0.0915594 0.00242339 0.0142894 0.058997 -0.0875947 0.0937452 0.136049 0.236042 0.0637615 -0.0802772 0.0802083 0.315495 -0.110695 0.0645286 0.103746 0.0413292 -0.239055 0.107635 0.111486 -0.0126241 -0.0918448 -0.0896388 0.079996 0.171954 -0.0668889 0.022152 -0.212242 -0.0746167 -0.051874 0.234716 0.0740729 -0.00290269 0.27654 -0.0622276 -0.340364 0.042541 -0.0362391 0.0948912 0.045103 -0.0946615
-4.50301
3.01964 1.7565 -1.0457 0.636833 -1.78802 -3.38758 -0.517588 -1.02348 1.65066 -4.61208
-0.315727
2.13074 -0.554285 0.14323 4.36917 6.65332 -2.26243 -1.48061 2.61135 -1.05435 -0.3757
0.104692
1.88741 -0.56098 -4.04713 -3.06358 3.82831 3.2861 -0.17446 0.52196 1.05172 3.76099
-0.496539
-2.70116 -0.882103 5.55195 -1.03653 -0.0762112 2.16573 -0.185378 1.91777 -6.67613 2.95099
-0.936635
2.18617 -1.95605 -1.824 -1.10013 -8.07674 -6.29265 6.37744 1.8076 2.0403 4.31552
-0.417995
-3.41569 1.78462 -2.76704 2.81504 -1.58556 -0.813949 4.41399 0.319603 2.82525 -2.44841
-0.268632
1.10562 2.5621 -0.257026 -4.41919 -1.66223 -1.21607 1.63804 -2.86868 3.99655 3.39671
-0.644154
0.740022 -1.95591 -1.00954 -1.957 -2.55595 0.165785 5.16708 3.83266 -4.52727 -5.59865
-0.576381
2.10343 3.87765 -3.55967 -4.52305 1.3593 3.69104 -4.11938 2.29076 2.89542 0.14393
-0.615355
9.33028 -1.02258 -1.3296 -2.30337 -2.88244 -3.0025 -5.95769 -0.234536 -1.05922 -1.22642
0.212795
1.39595 1.95783 -4.4485 -1.02738 -4.22536 -1.93223 0.0124105 0.403679 1.52993 -3.05441
-0.111363
-2.79011 -1.50771 2.9124 1.1059 -3.94054 -1.43204 -1.17306 1.98412 2.1625 1.55155
-0.0534239
-1.06847 0.118206 -0.754265 -0.0368743 0.316201 1.91522 0.521209 -1.1294 -2.70298 -1.47108
0.39844
-1.57149 3.56017 -3.60087 0.210132 -2.233 2.46959 0.809814 -2.93746 -3.29793 -3.5758
0.107411
3.07002 -0.333568 -1.38455 1.98286 2.8672 -0.719467 -6.93444 -1.65521 0.682032 -4.98643
-0.304518
2.32578 -1.07377 -1.27366 2.06852 -2.59815 2.97817 0.656488 -0.79206 -3.36818 2.83101
-0.0659199
-0.129327 -2.33936 1.94622 -5.44866 -1.15038 2.54295 1.81066 -0.726836 -3.33371 3.02393
0.0770185
-0.337341 6.34675 -1.22659 4.3907 1.98262 -3.10067 -2.96449 -3.50612 -7.7579 -0.374228
0.278428
2.7927 -1.2205 -1.51112 -4.44417 4.90119 -8.6844 -4.74118 -2.79074 -0.210781 1.7374
-0.253274
-0.0590375 -2.90737 1.69059 -2.9002 -7.89727 0.816228 -3.17638 0.309974 0.263175 3.2424
-0.0676252
-3.82141 -1.69019 -1.42692 -4.33871 5.92353 -2.21861 1.38094 6.89746 0.100798 -2.96081
0.261562
-1.76154 -0.752202 4.90928 -1.03031 -2.51998 4.0448 -5.66757 0.172446 1.50824 -7.00616
0.0153225
2.34046 1.41157 -5.53463 1.29853 0.480771 0.576274 2.34681 -4.17285 -2.74541 -2.97395
-0.0599689
2.52667 -2.44729 -0.187874 1.45585 -3.00882 2.25085 7.00737 -6.43184 -1.76705 -2.80885
0.734869
-5.50616 0.69408 -0.948515 2.47748 -2.25693 -1.56528 -4.50048 1.86186 -2.11273 -4.12745
0.312172
-2.10502 0.285505 1.90219 -1.24652 -0.212727 0.126483 -2.01101 -4.95132 -1.98523 3.07778
0.214877
-2.92502 4.50784 -0.348236 4.4626 -3.5547 2.26187 -5.74295 0.189736 -2.35551 -8.18465
0.325815
-1.55777 -5.87743 -2.19936 -1.65508 1.64795 0.825511 2.70042 0.201718 2.59841 -2.69265
-0.916377
5.95699 -1.31215 2.2053 -0.118827 -2.84385 0.895052 -0.0637595 0.809075 0.355046 -0.623069
-0.554669
1.79031 -0.700486 -8.956 1.53259 6.56102 4.80385 -0.571713 7.70611 -4.09565 -1.42827
-0.521687
-0.206634 0.0853651 2.94057 -7.4679 4.85238 5.35324 -0.610852 3.02771 1.31816 -0.853422
-0.0635713
-2.91806 0.0639874 5.39644 -7.41425 -0.741245 1.1622 -3.2289 -2.39113 -0.849539 0.960807
-0.273252
1.81142 -0.317792 4.004 -3.53697 -1.7116 -6.20508 -4.20164 2.2089 -3.33314 -0.890442
-0.239894
-0.813741 -3.53264 -0.44765 4.55505 3.14246 -5.00679 0.58181 8.66688 -4.81358 -4.78074
-0.247784
4.47489 1.43072 -6.92012 3.00484 8.0041 3.14266 0.345781 -0.471458 -0.977789 6.81001
0.488071
-1.92387 -0.0365742 -1.87018 -1.19503 6.10968 5.66034 -1.02839 -1.36429 4.07549 2.66595
-0.240629
5.5383 -6.01979 -5.39301 -1.47339 4.48711 5.17183 -0.527194 2.4034 -2.26481 -5.24468
-0.029101
-2.53293 1.83199 2.97856 -1.68846 2.35592 0.347776 0.30331 2.86108 3.24499 -3.20109
0.586027
-3.75627 -1.13363 -2.94995 0.326604 -2.22255 -0.715107 0.0875869 -1.64526 4.82564 -2.17279
-0.323293
1.69826 -0.437684 -2.13342 2.29775 0.968155 -0.323238 -2.45564 2.76504 -1.2197 1.45841
0.391162
-0.1083 0.339398 -2.05435 1.30104 -7.26655 -2.74881 -2.1855 -4.43792 -0.691667 -1.89812
-0.251491
3.64667 -7.13297 4.38662 -1.89773 3.08672 -1.55785 3.96821 -2.72358 -2.35086 1.05951
-0.210632
0.126277 -3.46679 5.60419 0.620529 -1.68453 5.14981 1.7625 2.03889 -1.34436 -5.12491
-0.544529
0.807629 -1.73525 4.74994 -6.56187 5.43542 0.0143922 1.0287 4.94935 -9.26637 0.871496
-0.281076
0.804057 1.93952 -2.2608 -9.75071 3.07739 3.80803 -7.32684 4.27107 1.13878 4.13982
0.0838938
-4.19052 2.67584 2.26092 4.4575 -2.88923 -0.797842 -2.6821 0.447128 5.29954 3.88193
0.136092
-1.79192 -4.7954 2.8248 -3.82696 2.54871 -1.1296 -2.85077 6.01457 -2.34708 -8.01225
0.492259
-2.76667 0.336902 -2.09804 3.48014 -3.33944 -3.10028 0.105511 -2.95763 4.94535 -4.45597
0.4563
-3.34516 -4.35534 -2.38473 -2.67979 -1.91072 0.604818 1.34145 -0.085822 0.526168 -2.93596
-0.357062
-3.29777 6.10117 1.85978 0.168129 6.32668 1.77836 -1.04952 2.2101 2.44485 -1.55109
-0.119566
-3.46288 0.695449 2.55825 0.540648 2.00531 -3.82256 3.64796 -0.996919 0.543436 0.892821
-0.485105
-1.34899 2.1301 0.351174 -3.15022 2.33948 -6.6064 5.26805 2.0134 0.87151 -2.77581
-0.182369
-1.61301 -0.0390976 -5.9118 3.35069 -5.78339 -0.593261 2.52275 1.41749 -1.25092 3.90552
0.698821
-0.722504 -7.65442 -2.32907 3.10099 3.02025 0.85465 -0.733665 -5.00747 -1.10141 4.93627
-0.74088
1.37833 4.98746 -1.00531 -1.48404 -8.01351 4.69897 0.284526 2.50232 4.4386 1.81403
-0.353731
1.94054 -4.41981 2.82179 1.54101 1.4732 -2.0639 -5.3256 1.70031 1.68292 -0.943272
-0.0729056
1.91084 -5.9208 0.653866 -1.59274 -2.26677 -0.367398 -2.946 -1.40153 3.32224 3.69764
-0.129797
3.41962 -2.96231 0.421612 1.02378 0.642351 1.92677 -2.07383 -3.94299 6.0922 3.07929
0.0804248
-1.59463 -3.58356 3.74795 -3.62257 0.987921 3.41505 0.127461 -2.07952 0.607886 3.78734
-0.942866
-2.76064 -0.420068 -0.0998063 1.87504 -2.372 8.29038 -1.35473 5.83481 3.66782 7.08479
0.149125
-3.01559 3.84272 -1.73382 1.17894 1.60548 -4.93876 1.03934 -4.57108 2.05398 1.6729
0.27212
-1.34293 -10.3697 1.90239 -4.20825 -3.66801 0.635031 -0.175474 -1.88067 8.28291 -0.0715894
0.115434
0.700341 -6.13578 -4.21044 0.815899 2.24118 0.577117 -1.90369 -1.91088 -0.907971 1.77562
-0.62569
-2.46935 0.567687 3.79498 -1.97797 -2.8667 6.68234 2.81643 2.0397 -0.164097 0.572909
-0.558469
2.10533 0.0538907 -1.30561 0.340461 -1.56637 -7.184 4.85647 -0.846288 0.932892 -2.15458
-0.190144
3.22468 -1.23033 0.321038 4.93784 -3.09979 -4.39542 -0.304346 -6.30961 5.48286 -0.887071
-0.0435696
-0.394965 -1.07612 0.388268 4.2906 3.76099 -0.12333 -3.2578 -0.303666 -3.22131 -1.04483
-0.0926315
0.71133 1.69005 2.22285 3.43586 -0.979615 -1.58323 2.82281 -1.74677 -2.18737 -4.24651
0.299962
-0.6771 0.828556 -4.18097 -0.662705 -5.72506 -9.09467 2.29256 -0.913871 1.50052 -3.30753
0.375518
1.47844 -5.55937 0.80965 6.89678 -1.01589 4.38181 2.60227 -4.10642 0.948214 -1.37686
-0.2979
0.664886 0.20277 4.0034 -4.06001 -1.91388 0.708829 -6.57822 3.02295 2.46267 -2.57906
0.344549
-2.98776 -3.87439 -0.816817 1.1406 0.143237 -3.23253 -0.446166 2.37529 2.44678 1.6658
-0.909283
3.16668 0.703692 -1.56606 3.67498 -1.89058 -4.27536 0.588151 3.27779 -6.96061 0.511477
-0.745476
-0.177634 -3.57538 2.57917 3.77877 0.721806 -1.44656 4.77558 3.5495 -0.969431 -4.28983
-0.574003
1.3473 -2.75778 -3.34097 0.186791 -3.81531 -6.22035 -0.905049 3.75857 0.0769736 3.29091
-0.1235
-3.34745 0.906452 -4.27372 -0.375626 -0.709106 -1.88199 -0.954237 3.85189 0.548668 1.5069
-0.389562
-0.695747 -4.60678 -2.95458 1.85798 2.30138 0.481822 10.3085 2.94752 1.68895 0.79832
-0.880124
-4.5242 1.19069 4.32798 3.34385 -5.12716 4.6844 -2.41669 6.45388 -1.11445 4.2636
-0.0266083
-2.77451 -3.87086 1.75737 2.2539 2.56622 7.56195 -1.90005 1.487 1.07061 -4.73935
0.196632
0.788878 -3.49561 0.870817 -2.29683 -1.47634 -3.46609 -3.2324 -3.26494 1.67824 3.29749
-0.154954
0.170402 -2.67171 1.29104 2.91776 3.30341 -3.36194 -1.06531 -0.843066 4.6476 6.40423
-1.05941
2.51911 -0.919902 -3.4384 6.19297 1.70945 -2.88412 10.2139 4.15838 2.7602 -0.640986
-0.595395
-2.70675 1.21608 -2.93709 -2.74258 -1.27664 3.45581 4.46209 2.86849 1.97445 3.7094
-0.703224
5.95139 -1.62365 -8.76486 -2.96194 0.50458 -4.93991 -1.71619 3.43715 -0.0925204 -0.42931
0.276127
0.348767 -1.09661 -3.2564 2.59826 2.26559 -1.77251 -7.23666 -1.36344 3.03628 0.529264
-0.221286
0.463517 -0.989334 0.949361 -0.543066 -3.53571 -3.94571 -5.12218 1.69248 -3.73157 3.48305
-0.0219324
-2.44074 2.53598 2.34276 -5.40139 -1.5492 -3.92155 -0.173101 -1.54627 3.71717 4.29105
-0.896878
4.91996 2.28604 -2.92715 3.65027 -1.93809 -8.24351 2.6821 2.28828 -5.25039 -11.0967
0.224365
-2.90506 -0.422002 0.25311 1.25205 -0.909932 -1.74538 -4.41462 -5.03671 2.06893 8.33721
-0.182594
0.897783 0.268439 -3.5466 -2.31886 1.4715 -5.16728 -2.88388 -1.85087 3.61431 -3.8102
-0.0621853
-1.55467 2.14848 -1.85691 0.128705 -2.83568 -4.80093 3.55955 1.1683 0.486802 -1.08705
0.276059
-2.97483 1.99084 -0.643049 3.25946 -1.47301 2.78181 0.590992 -0.779853 2.48186 -2.28512
0.222337
1.08039 -2.22784 -0.975045 -0.0581581 -3.20704 0.431728 -3.68449 -1.46676 3.71316 -0.594133
-0.422577
2.32301 -2.28044 3.40446 -6.91739 -1.64622 -0.70829 2.74588 0.385148 -0.876333 -3.43683
0.184483
-4.4952 -0.163642 -1.71594 -0.0304 -3.63945 3.11626 1.14754 -0.323593 1.89128 -0.389421
-0.268033
5.22194 -2.00722 3.75715 2.61774 1.92677 1.84413 -1.80079 -8.04526 0.6941 0.888484
-0.973049
2.02644 0.164206 1.74597 -2.39213 -1.32479 -4.01226 -4.72722 5.46718 0.288399 1.16921
-0.209983
-3.00293 -1.40254 5.36714 0.960151 -2.20476 3.54269 -0.334342 0.510009 -1.20186 1.23022
-0.441598
1.14368 -3.88476 -2.5303 5.90232 -0.889075 -7.80273 -2.6453 4.57035 3.40035 4.24209
-0.131586
-0.2067 3.71089 -5.79333 3.5503 -0.245906 5.25468 -3.25769 1.18512 2.04302 0.631113
10 10
1 0 0 0.009303 0 0 0 0 0 0
147 1.19486 4.51285 1551.26 0.157971 1542.55 4.5111 0.788967 2.13175 0.065174
