0.9
100
1.7982 0.524625 0.321434 -0.54652 0.33832 0.00740624 -0.0895404 0.0915474 0.454058 0.12886 -0.0610626 0.0847998 0.0438738 -0.114325 0.033257 0.0471308 -0.0166968 -0.124356 0.0906131 0.0454947 -0.188897 0.184516 0.558807 0.209182 0.00407857 -0.183771 0.151179 -0.0802497 0.0243623 0.0507552 -0.153272 0.0683503 0.0631362 -0.0493822 0.0105127 0.0324379 -0.00214324 -0.207373 0.181067 0.193667 0.0174617 0.0206111 -0.00295845 -0.011028 -0.155501 0.137394 -0.0182569 0.00962331 0.0128458 -0.0327373 0.0579112 -0.110984 0.0790488 0.0576911 0.989192 0.28675 -0.00782175 0.0269035 -0.066128 0.0994153 0.0679025 0.0367458 -0.203283 0.185949 0.0376193 -0.235388 0.217798 0.102782 -0.208465 0.197001 -0.148707 -0.00456081 0.0586374 -0.186282 0.0619723 0.00686019 0.0594322 0.0268496 -0.132408 0.08865 -0.0355192 0.0239574 0.00802421 -0.0419048 0.0714557 -0.0640307 0.00875232 -0.00405851 0.0386365 -0.0434449 0.000903256 0.0138215 -0.00594658 0.0395289 -0.0384164 0.0791336 0.545977 0.117401 -0.0206978 -0.496052
-3.61657
-0.758888 0.540624
0.150086
-2.38769 -0.903234
-0.671866
1.01829 -2.4671
-0.0616378
2.50074 -4.75435
-0.719551
-0.953393 0.727415
-0.00944469
-0.213341 -1.68182
-0.0585534
0.450613 0.113505
-0.195111
0.505382 -0.824249
-0.0794807
2.0717 0.309228
0.0830351
-0.202322 -0.24786
-0.253973
1.50259 1.2241
-0.222082
-1.96548 0.474018
-0.117236
0.6408 -0.540101
-0.0430424
0.0479229 0.621643
-0.279095
0.957208 0.923876
-0.0738142
-2.00469 -1.31389
-0.0825625
0.651204 -0.519694
-0.158203
1.71887 -0.057869
-0.37873
2.66266 -0.825563
-0.117352
-0.449027 -0.820164
-0.163331
2.07607 1.9492
-0.383742
0.845072 -0.224154
-0.0959285
3.42472 0.302983
-0.350588
-0.528937 -4.26762
-0.0272725
0.276528 -1.30191
-0.0593748
0.773225 -0.242942
-0.307597
0.455688 -2.9236
-0.0582867
0.471974 -0.00942565
-0.240863
1.7232 -0.21999
-0.156212
0.941073 -1.07509
-0.0989138
1.13831 1.1723
-0.416227
3.08791 0.897815
-0.19069
1.68567 -3.26903
-0.0801896
0.0963928 1.71721
-0.161753
-0.595833 2.69336
-0.110751
0.693854 -3.23279
-0.0607392
-0.188411 0.195016
-0.225289
3.848 2.38441
-0.403165
1.71251 -1.16249
-0.0502594
1.55108 0.406385
-0.0880196
-1.33962 0.428697
-0.0925415
0.612689 -1.44673
-0.0487264
0.184523 -0.556224
-0.025654
-1.4197 1.21504
-0.142192
2.48865 -0.961084
-0.322514
-0.826831 0.875721
-0.0285155
-1.56095 -0.183055
-0.0910258
-0.791092 0.628083
-0.0802532
-0.274169 0.123306
-0.0893607
-0.136216 2.90043
-0.133893
0.577589 -0.248899
-0.0429314
1.53052 -0.275905
0.0150131
1.00981 -0.350659
-0.116899
0.164384 -0.188841
-0.0171191
-0.339505 2.623
0.392313
0.613828 -0.989206
-0.154856
-0.363604 0.308634
-0.101967
-0.708172 -1.4191
-0.0590536
1.20511 -3.06596
-0.199551
1.31516 -2.23583
0.0383969
0.745347 -3.25969
-0.102447
0.491847 -0.808362
-0.0766073
0.562816 0.701184
-0.386011
0.393364 0.265164
-0.0307516
1.16869 0.291216
0.0194678
0.0393179 -2.12723
0.157616
0.475771 -1.76316
-0.238362
0.00841682 -0.863135
-0.055034
1.14637 -1.69131
-0.406916
1.01311 -0.50951
-0.047107
0.763512 1.15228
-0.101912
-1.73486 -0.67676
-0.14574
0.585482 -1.34327
-0.0815892
0.67558 1.15768
-0.498096
4.08963 2.27789
-0.314116
2.19443 1.42987
-0.250092
0.799283 0.434077
-0.103134
0.0823178 -0.916213
-0.0988237
1.00627 0.953919
-0.317343
0.943832 0.82821
-0.143275
0.201313 1.13738
-0.211778
1.84451 -0.831421
-0.124372
-0.456597 -0.912512
-0.165244
1.56909 0.597663
-0.219617
1.40041 -0.632613
-0.0815049
0.34778 0.831539
-0.214005
1.24902 0.933191
-0.179338
-0.79726 2.21819
-0.167722
-0.2184 -0.240117
-0.123338
0.129114 1.95519
-0.222588
1.82376 1.10272
-0.200168
1.17846 0.497178
-0.179109
0.819252 1.40177
-0.171148
1.28386 -1.26923
-0.101295
0.416588 0.934245
-0.160403
0.249575 -0.0697856
-0.00555378
0.0123029 0.726739
0.230303
0.0210486 -0.384635
-0.00776717
0.0465351 -0.187222
-0.0622385
2.57569 -2.04359
