0.833333
100
1.78971 -0.203971 0.182767 -0.512647 0.332377 0.39462 0.28 0.226577 0.176572 0.65726 0.0174244 0.0643447 -0.316452 0.238921 0.651875 0.147791 0.838999 0.43201 0.0890215 0.1003 -0.199003 0.185684 0.0306244 -0.282146 0.190281 -0.00599541 -0.0197938 0.152673 0.145798 0.0821043 -0.467425 0.282 0.0283372 0.245896 0.134907 0.031037 0.0564783 -0.130449 0.0710196 0.059473 -0.121657 0.264388 0.202156 0.0674423 0.0316454 0.16832 0.124544 0.262101 -0.147013 -0.0237158 0.105379 0.00868207 0.448399 0.191963 0.365399 0.0894524 0.060842 0.198283 -0.00340667 -0.023007 0.130506 0.0362564 0.768765 -0.204082 0.176459 -0.282356 0.217059 -0.235564 0.148852 -0.0244443 0.0456085 -0.100851 0.0244761 0.173955 0.0588059 0.0361601 -0.202897 0.000925759 -0.0744992 0.109432 0.124654 -0.147783 0.108532 -0.0154345 -0.0446818 0.0318457 0.0194729 -0.102098 0.0788155 -0.250336 0.0681047 0.0616284 0.0557536 -0.00191359 0.0150793 0.00424493 -0.0399597 0.0563258 0.338655 0.0320961
-3.90888
1.84494 -1.41813 -4.36858 0.293431 4.05054
-0.00149928
-0.945596 -0.442969 0.391398 2.56594 0.198056
-0.172384
-2.14395 1.81424 -0.325983 4.24624 -0.736618
-0.124206
0.707468 -2.75596 1.88508 -0.956555 -2.78621
-0.440646
-3.22796 0.75657 -0.493953 3.98752 -0.956678
0.158007
-0.233069 2.37798 -2.24917 0.41283 -2.82057
-0.499582
0.606143 -2.24191 -1.24651 2.7251 -2.73194
0.149487
0.775951 -1.43983 -4.63237 1.22926 -1.91034
-0.169342
-0.0907856 -0.929686 -4.59262 -0.299069 -3.03554
-0.0864669
-0.919252 -0.421857 4.18863 -2.74631 -0.463703
-0.211667
-1.72731 -1.07283 3.17283 4.15996 0.310342
-0.0570321
-0.0144378 -0.518992 -1.43805 -0.87611 -0.731271
-0.0269251
-1.01125 1.12556 1.57014 -1.16374 0.953898
-0.210133
-5.24881 3.72995 0.857764 -0.758615 -2.25077
-0.0163982
-1.66101 -1.3044 3.09459 3.04607 -2.34619
-0.131091
-1.71466 -3.21532 -0.984666 2.86024 -0.799779
0.172611
-3.82697 -4.99561 0.813998 -1.68235 4.82021
-0.670925
-0.543379 0.00808522 -3.51025 0.88117 -4.01016
0.0402931
-2.04198 -3.97436 1.03665 2.57171 1.89436
-0.0552843
5.10658 0.657968 -3.52358 0.662059 -3.21813
-0.0637841
1.1032 -3.8921 0.146983 1.0351 -5.90002
-0.413703
1.29408 -2.17545 -0.550649 0.527348 -0.902464
0.0668535
-0.765973 2.5457 -1.24419 -0.00875847 0.23095
0.0131104
-1.23532 -1.9145 0.0622249 3.6786 2.99855
-0.5545
2.42147 -0.829666 0.0753942 0.982475 -2.20801
-0.0934491
0.415367 -1.26779 0.418936 -0.692044 -2.43205
0.293371
-3.19621 -3.85495 -7.14574 0.198306 0.450524
0.078231
-4.21378 -0.762677 1.33008 -1.21126 -2.39598
0.160718
-2.65592 3.33448 1.46229 2.598 1.33368
-0.166415
-1.04669 0.546506 1.48869 0.641619 -0.760751
-0.0443468
1.69147 3.06177 -1.19236 2.41183 -0.374516
-0.698011
0.0222527 2.61405 2.02994 0.243902 2.34503
-0.0431749
0.485385 -0.686846 -0.418203 -0.840734 -2.0473
-0.0189129
0.0464764 0.282932 0.586188 0.368694 -0.31022
0.0796114
-1.32063 0.0996741 1.13714 -1.33595 -1.68753
-0.355503
2.08713 0.0945972 1.73345 0.375393 0.0787347
-0.104313
-2.77836 1.09751 2.08728 1.61395 1.50918
-0.0665526
0.772044 -3.21921 0.616325 2.77005 -2.4884
-0.426969
-0.409896 -1.96733 5.66941 -0.576148 0.216775
-0.0500221
-1.92706 1.52951 1.51923 4.47126 -4.88675
0.0564036
1.16747 1.96272 -3.59654 -2.13433 0.553211
0.179577
-1.35875 4.64289 -2.6514 -7.2326 -1.88387
-0.145981
-3.64437 0.626035 -3.42147 3.35991 -2.05315
-0.0455405
0.595613 -2.99181 1.03552 -0.633079 -1.5875
-0.00771218
-1.99524 1.92822 2.47144 2.87861 -0.38839
0.085352
-1.89339 1.12103 1.95562 -2.0581 -2.79977
-0.26413
0.939328 -3.82317 -0.373159 -2.0625 -1.85091
0.214856
-4.06838 -1.94285 -1.39415 -6.54681 -1.80302
0.208201
-5.29561 -0.405189 -3.16352 2.53597 3.21371
-0.0140575
-2.82807 -2.51582 -1.68275 3.49411 1.28603
-0.139366
-2.84724 3.79332 2.23258 -0.928543 -3.40653
-0.135483
1.28046 2.33219 2.87519 3.7201 -0.155044
0.136881
-2.61521 3.13867 -0.490792 0.109864 -3.24121
-0.397893
0.392444 -1.46384 0.661843 1.40124 -4.03363
-0.160257
-0.0471381 3.39855 6.16421 4.0242 -0.75927
0.0960093
-1.91217 -2.71451 0.633244 1.40987 0.828737
-0.0563915
-0.76384 -0.915231 -1.51091 -0.203929 0.935085
0.0639668
-1.9269 -0.119057 0.329046 0.379849 -0.197854
-0.0347314
0.0194518 -0.606884 0.990894 -1.53786 -2.58211
0.0801091
-0.423255 -1.08863 -2.7424 0.239981 -4.26646
0.0550045
-1.03338 -1.30502 -1.37707 2.86802 -4.73467
0.00967634
2.31141 -4.22256 -1.17912 0.734895 1.66552
-0.00616455
-2.03411 2.85747 3.255 -2.54771 -1.10242
0.0199652
-0.245056 -3.34361 -1.27343 0.546173 2.84812
-0.205751
-2.88848 2.27552 -0.471347 -0.854577 1.71739
-0.0140667
2.77587 2.03692 -4.11035 4.14287 4.05947
-0.399755
-1.16285 -0.365585 0.268399 2.72902 1.50811
-0.138569
0.0928611 1.22867 3.57802 0.689515 1.73849
-0.457142
-0.835941 -3.40532 4.70249 -2.11904 -1.52116
-0.00737523
-0.465096 2.96191 -1.50088 -1.94454 6.25233
-0.101626
-0.83284 -0.68268 1.28954 1.86042 -1.41888
0.236511
-4.21767 3.5843 -1.82601 -3.50662 0.09434
-0.0230817
-1.4465 1.87504 1.25248 1.8699 -0.806505
0.02511
-1.16302 -4.06175 0.950088 -2.63096 -0.988525
0.00843477
-0.320378 2.61177 1.68904 0.57905 -2.6828
-0.031272
1.23765 -1.67088 -2.72022 -0.826857 -2.97136
-0.194995
1.72948 -1.40758 3.57791 -1.43094 1.24594
-0.124636
-2.86862 -1.63391 4.87175 -1.55713 4.33963
0.0533817
0.447951 -3.63835 -4.96848 0.89445 -2.84926
-0.122365
-0.496153 -2.76195 -2.37276 -2.63742 0.0123173
-0.0634736
3.00917 -4.30118 -2.19107 -2.4105 -0.250845
-0.100561
-0.85366 0.533614 3.25404 -2.07295 6.49463
-0.338661
2.05305 2.58657 -0.411176 4.33953 0.455378
-0.0779952
-0.454878 -0.663263 1.86799 -0.537773 -2.13107
-0.298992
2.97286 -3.56864 3.45416 -1.05816 -5.22693
0.0746688
-3.79256 -0.7692 -2.19951 4.63949 -1.0726
-0.0139164
-2.58827 -7.53319 0.821327 1.91912 2.0702
0.122616
-6.12036 2.2215 2.5696 0.172499 2.32465
-0.141802
0.564063 -1.13733 -1.32029 -2.50093 0.419757
-0.0933439
2.52424 -0.248922 -0.882031 3.80637 2.8346
-0.149359
-0.855625 0.79447 1.496 1.35099 -1.64519
-0.153167
0.65903 -2.05173 3.55524 2.06629 5.29711
0.078616
-1.35198 2.96334 0.416497 1.44153 0.972907
-0.164738
-0.0505759 -0.421454 3.14731 -0.761424 -0.0488179
-0.108614
-1.85692 -1.37971 3.77291 -1.51809 -0.652265
-0.0648127
-0.134218 -1.03771 1.06194 -4.2192 -2.4576
-0.108725
4.32121 -1.7235 -3.43825 2.23293 -3.8218
-0.065236
2.39641 1.54849 -4.77606 -2.19729 -2.39694
-0.154976
1.09397 0.852919 3.81547 -1.10357 -2.36701
-0.105561
0.59703 1.13232 -0.119913 4.29556 -2.28672
