0.979661 10715 289 6 6
100
1.8065 0.913091 0.480152 0.932536 0.659704 1.05105 0.635329 0.552248 0.167856 0.304502 0.28296 0.243098 0.0377462 -0.530098 0.416961 0.377541 0.213907 0.0118626 0.284261 0.100671 0.0741459 -0.0154517 0.246033 0.583408 -0.099972 0.419118 -0.111571 0.366394 -0.25656 0.319323 0.113089 0.174087 0.0501149 -0.0222727 0.226679 0.301179 0.328885 0.282401 -0.114631 0.107239 0.227715 0.0741664 0.371347 -0.182003 0.247592 0.124543 0.04039 -0.183529 0.0611774 0.284697 -0.276423 0.206039 -0.0899866 -0.0669656 -0.173584 0.17357 0.13341 0.00460367 0.0711737 0.122656 0.162684 -0.0181408 -0.0617787 0.024545 0.306882 0.324726 0.399412 -0.0234908 0.249349 -0.00749342 0.135818 0.0443783 0.308597 0.142389 0.184964 -0.014708 -0.174511 -0.127492 -0.130344 0.175677 -0.349001 0.10769 -0.0638774 -0.0446507 0.132132 -0.0414249 0.106922 -0.217881 0.0296899 0.0705814 0.195055 -0.0720141 -0.0811058 0.0270074 0.0504583 -0.0754234 0.196906 0.198079 -0.0884514 -0.0668056
-4.43205
-1.14693 4.00241 -3.03294 1.50345 0.858441 2.33686 0.78139 2.25843 -3.24825 -1.94829
-0.0729069
4.11581 -6.18956 -2.02368 2.06138 -2.91899 3.7888 2.93254 -1.41871 2.40964 -3.57708
0.755264
2.65061 3.90149 -3.87576 1.81037 -1.15633 0.59254 -5.57269 -0.528809 0.719198 -0.521929
-0.425105
3.81344 -1.87196 2.29192 -0.00442969 0.0378425 9.57631 -0.130984 -0.740746 -8.62714 0.942228
-0.13115
-0.339242 2.76663 -0.215251 5.88401 -0.710988 5.29957 -3.99258 3.49655 5.03773 1.4637
0.0753812
5.38455 -3.42822 -3.19983 -3.13781 -4.21643 -4.83525 -2.5715 -0.631465 2.15079 3.10877
-1.00096
-3.27599 -2.66469 4.62017 -3.10539 1.71437 -2.52438 -1.99253 5.25699 -2.08413 0.834479
-0.90638
6.67864 -2.12459 0.694733 -0.848381 -0.815454 1.87545 3.43312 -0.856212 -0.807722 4.21719
0.839477
-2.14418 -1.77566 -2.49447 3.91895 1.84145 -4.23899 -1.6094 0.572138 5.85473 -2.22502
-0.669099
8.68355 -0.533988 -7.01878 3.12158 2.83917 -6.8942 3.84371 -1.76501 1.8092 -1.1016
-0.405801
1.26613 5.98661 -6.4077 -4.44189 -0.944697 3.68535 -4.33134 4.93462 3.06289 0.943077
0.343482
0.838107 -0.0390462 -1.05867 2.78303 1.42278 1.45984 -2.51957 -1.04369 4.32916 2.98742
0.132853
-0.099843 -1.9605 -1.65492 -2.46622 2.52431 -3.46702 4.1819 -3.1059 0.788469 3.043
0.0680162
-1.36352 0.113045 0.0947683 -4.76953 -1.82265 1.87361 -0.64247 -0.0715362 -2.8778 1.68443
-1.02051
3.18034 -1.84958 -1.95221 -0.868563 1.19315 1.19352 0.163476 0.607553 -1.1542 0.432429
1.18974
-2.04031 2.93121 -0.439176 -2.90836 1.74554 -1.71704 -8.01078 -3.16806 3.75089 -2.55258
-0.631179
-0.0832585 1.65562 0.797205 -0.0544763 -4.84152 1.5172 -3.33726 4.27419 1.84135 0.84228
-0.160208
-0.797784 -1.11841 -5.06352 9.85713 -2.76421 8.51602 -0.817063 6.22094 1.57617 1.61502
-0.0525446
0.319804 -6.341 7.71041 -3.5757 -1.4955 -1.98725 2.13457 -0.772293 1.12845 -0.0281306
-1.72445
4.03909 3.03173 -0.848574 -3.98531 4.42018 1.75436 -3.71011 8.0827 0.590806 -2.02461
1.02431
1.5901 -0.0694288 -4.10608 1.28213 1.45638 1.58393 -3.51455 -3.13564 -0.362217 -3.45921
0.72455
-3.50656 -0.0464261 -1.22747 -5.47462 -3.4859 -0.949682 1.95358 -1.34712 3.25703 0.85941
-0.143686
0.305135 -1.05315 1.5359 1.2386 1.36417 -1.00755 -4.09707 2.13882 2.69891 2.38866
0.246014
3.22184 -2.50519 -2.54569 0.0540128 -0.869938 -8.91936 -0.55578 1.0796 0.378754 -5.22999
0.405456
-2.91823 -3.29434 -2.60252 -0.766912 3.12962 3.80881 -4.7991 0.823575 -0.0295974 2.26131
-0.696591
3.90775 -2.58473 -1.25056 0.876203 -4.1933 -2.5939 -3.82191 -0.42882 0.1449 4.23226
0.676894
-1.71074 -2.93977 1.71373 3.20086 -0.485696 -3.64297 2.94535 -4.16234 3.67402 0.0624451
0.741285
-2.54967 2.03668 -1.63283 -6.67146 -0.571647 -2.07653 -2.57142 1.23184 -0.933739 -7.62983
-0.650361
0.814662 4.92804 0.166494 -2.56372 -2.74256 0.548578 -0.0834719 -1.02176 2.00418 0.0246972
-0.689053
3.10116 -4.02829 2.67628 1.72756 1.1575 -0.231962 0.175048 -2.29068 5.22072 1.27677
0.534419
-0.434703 3.70824 -6.65724 -3.97881 2.16807 1.33391 -2.37372 -0.661336 1.39197 -3.7731
-0.465448
-0.635936 3.68632 -4.5023 -0.445678 -3.29222 -2.92038 -2.09761 5.71436 -3.58707 3.67228
-0.575132
5.39605 -0.837473 1.2194 -0.512642 -1.31238 2.90234 -4.02525 0.895414 1.10539 1.59699
-0.750619
3.73293 2.13622 2.8076 -0.7746 1.31284 -1.12095 0.885394 -0.299457 2.15877 -1.3985
0.879593
0.275205 -1.65572 -8.50725 -1.76748 5.70608 -5.62272 0.827035 -0.986262 0.649497 -2.3609
-0.622124
5.81952 3.75016 3.08768 -2.63617 3.84625 2.83369 -6.28113 -1.78189 -2.13204 -2.24789
0.453454
1.85696 -3.89625 -1.76894 5.91158 -2.67427 2.02457 -1.94914 -1.13007 2.49357 0.101945
-0.61765
0.359777 0.685536 -1.55371 -0.654755 -1.85172 2.47685 4.69317 1.30833 1.24243 1.43688
0.0363352
-1.45517 3.32985 -0.929054 0.0642556 1.78157 -0.773226 0.579212 -0.820035 -2.78357 4.06648
-0.223731
-4.43003 2.69953 0.705849 4.00209 1.71381 -4.59941 1.51806 5.21432 -1.91731 1.89491
0.0695092
1.6556 -3.45221 0.725295 -0.738685 0.227541 -1.27496 -0.775145 1.66078 0.620574 0.218759
0.173358
0.807115 -0.50863 -5.5044 -5.06725 0.833595 2.80254 2.77533 -1.18817 1.49256 -3.06381
-0.371616
2.28538 -0.602607 -0.441288 -3.02569 -2.90362 -2.76475 -4.17105 1.83356 -1.99389 2.97954
0.189427
-4.49611 4.30625 3.94385 3.7477 -0.937166 -4.15338 0.910043 -0.276215 -1.34662 -0.884169
0.0872123
1.71545 2.42982 0.305836 -0.957961 5.77481 -1.20672 -4.76562 2.52208 -6.2575 1.35411
0.0729746
2.09802 -1.52317 1.82631 -1.45139 -1.04183 2.46851 -2.19485 -1.93179 2.13254 -0.880716
0.342528
-0.0363551 0.347284 -2.02346 -2.39288 -4.48012 0.0808273 0.607549 -4.02256 -1.57598 5.37632
-0.338978
1.76064 -1.06874 -2.04314 4.67356 1.74519 2.85003 3.56765 0.646737 0.887962 -2.44934
-0.921253
4.20576 -2.83917 0.133898 3.8447 6.85659 5.01003 2.24499 -0.447665 2.7245 6.11874
-0.894054
4.29325 4.29741 1.97117 -1.58089 -2.24391 0.0722616 3.14003 -2.55623 -0.271194 -4.30995
-0.793688
2.36294 -0.413021 -0.0831934 4.09496 -7.93322 -4.47663 4.94856 1.14363 2.85407 -1.70893
-0.693725
0.979359 -5.72105 5.62552 -3.11902 3.45402 1.12841 -2.49108 1.02457 4.97113 6.19132
0.273902
-0.142753 -0.359069 2.27162 0.116163 -2.95881 -3.1785 1.7866 -4.20932 -0.563787 -3.49889
0.113819
3.75715 -2.75486 -5.79809 4.28916 0.397822 -4.22358 -1.10993 0.667793 1.12983 -4.10737
0.206395
-1.22671 -4.72468 3.8169 -0.800083 1.09587 3.70661 0.413153 -1.90477 1.84777 2.13605
-0.193675
-0.221959 1.81489 -3.53638 -0.065266 -0.98515 0.389556 0.409089 -1.27057 -3.52139 3.47373
-0.219235
0.912378 -0.618747 2.8284 -2.06177 -2.13866 -3.47301 0.638183 -0.244548 0.365518 -2.20794
-0.377723
4.09419 -2.00678 2.71302 -3.3764 -2.54016 0.559063 0.588385 -2.60348 1.92951 3.38748
-0.252735
3.18426 -3.54568 -5.36486 -3.61433 2.3707 -0.557257 -0.894756 4.41122 2.74135 -2.87491
0.49996
-1.38107 4.23817 -1.99189 2.18902 -0.322349 -0.7315 -5.62384 -1.95219 -2.17193 3.79624
-0.110628
0.258596 2.06508 7.78361 -3.29334 -2.18134 0.0930817 0.3487 -5.41054 3.10137 2.20703
0.581757
2.05105 -3.13306 3.73426 0.262703 -2.36512 0.144704 -2.93745 -6.20944 3.19564 4.34574
0.0842164
-1.66717 -0.248516 -1.24348 5.32508 -2.73996 -0.617362 2.3838 0.83711 -0.270435 -0.862018
1.25573
-1.41273 -2.65455 -0.00791371 -0.381299 5.49863 -2.85622 -3.42668 -4.12709 0.696944 -2.73794
1.51967
-4.07925 -3.32469 -5.15473 2.47271 -0.707562 0.372666 -6.21368 -0.223857 7.81828 -3.421
-0.265547
1.02512 1.6779 0.112292 -1.45667 -2.67318 0.495517 -4.49537 1.25076 -3.30488 -0.8767
0.915523
2.23419 -7.40494 -7.35743 0.324049 1.15009 -2.56739 -1.83242 0.274357 -2.00936 4.16727
0.377357
0.448083 -1.9657 -2.47028 -2.54165 0.0123013 -4.42935 -0.414592 -3.8754 -1.19331 0.387796
-0.650632
2.16751 2.89909 3.10495 0.249808 -3.7557 2.52417 -2.10522 -0.558216 -12.3923 -1.52191
0.328043
0.464504 1.35329 0.397322 -2.3943 -0.573467 2.4722 -3.84166 -3.31863 0.316247 3.99436
-0.824583
4.53108 2.76237 -1.3343 2.06908 -6.10667 -1.61558 -1.11942 1.69064 2.21579 -0.504697
0.359689
-0.480557 0.735813 -1.50961 1.04337 4.47383 7.67122 -1.66201 -0.895158 -3.9182 0.0236648
-0.494252
8.23856 -1.07254 -5.33861 1.44844 -0.929056 3.87029 -2.59873 1.131 -4.55301 -0.632459
0.103894
1.5697 -1.58154 4.14563 1.09197 7.38405 -4.89066 -2.28868 -1.32033 -4.27071 3.08725
-0.23299
3.1019 1.37411 2.2724 2.59191 0.910649 -2.19867 -1.74211 -2.18502 -3.74967 -1.69072
0.746911
3.03583 -3.77245 -0.373023 4.95153 -1.40087 1.89292 -0.0806818 -7.69625 3.90956 -0.0754758
0.093702
-2.99965 1.33074 2.33432 1.17998 5.51352 -3.26925 3.17256 -1.98278 4.36598 -1.08476
-0.377546
1.76379 -8.17465 1.49923 -0.400227 3.92868 2.79238 5.19243 1.05439 1.61067 7.4396
-0.102348
-2.49698 1.95169 -1.47402 -3.83237 4.60061 -1.29887 4.8643 -0.671641 2.85115 0.218354
-0.913056
3.42051 0.894841 1.33851 3.93827 3.93406 1.69993 -6.71406 3.02441 2.8332 -2.25716
0.166221
-0.771632 -1.21889 0.0415859 1.65925 7.5402 5.99243 -4.16363 0.654232 -0.163387 -0.0657145
0.0841378
-0.911271 4.71901 -3.44226 -1.98636 3.55069 -4.95919 -4.90657 -2.96194 2.07 3.29805
-0.178974
5.82585 1.52627 -2.52707 -8.95177 2.25892 0.307204 -3.4258 -4.02696 -5.44969 0.698462
0.183134
-0.955379 -7.37912 0.033572 -0.793989 2.28345 5.95521 -2.26991 1.74843 0.603393 2.16476
0.486904
-3.45518 4.90373 -9.10469 -3.98876 1.01387 4.41547 2.22606 -2.94289 -2.41678 3.11222
0.139732
5.5289 -6.77252 3.22895 0.359679 -1.50945 1.8081 -1.51569 -4.77183 0.473233 -0.444746
-0.00673319
5.05844 -5.183 1.81142 -0.992668 5.78177 1.09939 -0.848097 -2.77504 -5.90582 -1.86915
0.217223
-1.51913 0.231579 -2.484 -4.13791 -3.78554 -5.26897 -0.688866 -1.08855 2.7518 4.43156
0.632697
-0.498329 -1.24508 -2.56011 -5.09832 0.697365 -1.38449 -0.668294 -5.95529 3.80761 -5.13452
0.333725
-8.19977 3.0927 1.97481 1.66767 -3.81428 -0.299711 1.63056 -0.968429 -1.95297 -3.81265
-1.17956
2.44954 -3.413 1.40006 -2.42925 -3.32828 -2.36963 -1.46321 6.5929 -4.57967 0.121474
-0.647026
-1.16799 0.620699 1.84967 -0.690559 4.62145 0.66635 1.85812 3.08547 -3.04985 -1.94303
-0.265402
-1.74619 2.04715 2.02302 -4.03797 -2.92161 4.34918 -2.67366 -1.13836 5.95874 5.92098
-0.720918
4.41217 3.39014 1.67202 0.767881 2.90906 0.98009 -5.25392 -2.85409 2.80652 0.935022
-0.717945
2.32842 -3.54011 7.01581 -0.268313 0.79796 7.07939 -1.0788 -0.37886 0.66923 -0.984385
-0.388754
0.974797 1.27608 -0.563151 -4.6296 0.493275 -1.73769 2.61415 -1.93829 -0.925417 2.08238
-0.502773
1.46156 -0.942941 -0.227354 1.18662 -5.35528 -0.170578 -2.81514 2.52001 -7.22181 0.124447
0.603757
-5.36884 -4.41534 2.32359 -5.43527 -1.43896 0.662148 3.73506 0.645105 1.89502 -4.35334
0.0299734
-0.914754 -2.94572 2.05177 6.18866 -1.0075 2.75349 1.17949 0.32642 -9.67678 1.10078
-0.47798
-4.11157 1.54303 2.85046 3.41307 2.41023 4.37042 3.76626 0.627147 -0.796298 2.4115
10 10
1 0 0 0.009303 0 0 0 0 0 0
147 1.19486 4.51285 527.411 0.157705 536.058 4.5111 0.771819 2.13175 0.064676
