0.965278 21559 278 17 3
100
2.15573 0.750343 0.511757 0.27061 0.939889 0.496437 0.279276 0.222113 0.0326548 -0.036784 0.296033 0.320518 0.312997 0.0481324 0.194304 0.248223 0.193381 0.688825 -0.0400599 -0.0541818 0.0151416 -0.0350183 0.123015 0.129214 -1.03669 0.384968 0.406319 0.0704798 0.199076 0.286744 0.151657 -0.25644 -0.0517399 -0.0174409 0.110959 0.170947 0.0552836 -0.145992 -0.468474 0.500041 -0.0357472 0.384493 0.371165 -0.0390915 0.356349 -0.494011 0.0529911 -0.0690972 -0.0502192 0.146826 -0.149337 -0.0320742 -0.26535 0.227213 0.0898276 -0.00968346 0.075086 0.141059 0.0766322 0.0695722 0.062494 0.311798 0.176407 0.139444 0.155679 -0.0832398 0.443011 0.254984 -0.113157 -0.0726184 -0.00234156 -0.365688 0.153878 0.175751 0.0579601 0.103865 -0.0961034 0.190378 -0.051512 0.0411323 -0.00656863 -0.554454 0.288903 -0.133241 0.158942 0.0020839 -0.167455 0.126116 -0.334082 -0.0138645 0.259981 -0.205142 0.069659 0.0321427 -0.0868887 0.0487749 0.10754 0.0537011 -0.0802836 0.0988146
-6.40917
-2.67491 2.01861 0.13217 -2.12189 -1.18406 0.796676 -3.51219 0.236085 4.20186 -3.88982
-0.446855
2.74132 -2.17585 -2.37207 -3.27659 5.09176 -1.97545 -2.27129 5.05083 -6.03745 -1.15704
0.266919
3.73435 -4.74322 0.578217 6.25949 0.223634 -0.295799 0.896806 -2.33719 -4.57556 5.60278
-0.306653
1.01527 -0.551246 -4.58609 -4.11161 -1.67288 -1.80444 2.5007 2.51822 -5.24621 -5.61774
-0.156857
4.41744 -5.32379 0.457199 1.9086 3.98892 -0.128776 5.6201 -6.06401 -1.20321 9.13998
0.102246
2.39772 -5.32141 1.93746 -3.64455 1.92494 -0.517259 -0.124467 1.71049 -0.502209 0.0662485
-1.83507
1.49688 7.53615 -3.3673 1.20805 0.740341 -1.09997 -0.0878399 5.59615 -4.27176 2.5524
0.00441717
-0.386948 -3.06874 3.56522 -4.70879 -1.96965 -4.26984 -4.64522 2.67567 -6.49006 3.25143
0.994677
-2.28502 1.24987 -7.09362 1.86371 2.17571 -0.769815 6.05766 -5.66015 -2.91092 3.41081
-1.01663
1.79015 3.27593 -6.28199 1.40109 -0.580618 2.73578 5.15884 2.72502 2.84217 1.32631
0.408007
2.29064 -0.868845 -4.51158 -1.63805 -3.26324 0.644287 -2.39778 -0.802756 -3.05783 -1.74872
-0.743466
-0.41716 -1.66706 -0.993667 -4.70636 0.805419 3.29545 1.34732 5.89284 0.793139 -2.7781
0.206096
1.89981 -6.96488 -2.83939 2.60037 -5.02634 2.06646 4.84793 -0.218506 3.93821 -1.09946
-0.010817
-1.28269 3.0979 -0.874056 -3.12458 -3.36286 -0.0425762 -1.27742 -2.26979 0.126036 3.94112
-0.390075
-0.781383 -3.56579 -3.24537 0.908069 4.12269 -1.86503 7.6188 2.74829 -1.83156 1.48452
0.367817
0.74831 -3.05026 4.27418 -2.37619 -3.37974 0.403765 -5.8123 -0.993123 -0.728639 -0.348424
-0.0506736
0.6882 -0.64457 -1.75521 -1.23256 -0.93272 -0.748726 -0.226108 -1.82984 1.46377 -0.969834
-0.543604
8.71581 -0.297228 -2.382 -5.18703 -3.26417 -2.6275 -6.64116 -1.67185 2.97913 -0.45815
0.338883
-1.04835 2.23445 -0.512205 -2.00405 1.32528 -2.75281 0.953483 -1.42001 -3.46526 -2.33895
0.1841
2.21978 -0.753201 -2.02306 -2.10878 -0.572988 -7.09555 -0.133248 -0.816859 -1.91849 -4.35649
0.88175
-1.60699 -1.34179 2.09796 -0.00242179 1.73083 -3.92434 -0.901514 -3.85417 3.7087 -2.09963
0.228738
2.8192 4.25715 -7.10042 -4.109 -0.569491 -4.13725 1.61178 -4.53462 -1.66752 2.92069
-0.549204
7.65499 -4.88947 -4.38032 2.82221 4.75689 -5.82268 -0.385238 0.517293 -2.98987 6.13833
0.0975569
0.111531 3.25185 -5.31557 -0.0740019 2.59085 -1.5586 0.301374 -0.31628 0.876874 6.44457
0.333308
0.395517 -2.92746 -3.03839 10.3728 1.0051 5.97183 -1.20145 -0.233293 0.772214 -1.41261
-0.374513
1.89735 0.315313 -3.52773 -7.22395 2.05824 5.02284 0.595192 -3.55262 -1.97655 -0.24227
0.375156
-0.758778 -0.680684 1.04668 1.62441 -1.86091 -6.12794 -0.836027 0.297241 -3.12323 -2.23588
0.633783
-5.88629 -0.742919 2.50816 -4.84415 -4.62096 0.621594 1.45383 -1.75921 2.9981 -2.58703
-1.59991
4.44822 -2.32792 -0.0213047 0.414429 1.80646 1.5559 -4.06591 4.71143 0.34552 1.6124
0.264707
0.396861 2.77327 -5.13013 3.6922 -0.241826 5.24207 -0.644802 -1.63144 0.0143047 -2.98636
-0.121652
-1.17917 -0.453829 -0.772675 -3.55324 0.208183 4.48973 1.06134 0.803778 0.267291 -1.66557
-0.371036
0.0863716 6.54542 3.35223 -2.93454 -3.07991 9.16408 -5.16883 -2.2707 3.91315 3.26704
-0.301672
-3.25233 3.8461 -1.21064 -1.25468 -0.171273 -0.214641 3.69903 -0.738952 -1.92759 3.70112
-0.961472
-1.81405 0.00579138 5.47415 4.18368 4.00776 4.48718 2.61294 2.30902 -1.80547 -0.800886
-0.228996
-3.18927 6.70908 2.09323 3.01378 0.325569 3.46353 -4.33945 -2.40493 -0.0757126 3.99264
-0.212492
0.803612 0.0348655 1.25784 0.926049 1.79796 -1.37803 -6.05083 0.14913 -0.705065 1.10372
0.229925
-0.573137 1.67344 4.82186 -3.99043 -5.43378 -0.316969 -3.4458 -1.22758 -0.158511 -4.74535
1.04511
-3.71802 -5.60677 3.2327 -0.586359 -3.40443 -2.89757 -0.934069 0.129806 -3.10624 -5.86288
0.133644
0.692451 -3.95789 -0.432799 -2.8915 0.28502 -4.80794 -2.21926 1.88871 -2.13185 1.07864
0.258594
3.21632 2.04335 -6.58087 -1.71346 2.82251 -2.32547 -4.19847 -0.060743 -4.15832 0.362846
0.222239
-0.240272 -2.46401 -2.53871 -0.0149804 6.24323 -1.20623 -2.2631 -2.18934 -3.44146 -2.8601
-0.602331
2.59603 -1.78201 -2.67786 3.64304 -2.54862 -1.12284 4.15468 -1.83863 -4.73579 -0.540538
0.00976309
2.03669 5.81202 -7.65874 -3.90392 -4.34257 -3.62655 -2.82249 0.67314 0.552339 -2.85632
0.180529
-4.15688 -0.273244 -6.38262 1.505 1.22123 0.21386 0.0686043 0.704017 3.4346 8.42552
-0.540756
-4.42577 3.38898 -0.683527 -1.76372 3.41043 -4.10089 -2.17758 4.92011 5.04753 -2.93825
0.31365
-0.741002 -3.38148 -1.95671 -0.588917 3.83476 2.51804 -2.02656 1.08398 4.01309 -1.45435
-1.2789
7.89458 -1.74298 -1.08339 -0.390694 3.45541 -3.55636 -6.50603 1.1907 -1.16486 2.71613
-0.425524
-0.81228 2.12119 -0.331796 -0.588818 2.49079 -1.30396 2.0029 0.00531202 -1.34644 -0.00693355
-0.699657
3.83374 -6.53322 3.2541 2.28365 4.89978 3.8144 1.69727 -0.465014 -2.53731 -1.26881
-1.18794
-0.250415 -5.1537 6.08955 2.24858 0.111091 -4.99801 1.06078 3.81465 1.88923 2.57232
0.945883
-1.88704 -0.0337222 -1.85377 5.70633 4.21347 -1.14257 -3.98123 -3.07756 1.05968 -1.81357
0.155835
-2.29438 -4.12842 1.80951 -2.05674 -2.21528 7.83907 5.23272 0.0608256 -0.348656 -2.12093
0.436898
-1.18215 1.63682 -3.46322 3.04108 -0.125975 6.88861 -5.31038 -0.885309 0.374307 2.06701
-0.814558
0.616491 0.0065221 3.11309 1.15241 -0.370442 0.50246 -4.54204 0.151386 4.53193 -2.06331
-0.097415
-0.580011 -0.351081 -1.2941 0.920505 1.03078 -0.896959 -4.90393 3.87275 3.04767 -3.83018
-0.250106
3.26755 0.552393 -0.864504 -1.50751 1.4841 -4.30594 -8.49327 0.966873 1.17916 -0.489752
0.151095
-1.39007 0.673865 -2.86599 -3.06173 -3.77545 -1.6885 0.281761 1.45775 -0.480065 -0.873783
1.08642
-1.48408 0.264456 -0.456902 -4.41385 1.4687 -3.50984 -4.2658 -6.55019 3.45269 7.55687
-0.399941
1.16323 0.478523 -0.245462 0.366812 0.299651 -0.280022 -4.22194 1.71625 1.85306 -0.376781
-0.332834
1.89828 -4.36853 2.84808 6.32819 5.01579 -1.26958 9.7851 -2.07306 -7.03176 -5.6168
1.06844
-3.9955 0.768128 -1.14362 -3.50711 5.33234 -2.96657 2.64407 -4.69743 0.604365 1.89518
-0.00108008
2.93615 -2.19322 -2.61918 -1.2773 0.789563 2.23331 -3.99124 1.34641 4.94953 -4.80862
0.216651
-1.34684 0.836866 2.20574 1.44799 -4.25083 1.48699 -2.11249 -0.992806 3.89979 -1.42889
-0.254405
0.010959 -0.506802 2.16944 5.89309 1.5987 6.60671 -4.57779 0.117349 7.4264 5.62566
-0.0234388
-5.54205 -1.13306 2.03104 1.93317 -1.86704 1.0196 6.00981 6.20392 -1.91493 -6.76203
0.181696
-1.83009 5.02829 1.58525 3.98906 -0.891393 6.49346 -3.94758 -2.33048 4.75944 1.1824
0.677858
1.75074 -8.28401 -4.78144 -2.12398 1.46234 0.732528 1.13445 0.516803 2.07317 -0.655659
-0.808124
1.823 3.2246 -0.332441 -0.157131 2.9685 -0.167923 -2.22251 -0.294672 -3.2277 -3.90473
-0.0710171
1.21972 -5.52023 -3.48813 -1.47205 -3.21702 -3.5191 5.69184 2.62758 -0.431621 -6.27043
0.433912
0.177752 -0.10948 -1.47902 -4.01128 -2.98335 1.94553 -2.62245 -1.2385 -0.405632 -3.99606
-0.256515
-0.564679 -5.14527 3.42207 -1.18479 0.207259 -7.88965 3.27519 2.3437 -0.295987 -2.71356
0.129492
-0.250779 -0.0879314 -1.11675 -4.83146 2.852 -2.28145 -1.84252 1.63303 1.34427 -7.68457
0.239529
-1.10627 5.70827 -3.9168 0.991941 1.28114 -0.794641 -1.49523 -2.55933 0.951038 2.00301
1.00022
-3.57297 -1.56043 -3.71311 4.43751 -5.22504 -1.18638 6.56895 -2.95269 4.06303 -1.58529
0.34872
-2.31982 -0.437108 0.253194 -0.0984593 1.43591 7.32059 -0.254077 1.03621 3.76019 -7.70399
-0.283811
-1.80352 -2.31997 1.31518 -0.130613 1.79003 2.51061 -0.0757027 5.36824 -1.80478 -2.56744
0.558257
-3.80036 -2.39777 -1.147 5.4353 3.64952 -0.602292 -4.49189 4.75836 -1.90436 -1.33318
0.255191
2.24706 5.35848 -6.84099 1.04995 -0.710397 2.50267 -8.14034 -0.708357 -0.00681088 2.62252
-0.3644
4.57737 0.0834325 1.43885 1.89136 3.68961 5.00938 1.08718 -4.15551 -3.37154 -4.50335
-0.277266
6.20658 -5.15119 0.940432 4.08879 2.68079 1.17496 -3.45952 -1.61754 -2.97258 0.401127
-1.07435
3.81505 -0.210704 -2.65623 6.01388 -0.498616 -4.77182 -0.410012 2.94402 0.640896 4.47679
0.186213
-0.0430384 4.02155 -6.40164 1.01718 -6.95139 0.731619 -2.46297 -0.760655 1.8329 2.16758
-0.87932
0.461619 -1.64617 -0.982733 2.70782 -1.68812 1.533 6.10203 -1.79658 -3.11724 3.38514
-0.833807
-0.280458 3.76561 7.26328 -3.15822 1.44719 -1.18585 -3.58069 -0.310748 1.07442 -2.99046
-0.185771
0.585047 2.75523 -1.47017 0.338187 -2.13365 -0.756104 -0.277403 -2.78385 1.77166 -4.79382
-0.420819
-2.20936 -0.116917 -2.08374 0.862078 1.72467 0.63194 1.8535 4.86944 -0.688435 0.14158
-0.160358
-0.83313 2.51362 -1.83301 -4.51701 2.61322 -3.55654 3.22792 0.427914 -4.68407 -5.74653
-0.500058
-0.667202 1.51299 -5.01036 -0.840441 2.98991 -1.68213 4.36071 2.58371 -2.27334 -5.11441
0.139278
-1.49432 -0.631256 -4.24341 0.45074 2.94886 3.2638 4.25213 -0.0540031 -0.527563 2.31324
0.89388
-7.62067 -0.536638 -4.05552 -1.96168 -1.05815 -4.16979 -0.116984 0.530442 1.76147 0.179373
0.149232
1.0093 0.0397581 -1.1831 6.44192 -4.40919 -2.12423 -1.4466 -4.26821 -5.60362 -3.31096
0.430599
2.10374 -6.89155 0.112154 -1.56607 0.565991 0.710719 -1.5414 -3.71481 3.55843 2.77979
-1.40801
5.05836 0.200231 -0.294024 -4.50137 0.352014 4.08051 -2.26205 0.415572 -3.10674 4.60676
0.311541
-2.17087 -0.180913 -1.18871 0.00904391 -2.54418 -4.18748 -0.0897643 1.30096 -4.01445 -6.09927
-1.37092
-1.17646 3.16121 3.72433 1.45913 -2.98914 -0.186668 -0.365039 4.45875 -4.04604 -0.191162
1.6157
-5.26466 -2.40274 -2.68584 -0.762772 -1.45249 -5.84102 0.0745904 -5.55989 1.26493 -4.18475
-0.262198
1.74324 -1.87376 -1.8852 -6.35168 5.22411 -6.57284 4.61115 -2.90921 -3.71254 -2.626
1.0837
-5.02692 1.86627 -0.322994 -5.65687 0.955777 1.23416 -1.55415 -3.30798 1.59626 -1.22556
0.400284
0.0400399 -1.95674 1.52689 -1.44382 -6.61108 0.442031 -0.377424 -3.76187 1.32702 0.0824518
-0.0125605
0.223366 -1.17088 -1.17351 4.99001 -2.65056 3.24297 1.53757 -0.460351 -4.10985 1.27756
10 10
1 0 0 0.009303 0 0 0 0 0 0
147 1.19486 4.51285 1551.26 0.157971 1542.55 4.5111 0.788967 2.13175 0.065174
