0.977492 10523 304 12 2
100
1.81138 0.812756 0.162604 -0.0908096 0.251301 0.018897 0.0416196 0.306425 0.247743 0.147167 -0.494585 0.381812 0.632751 0.308901 -0.133457 0.197047 -0.199534 0.217756 -0.055605 -0.0783043 -0.217367 0.355614 0.131056 -0.46335 0.201527 -0.270479 0.233461 0.00635682 -0.0740818 0.165901 0.353344 0.589461 0.273891 0.0269332 0.0204682 0.229943 -0.169202 0.234847 -0.115265 0.438768 0.20249 0.161147 0.110933 0.365241 -0.00825768 0.254645 0.158983 -0.0244978 0.0520202 -0.249316 0.210984 -0.101325 -0.310427 0.171454 0.0161932 -0.128002 -0.465585 0.163013 -0.329493 -0.121529 0.225202 -0.22525 -0.0924008 0.239783 0.203579 0.347182 0.367801 0.17676 0.121296 -0.416511 -0.0301371 0.284315 0.0618512 -0.104886 0.198263 0.123983 0.115389 0.218865 -0.0528337 -0.00748909 -0.123102 0.170666 -0.0044903 0.315483 0.133215 -0.00734731 -0.0185906 0.184156 -0.101899 0.206091 -0.179339 -0.0401808 0.073444 -0.100244 0.024519 -0.46893 0.342083 -0.0811344 -0.0687041 0.185133
-3.94045
-1.42275 -5.99083 -1.56729 4.88718 2.41692 3.40855 4.76664 0.311486 0.118125 0.716792
-0.277091
1.85954 -0.998117 3.85569 -2.98449 -2.18542 -5.22814 -5.24223 3.38805 -4.65842 4.12697
0.870959
-2.73429 -1.40925 1.98264 1.13693 1.18428 -0.810833 0.615147 -3.79067 -2.41622 -2.56197
0.383079
-1.29451 -0.514689 5.56196 -2.52791 2.4626 -2.42893 -4.43881 -3.53816 5.14544 -0.762938
0.688932
-0.894467 -4.78719 0.54473 3.00829 -0.915358 2.43615 1.37438 -1.32739 0.517024 -10.1489
0.113898
0.717197 -1.03126 0.0538913 -5.45107 -2.14367 -3.29093 -5.58207 -0.101187 1.58495 0.200892
0.178205
1.86238 3.05102 -3.34889 -0.186899 1.00742 3.52968 -1.25077 -5.79533 -2.47001 2.59392
-0.403752
2.97326 -1.53434 -0.635215 -0.59967 -7.86617 1.37827 -2.8456 2.51014 5.41453 1.87422
-3.26402e-05
1.69669 0.678644 2.79806 -0.558764 -0.903247 2.75916 -1.93732 -1.85285 0.761604 1.9138
-0.761044
4.51758 0.745283 -0.365778 -2.27944 -0.000714013 1.72638 -3.78932 1.77833 -1.93895 8.40521
0.482243
-5.02665 1.23412 -0.429017 -0.1179 0.29156 -0.919872 -3.66638 -1.0188 0.745476 1.4637
-0.228348
3.38763 -6.98371 10.1682 -8.87546 0.0728934 -5.9419 0.438176 -4.6542 -1.98641 -1.65312
0.740226
-0.246888 -0.00108318 -0.484315 -2.98687 0.686237 -2.2747 -2.43098 -1.67777 -1.47934 -5.86622
-0.0336012
-7.35381 -1.59429 1.94489 2.40166 6.97362 -0.103372 1.24004 -2.71556 -0.866244 2.42944
0.283363
-2.82864 0.414167 -1.35616 0.033245 -0.92492 -3.15071 -0.423765 -0.293401 0.543431 1.99483
0.0677386
0.497448 3.20475 0.188012 4.03411 0.638272 2.53824 -1.86691 -2.38995 -1.14199 -3.7626
-0.252044
-4.13548 0.566509 -0.503677 -0.870767 -1.50411 -0.704421 2.01037 5.31618 -2.85754 0.147967
-0.253156
3.11678 1.56401 -4.37652 -1.04234 -2.70929 2.18185 -0.796881 -2.78025 -1.05638 -0.534023
-0.07985
1.12797 -0.184987 2.94393 3.08488 -5.95025 -0.0570963 -0.160596 -3.27716 1.10056 2.71591
0.877066
-6.72016 -6.21599 -1.88063 0.663086 6.00933 5.1081 1.15192 -1.16128 1.86703 1.85941
0.126208
-2.56395 0.22193 1.58558 -2.8724 -7.14558 -6.62462 1.15524 -0.0208701 -2.46966 -3.15813
0.34008
-0.510279 -1.76542 0.40089 2.77339 1.88983 -0.653113 -0.668332 0.672687 -1.72769 -3.67507
-0.619683
2.63288 -1.67689 -1.38785 -6.88264 -2.37757 -2.06359 4.63959 -1.937 -0.577105 5.72354
0.1223
-3.41925 0.881512 0.950506 -1.92383 -2.52063 -1.78181 2.18311 -2.86213 -4.39082 -3.34905
-0.0492921
-0.570191 -4.16977 0.391841 0.0414835 -0.830618 -1.93567 0.351348 -0.780406 4.59718 -2.05134
0.412192
-9.42487 -0.722445 -0.719753 -0.610838 -0.424354 -3.1727 4.93882 1.98901 4.10589 -1.75465
0.284692
-2.58859 -2.04956 2.79155 0.10364 -2.68939 3.86033 0.634712 1.04562 -3.9184 -0.737771
0.176767
-1.67044 -2.56938 1.05668 -5.21517 1.73369 1.96476 -2.55747 0.19676 0.951655 0.1563
-0.368178
-0.753896 -1.37249 0.31462 0.319623 -1.91302 4.8731 -0.335494 5.0482 -4.62548 -0.46071
-0.0718843
0.896152 1.04069 1.29838 -0.244876 -2.14098 -5.35887 -4.07471 -3.04085 -0.346689 1.78068
-0.0305199
5.31426 -4.15089 -4.89613 -3.30851 -1.21721 -4.52897 -0.346693 4.41207 -0.517015 -0.401229
1.13725
-4.45496 -0.2676 1.3102 2.54849 2.55837 -2.81365 -3.73621 -11.3282 -1.23789 5.74551
-0.250088
3.01862 -1.39723 0.823655 1.83703 0.656902 2.56776 -4.01984 0.413056 -3.13195 -6.70774
0.251236
-0.542579 -0.662762 0.315545 2.43695 -1.1718 6.5815 0.922921 -1.48579 0.847101 -2.30751
0.507511
-7.38226 4.27363 3.35392 4.49171 -3.74977 2.16994 -7.43002 0.0424744 2.70527 -2.39545
-0.00278159
2.7247 4.37635 -0.0934357 1.41563 -2.19416 6.0452 -6.06572 -1.04258 -1.33043 -3.04314
0.0521759
3.52028 2.32433 -7.60679 -0.194564 -1.41826 0.719881 -2.82797 -4.79281 1.22571 2.26972
-0.0426648
-4.44338 -2.2369 2.27305 -2.70553 0.140845 0.755538 3.11804 -3.34837 -6.43865 0.778975
0.428971
-7.69788 5.06718 -3.46688 -3.07566 -2.43728 3.73949 -0.91187 -0.1388 -1.0316 -3.57762
0.496914
-1.44642 2.22563 -10.4698 3.7827 -1.83039 -3.31592 -3.97046 3.21698 -6.44511 -3.81729
-0.551943
1.72363 -2.31174 1.96571 1.05029 1.13714 -1.51154 2.00931 2.05835 -4.6803 -6.79987
0.0782055
-0.194854 3.46603 -1.24682 -0.144793 -4.45913 -3.92451 -5.60399 1.56089 -1.62953 -5.09281
-0.231317
0.525544 -3.91909 -2.91145 1.39065 -5.28119 0.142269 1.30142 4.26553 1.55647 5.22558
-0.250339
4.34567 -6.14095 4.62999 -6.44051 5.07674 1.53157 7.28514 -2.45377 -0.601912 0.505471
0.276567
-4.02911 -0.611248 3.54017 -0.0516824 3.19518 3.05808 0.560739 0.221271 -8.20399 0.895175
0.337947
3.17149 -0.730017 0.0383085 -5.12384 -4.92021 -1.27046 0.866512 -7.22578 2.50158 -2.15025
-0.38754
4.13838 -1.73334 -4.81341 -3.1125 -1.51352 -3.24076 5.63191 2.50178 -7.06751 4.00947
0.0862022
-1.42864 1.58415 -4.3107 -3.75419 -0.696929 3.00012 -1.22612 3.02773 4.32594 -2.74409
0.216179
-2.20946 0.693604 -1.47063 -2.97598 -6.48414 2.9445 2.02452 -1.28065 -1.58089 -1.65817
-0.0773175
-2.17867 0.0172539 2.93748 0.833961 4.80523 2.18386 3.10813 -1.03131 -5.77786 -1.34733
-0.0876254
3.16117 -6.06839 -6.3441 -4.79758 -4.83813 4.57206 -3.52881 6.79699 -5.83074 -0.382734
-0.526914
1.62835 5.10044 3.40344 1.08322 1.44535 3.09272 4.91631 -2.194 -2.97874 1.6243
-0.0995161
-2.66407 3.11605 -0.975061 0.406482 1.57454 5.66743 -1.04522 1.39878 1.50483 2.2028
-0.359402
-5.01793 -3.28646 6.08726 1.0878 -0.563463 -2.18167 -0.539055 1.35607 4.30167 6.17829
-0.404559
4.46273 1.01194 -3.10368 3.24337 2.62681 -0.838077 1.74149 0.264664 2.29856 1.13371
0.247628
-0.638647 -2.61079 -1.34753 -0.737308 -0.246565 -0.815652 -1.4568 -1.31551 1.45648 -1.91243
0.118678
-0.879251 -0.366419 -3.39307 -1.76037 -5.74308 1.03159 -2.0344 1.44972 0.663208 1.28109
-0.127047
-0.0997185 -6.35714 -0.264891 5.32706 2.49379 -4.78091 2.17962 2.09845 0.0481074 -1.12649
-0.530308
2.57139 -1.37364 0.829031 0.964249 -0.0718642 2.16371 4.66262 1.68376 -1.42954 -1.90002
-1.09786
1.40404 6.29433 2.14161 2.09009 1.55825 -0.396294 0.500528 1.8465 8.07747 3.32714
-0.00541106
-0.596301 -3.52404 -1.03148 -0.706489 -1.06278 -1.83889 -4.54605 0.531262 -3.57803 -4.06118
-0.0135345
-4.75398 -1.45966 3.28297 -3.73964 -1.78857 -1.93039 3.6719 2.20231 -0.424958 -0.608294
0.267191
-3.17767 1.50701 -3.45802 0.337879 0.293419 -0.980448 -6.07911 1.2612 3.09124 1.22356
-0.143888
7.38574 -2.88397 3.58561 -2.41223 -1.15551 3.07049 -3.91961 -2.62915 -5.59696 1.24468
0.096629
0.710384 3.94519 -7.80959 -4.41338 -2.58922 -7.06048 -0.0205483 3.48029 -1.87773 3.21504
-0.112829
0.844975 -3.78407 1.56393 4.081 5.30265 -0.807757 -3.0282 2.41243 -3.71052 1.7255
0.565435
0.893372 0.823339 -0.459152 -0.239218 0.0617411 1.04666 -10.3484 0.777824 0.37047 -4.21959
-0.484573
4.14156 -1.63691 -1.49908 2.5592 -3.48864 -2.17103 1.75071 1.31712 -1.82313 3.37048
0.482619
-1.71485 -5.04463 0.304241 -2.01202 -2.61332 -2.21993 -3.94286 -1.46786 3.95686 -3.29428
0.146157
-1.88656 -3.20579 -0.948599 2.90942 1.57992 -1.81031 -0.663943 -0.377554 7.34063 2.28037
0.0341195
-4.93664 -1.92335 -0.627027 -5.29972 -1.55642 1.86054 -1.77043 -3.44336 -1.89886 -0.530992
-0.210208
-1.81231 0.71795 -2.1305 -0.918105 0.232639 -4.50068 -7.19768 1.11193 -2.64157 -4.65882
0.00572816
-1.2654 -2.58384 1.72592 -5.43872 -4.98896 -7.57715 3.14233 1.66727 -1.84986 -4.68431
-0.312813
1.84405 2.07606 2.99138 -6.28005 -0.434792 -0.336359 -1.86382 0.906813 4.1337 -0.812656
0.228952
4.87714 0.666404 -2.97431 -0.770006 6.68002 -3.38296 -4.10722 -6.28451 -1.47745 -5.58455
-0.0052074
4.31284 0.721056 -5.56832 -2.82714 -3.26861 -3.03206 -0.238219 -4.37451 0.918933 -3.52118
-0.0550953
-0.651743 1.91109 -5.22952 1.11248 5.4007 -0.167333 -1.84901 4.43978 -2.00143 4.30856
-0.126334
-0.240302 4.83801 -4.45673 -1.05075 -0.316304 0.392964 1.41256 2.89149 1.41831 -1.62971
0.194253
-4.86563 -5.12546 -1.28425 4.17266 -2.39681 1.53479 -2.46239 6.99899 -0.245595 -2.42221
0.108935
0.0580282 -3.03415 -2.89603 -1.90078 2.25044 2.55815 2.96415 -0.768092 -1.19908 1.51894
-0.224827
0.954366 6.26968 -1.82824 -1.6215 -2.29646 1.51128 -1.8905 -3.2568 4.38731 3.57638
-0.263342
4.13454 -2.04418 0.0315208 1.3723 5.10735 2.84474 -2.86595 0.00486396 0.508694 -2.64305
-0.317481
5.12837 0.908092 3.42322 2.44316 -2.74899 -3.80319 -0.48373 -0.000197642 2.15347 1.44188
0.387279
3.38229 -6.13432 1.77743 -3.91259 3.94847 -2.21706 -7.47296 0.611021 -1.99579 -4.90335
-0.13985
-1.7667 -0.115119 -2.32992 -0.676106 0.996865 -0.256731 -2.82017 3.67271 -6.14009 3.26825
0.40586
-4.15736 1.87986 -6.04613 1.79749 1.5612 -1.57788 -7.08953 1.59087 -6.55152 -8.91075
-0.0470913
0.689837 0.410613 5.7728 -1.67619 -0.782988 2.52779 -5.62385 -1.8999 -1.42712 6.78488
0.13621
2.4225 1.55023 -0.915505 -9.76567 7.20377 -1.55111 -5.18371 -4.81825 6.17434 1.39276
-0.370809
-1.71468 3.2621 2.27432 -2.83887 -1.82286 1.35539 3.33389 0.505249 -1.54381 0.769433
-0.832796
6.73747 2.70193 1.89986 -0.635231 6.39773 -5.53866 1.59961 2.22931 -2.51011 3.46196
0.133278
-1.06169 -0.557927 -3.82677 0.560562 5.73911 3.52029 0.988578 -1.22041 -2.82713 2.83017
-0.209482
-4.32114 3.08994 -3.22087 -3.9857 1.71619 0.196037 -3.23425 7.18324 5.69934 6.02723
-0.176208
2.44675 3.7086 -0.218569 -3.43793 -0.807029 2.00137 -4.57127 -1.69748 -5.44907 -2.86447
-0.132857
3.78351 1.13802 -2.89118 -1.36103 7.3113 1.32293 1.32034 -1.06479 -2.96401 2.26788
-0.200945
0.120692 -3.46984 5.91658 3.35199 0.826874 3.6252 -3.39232 4.09898 -8.42125 2.50443
0.018788
-6.31595 -2.53696 4.10325 2.31613 -0.0402884 -1.73571 2.31631 2.97859 -1.84114 -5.52003
-0.189121
-2.45849 -0.970324 -1.09502 0.165817 4.01702 -4.58846 -2.82188 -5.71346 -0.462757 -3.7781
-0.132015
2.13692 0.0898234 -0.147168 -1.18636 -1.24366 5.2752 -2.25057 2.30089 0.311855 -0.109106
-0.302522
0.264597 1.69679 1.54753 -10.0385 2.91703 -2.44393 1.54767 1.4259 0.0434619 -2.39359
0.0496781
0.846217 -2.59742 -4.46622 2.79321 0.336018 -2.19676 -0.419477 1.66122 -6.01282 0.518923
10 10
1 0 0 0.01156 0 0 0 0 0 0
124 0.886404 3.1523 1551.26 0.157971 1542.55 3.15181 0.788967 1.21616 0.065174
