0.994924 10719 294 0 3
100
1.80574 1.13636 0.497361 -0.0335062 0.10533 0.279869 0.164039 0.227786 0.132027 -0.00239745 0.0106608 -0.373999 0.489909 0.0916234 0.210364 0.151855 0.0346935 0.219765 0.448399 0.261756 1.3099 0.494038 0.715145 0.414189 0.3168 0.170462 -0.587981 0.31596 0.300665 0.255151 0.141239 0.942239 0.314766 -0.222991 -0.122406 0.264574 0.50651 0.324931 0.149671 0.0764229 0.788992 0.346319 0.143621 -0.477199 0.142131 0.0947253 0.0651952 0.654352 0.367818 0.369208 0.189261 0.841241 0.428524 0.125987 0.380716 -0.0922172 0.0133647 0.231271 -0.71389 0.45131 -0.19295 0.0872566 0.0898938 0.150814 0.256564 0.0312769 0.00958991 0.0611515 -0.292333 0.279404 -0.230483 0.149905 -0.269249 0.153695 0.275019 0.00707129 0.144495 -0.0227681 -0.234577 0.183224 -0.0462831 -0.0424257 -0.0567633 0.190771 0.50861 0.304982 -0.0696489 0.0177753 -0.0364581 0.25161 0.178112 0.136193 0.0163764 -0.0225926 0.0769425 0.236282 -0.000582935 0.138528 -0.0427033 0.169731
-3.57911
-1.9068 0.6883 0.847232 -2.79262 -3.35828
-0.394492
3.28663 3.18675 -6.66651 4.15553 1.44509
0.828404
1.28896 -3.14402 -0.605668 -1.39659 -3.15657
-0.285274
-0.0142483 0.0405789 1.12855 -1.68614 1.43357
-0.0400182
-0.261052 -2.36956 -0.445809 3.87386 4.64921
-0.48552
2.27279 -1.59877 3.35853 3.18619 -1.077
0.177893
0.870872 -2.16355 1.59206 0.944177 -3.5677
-0.714395
5.50819 0.0355301 -2.84206 4.08365 -1.38257
0.318918
-2.01881 1.81528 -0.891679 -0.0183305 -1.08938
-0.505637
2.11905 1.59002 -0.534558 -0.295497 -2.49199
-0.458089
2.1297 -0.878984 1.74161 1.74563 -3.38247
0.578929
-3.53153 -1.96802 1.18246 1.89526 -3.0939
0.377115
1.07133 -5.01567 1.47977 -0.854051 -2.94836
-1.0416
2.15825 -1.14615 2.52619 2.74731 -1.12993
-0.180768
-1.2982 -0.281038 -1.09986 1.95941 2.36934
0.24452
-0.529662 -0.4953 -1.22545 -5.81678 -2.44484
-0.407916
1.7153 -0.844697 0.122684 0.309888 0.260777
-0.3213
3.03427 -1.43124 -1.8325 -1.74275 0.432573
0.14565
3.99731 -2.13469 -4.09289 1.50989 0.0636808
-0.196869
1.8104 -4.26094 -2.99956 -1.86072 -0.695606
-0.197573
3.86289 -1.39048 -1.54075 0.106146 -1.79622
-0.557079
1.56648 0.200137 -5.44391 0.648658 0.0570813
0.248602
1.71125 -1.02519 -3.39685 0.850824 -3.05974
-0.804375
3.28659 -0.462284 -4.89922 -1.98305 2.83069
0.569937
-2.21605 -0.132973 -2.50349 -0.0248154 3.30837
-0.167804
0.280575 -1.75699 -0.318361 -1.08782 -6.71142
-0.0434124
-1.60209 4.47743 -1.76938 1.00671 0.678395
-0.720469
1.88847 -1.27305 -0.489118 -1.42676 2.95709
-0.1529
-0.160578 0.7779 1.9553 -9.33458e-05 1.43451
0.399074
-0.548056 0.843875 -3.19878 3.54724 1.38077
-0.169234
0.972551 -1.59775 -1.10806 -3.80468 -0.367763
-0.2543
2.36771 1.2858 -1.28261 -1.73852 1.23537
-0.783175
0.194406 -1.89207 2.16674 2.90088 1.80491
0.00822054
0.354566 2.40727 -4.25785 1.19989 1.01671
0.135407
-3.16966 -1.74322 2.90288 -2.30268 2.08078
-0.408664
1.57184 0.642329 -4.05626 -0.164017 -4.0114
0.619894
-0.389594 -4.9624 0.426548 -0.628783 1.09912
-0.602814
0.672153 0.00578373 -1.75527 1.10211 -0.430238
0.613016
-4.10572 0.517849 0.0983115 -3.35055 -2.64651
0.0167108
2.02428 -3.14306 -1.78469 -1.39736 -0.778754
0.292332
0.872945 -4.70902 -0.504072 -3.14397 -0.131138
-1.25562
0.931014 3.17705 1.72425 -0.719639 2.66065
-0.677063
4.15242 -0.820296 0.270224 -2.56218 -2.4239
0.325922
0.462883 -4.0402 -2.22838 0.590613 2.91187
-0.0482069
0.188005 -0.267447 -2.30677 -4.71827 -3.47705
-0.194258
1.93509 -3.76926 2.42177 5.72147 0.127102
-0.274216
2.50025 -0.798923 -0.443415 -2.40148 2.65056
-0.0590629
2.0582 -0.51393 -1.98278 1.5624 1.23918
-1.03967
3.66679 -2.20983 -1.39008 -1.02837 -0.583806
0.436769
-1.24055 -0.678254 -0.638452 -0.420184 -1.74715
-1.12621
6.51179 -2.88766 -2.18872 0.948997 3.20703
0.37829
-0.0351746 -3.12532 -1.7838 -2.76975 0.805269
-0.957638
-0.0837276 3.06947 -3.36128 -0.237588 4.79104
-0.627635
5.72708 -2.89959 -0.388033 -11.1784 -1.4735
-0.0380599
-0.161417 -0.822033 2.26618 1.07961 -1.96411
0.0167054
-1.37253 1.1766 -2.90477 0.355394 1.99476
0.0287088
-1.56025 -0.575821 -1.8492 -0.0196594 -3.50724
-0.189455
-3.5197 -0.38708 3.93285 1.15726 -0.146179
0.0282802
-1.61857 1.29026 1.37534 5.397 -2.04983
0.821959
0.13501 -3.17582 -0.436031 5.24041 -2.71661
0.611529
-3.77327 -0.583152 -4.59079 2.73465 -0.644337
0.192795
-2.59169 -2.15711 -2.35375 -0.378075 -3.16671
-1.27659
4.40538 0.844168 -0.141074 -2.02999 1.76735
-0.273019
-1.13785 1.87015 -0.692317 -3.01003 0.304937
0.20373
-1.33554 -1.40286 1.53681 1.01026 -0.019041
-0.239292
0.250206 -2.14926 2.21976 -0.943697 1.37028
-0.102127
-0.0437806 -1.35621 0.779031 -0.825508 2.19704
0.395292
-0.804536 -2.74523 -1.84483 0.989922 -3.42541
0.149636
-1.62708 -2.55817 3.16624 0.0448527 -0.8757
-0.144223
1.93095 -5.22318 -2.65802 5.74871 1.39826
0.00524503
-0.967518 0.710494 1.44812 0.818559 -2.04956
0.333938
-0.9882 1.59121 -0.792468 -1.20778 1.72038
-0.239735
0.504067 2.14117 -0.727601 -5.35852 -0.0673757
-0.114856
-0.964015 0.99213 -1.46718 -0.841475 -1.74223
-0.0488586
1.74428 -1.29622 -1.18749 -0.0259643 -1.00841
0.382784
-1.91514 -0.896458 2.26057 0.691605 0.584579
0.302551
-0.795138 1.42962 -1.73873 2.05523 0.783012
-0.107313
-0.209318 3.73665 -3.91098 3.45229 1.96185
0.221794
-2.3435 -2.35294 2.26788 -3.91875 2.69385
-0.644501
-2.08305 3.90759 1.72611 -1.22796 -3.00627
0.0445598
-1.45124 0.554985 -0.138971 -0.159067 -0.20347
-0.59858
-0.726161 5.28186 0.0734762 -1.61358 -1.86802
0.396629
-4.14146 1.2997 -2.56141 2.45819 -3.07185
-0.175224
-1.42708 -1.97243 2.36389 3.26136 -0.777721
0.304755
1.59513 -4.21318 -2.41631 -3.69844 1.83757
-0.787537
0.87624 -1.77942 1.98362 0.647525 0.981858
0.116622
-4.20537 2.31078 3.47182 3.07142 -5.0019
0.156521
-1.31678 0.886469 -0.955678 0.884506 -3.61614
0.334576
-3.75296 0.203352 1.46996 -1.02563 0.828058
-0.0310526
-1.34013 1.71567 1.03467 -1.96246 -3.76283
0.505005
-0.778153 -2.66552 -0.240614 -2.54266 3.12308
-0.273605
1.22199 -0.76975 -0.0473585 1.18305 2.45293
0.430677
-3.37205 -0.535612 1.74085 1.10693 5.42575
0.240949
-1.3792 -2.01425 3.07241 1.90024 -5.72618
-0.337827
-1.18176 4.77499 3.23141 0.34684 -1.45328
0.421835
-0.389881 -6.42973 2.38275 -2.84812 -0.167285
0.154693
-1.77526 0.67254 -3.86769 3.71084 2.60057
-0.516721
1.64367 1.26885 -1.93884 3.88964 3.9919
0.569263
-2.84006 -2.18467 -0.262896 -1.94073 -3.88944
-0.189781
2.88353 -3.61252 1.49829 -1.40644 -3.10474
5 5
1 0 0 0.004387 0
147 1.19486 4.51285 527.415 0.157705
