0.985025 10536 296 7 2
100
1.8021 -0.469358 0.367224 0.186161 0.597837 0.26697 -0.752546 -0.207843 0.296568 0.748758 0.301329 0.230143 0.0770517 -0.0244802 0.4637 0.324531 -0.0994748 0.14918 -0.430262 0.208606 0.0537807 -0.336517 -0.0494126 0.119158 0.443105 0.269182 -0.093756 0.00744379 -0.411147 0.155983 0.282366 0.0920024 0.112607 0.438155 0.292481 -0.177388 -0.546308 0.276505 -0.0531893 0.0803381 -0.141447 0.10565 0.115785 0.0322984 -0.0124649 0.0259993 0.201845 -0.391639 0.325787 -0.359832 0.302545 0.0939159 -0.0280239 0.0753277 -0.277761 0.0598293 -0.0421467 -0.0916036 0.115183 -0.293253 0.229665 0.164772 0.22039 0.151038 0.183605 0.104076 0.132489 0.0272258 0.0692487 -0.196068 0.169555 0.193524 0.129146 0.14748 -0.059745 0.0564054 0.0293009 0.0217643 0.051435 -0.0389804 0.00628885 -0.163477 0.170772 -0.0593486 -0.0867469 0.0285739 0.0170914 -0.0603266 0.0611507 -0.164494 -0.0411115 0.184813 0.106936 0.0880896 0.0261581 -0.094921 0.12027 -0.152384 0.133312 -0.13378
-3.64138
-2.18282 -1.20992 -4.10694 -2.11811 -2.02728
0.426409
-2.37469 0.349565 -3.17813 -2.06219 -2.31241
0.255619
1.83661 -0.364424 -3.12213 1.64673 1.23475
-0.229873
0.43722 -3.13637 0.999781 -0.460439 -0.795516
0.0703447
1.65009 -4.50299 1.45241 2.89878 -1.35102
-0.73975
3.02818 -2.00427 1.2426 1.85417 -2.72276
0.202158
-1.06756 -2.11362 -1.51988 3.71092 1.08097
0.238036
-1.88797 -2.3299 -3.61908 -1.60426 1.59364
-0.462511
0.10162 0.488818 -1.91109 0.783304 -0.790251
0.123479
3.57216 -1.60739 -4.13312 -2.50351 1.77994
-0.648108
-1.21855 2.28991 -0.655122 1.27227 -1.14841
0.103189
-0.210179 -0.901538 -0.34384 1.4041 -0.824222
-0.37289
0.376904 -0.0163167 0.686871 -2.44355 -0.431968
-0.260268
0.309347 2.54489 -1.7501 -2.48563 0.446053
-0.299285
4.77842 -2.48023 -2.77181 4.12983 4.9007
0.643019
1.1485 -2.54571 -2.90537 0.440609 0.567061
-0.325687
0.146593 0.891531 3.42091 -1.058 0.199895
-0.264698
-0.927538 -1.02967 1.21145 -4.57101 4.61224
0.11047
-1.63963 -1.77035 1.31746 0.537636 0.796969
0.42149
-1.64294 -0.30616 -2.79898 3.5897 -0.254199
-0.304325
2.09735 -0.663669 1.39041 -0.244191 0.22839
0.166275
0.0495735 -1.82772 -3.26466 -1.382 -2.61296
0.22274
-0.469429 0.163142 -7.65552 2.80194 0.072437
-0.12219
1.18944 1.79653 -3.8362 0.403851 -2.20629
0.232824
2.20839 -4.01095 -0.335058 -0.169719 -0.0673149
-0.416352
0.405803 0.0856747 -3.74378 2.1658 1.32931
-0.137801
1.02865 0.871114 0.730237 -3.33748 -2.7428
-0.1241
-0.229237 1.04716 -0.208536 0.0104148 -3.08863
0.121282
-1.72049 -0.230629 -2.93249 2.91743 0.731007
-0.169977
1.48509 -0.272276 -3.55212 -0.224394 0.380629
0.261197
-1.268 -1.93457 -0.853545 -0.758265 -0.726446
-0.424872
0.0938719 6.87476 -6.04914 -2.03711 -0.101677
-0.0506918
-2.76932 3.70985 -2.46157 -0.535054 -2.48389
0.00851484
0.955158 1.33318 -3.0735 -1.45397 4.78755
-0.433686
-1.24641 -0.987525 -1.28231 -1.38695 -2.27964
-0.158139
-0.895303 2.02521 3.07483 2.48609 1.99375
0.210655
-2.41793 -5.9653 -0.700127 0.326627 0.300126
-0.406621
-1.1371 -0.0593489 -1.84799 -0.574914 -0.351677
0.183295
-3.03227 -0.647681 0.588655 0.173844 -1.69927
0.051432
0.000206483 1.15183 -1.18553 -0.993603 -3.90263
0.0486686
-0.238467 1.63011 -5.61726 3.47285 -0.0724367
-0.167878
-0.594175 -0.62832 0.741498 4.03493 -3.11189
0.330271
-3.82282 -3.12874 0.82428 1.65373 -2.31129
-0.227758
1.49753 2.11906 -1.52249 -1.65755 -4.16184
0.175137
-3.67199 1.13129 -2.09361 0.657857 -1.13183
0.312792
-5.12699 -2.32862 0.738093 1.03989 0.854013
0.664101
-7.08881 -7.65903 -1.52875 2.886 3.75158
0.0248505
-1.7388 1.05494 -2.69047 1.51046 -3.40514
-0.566938
-2.9154 1.09919 0.398364 2.1583 -0.436094
0.0816008
-4.53053 1.82 1.56353 2.47982 3.78521
0.475835
-1.60223 -2.80052 -2.31047 4.43381 -3.71413
-0.511273
1.99109 1.75306 -0.0357292 -0.100956 -0.624053
0.0818815
-1.6163 -1.49106 -0.459453 -0.0861596 -2.24611
-0.0523779
-2.1893 -0.901859 1.94974 2.40464 -2.95751
-0.0156151
-3.31048 -0.319752 4.96713 -2.04983 -0.681109
0.127702
2.9175 -3.63646 -3.96589 1.44772 -1.57915
-0.136071
0.669083 -1.75678 3.84539 -0.270241 -2.10308
-0.211605
-1.24492 1.45991 2.49864 -1.47244 -1.12311
-0.269226
0.530278 -1.17476 0.713721 1.04753 4.10295
-0.168685
-0.836478 0.912284 3.61507 -2.58794 -0.933091
-0.569357
2.87765 0.625141 -2.15116 3.27139 -0.936354
-0.0874076
2.60653 -1.21559 -0.228798 -0.208451 -5.92409
-0.123565
4.58941 2.18901 -0.60137 1.31458 -0.554314
-0.113294
3.0143 -0.502316 -2.9053 4.72302 -1.99993
0.396946
-1.06465 -1.83079 -3.10965 3.15196 0.0123879
-0.0761422
1.24866 -1.85054 -0.955838 -1.41799 1.62607
0.086181
1.25081 -2.05699 0.539781 -3.01407 -0.172932
0.139375
-3.60457 -3.07299 -1.73064 -1.04727 -3.11673
-0.130335
-1.68417 1.2609 -0.193266 0.238997 0.543334
-0.151249
0.55068 0.621078 2.62017 3.29091 -2.02903
-0.30844
3.39766 -0.369354 -1.82441 -0.456039 -5.83206
0.198529
0.481303 -2.6485 -1.45432 6.58166 -0.472992
-0.0377715
-3.56871 -3.79524 2.15592 -0.00385584 1.6807
-0.0264839
-2.25193 2.90377 -0.0831296 -0.700767 0.586797
0.182067
3.04128 -6.4634 -0.174901 0.448066 -2.57435
0.144176
-0.0576959 1.02588 -4.2392 2.08719 1.77579
-0.151484
-0.584339 1.54484 2.85504 -1.67685 -1.01765
-0.20504
4.26697 -0.131339 0.737111 2.29717 3.08747
-0.227813
1.25749 2.5677 3.34286 -1.68418 4.18282
0.06637
-1.6364 0.923999 -0.41691 -0.719734 0.338541
0.32274
-4.51684 -0.909739 -1.06372 -2.50988 6.08698
0.105491
-3.33912 1.23036 1.59711 -1.39823 0.943998
0.297077
0.994782 1.09241 -2.88992 1.80959 0.69977
0.192845
-0.612463 -4.4394 -0.594622 -2.53904 0.795608
0.00366586
1.6981 -1.19247 -2.39046 1.21536 1.62663
-0.228769
-1.00412 2.34204 0.814395 -1.1355 -6.38559
-0.170275
0.735237 2.53793 -1.98226 -2.25462 -1.9637
-0.355951
5.04417 1.76791 0.651776 -3.29478 0.854929
-0.26506
2.72027 0.639453 -0.677262 2.00845 0.571254
-0.269332
0.110022 2.79864 3.9254 -1.12692 1.03982
-0.429172
0.203587 5.34676 1.44829 -0.130795 -3.39668
-0.463584
6.8497 -2.61538 2.35817 -2.02819 -3.31514
0.0516465
1.78309 -1.28537 -0.404215 -1.06469 -0.409908
-0.12096
1.39653 1.06634 -3.9667 0.419596 0.829536
-0.05778
1.70259 1.28288 -1.58337 2.97284 -0.149557
-0.0814795
4.32528 -0.614726 -1.69856 -0.474353 -2.93076
0.0349338
-1.41994 0.795058 -0.89469 0.8101 -4.74011
0.0292613
-0.254073 -1.76673 0.273162 1.06677 -3.71646
-0.210415
0.206233 -1.17723 -0.389583 -1.79929 2.25317
0.217908
-5.50892 -2.09896 3.1927 1.92179 0.746404
5 5
1 0 0 0.002806 0
124 0.886404 3.1523 1551.27 0.151636
