0.942339 21536 286 30 5
100
2.16943 1.14155 0.196147 0.15408 -0.0434925 -0.110613 -0.258898 0.679218 0.355815 -0.489131 0.25935 -0.324713 0.211914 -0.152913 0.288533 0.426593 0.285664 -0.189844 0.44647 0.151882 -0.315408 0.16931 -0.16435 0.0285741 -0.135264 0.197698 0.0503624 -0.054444 -0.152366 -0.306039 0.0438474 -0.140608 -0.00334652 0.291219 0.0576372 0.00982885 -0.0545981 0.045775 -0.0453506 -0.152636 0.243494 0.047211 -0.377095 0.165035 -0.238144 -0.0314664 -0.036224 -0.00133712 -0.0600148 0.208297 -0.418395 0.308546 0.161239 0.138425 -0.118325 -0.0735421 0.161951 -0.0353876 -0.00474124 0.191131 0.133104 0.118474 0.208941 0.130761 0.00354779 -0.0545167 -0.0622669 -0.12632 0.11062 0.0887225 -0.198391 -0.0496916 0.198357 -0.0161942 -0.0856395 -0.0712453 0.119991 -0.010779 0.0038238 0.354213 0.207324 -0.129915 0.0795386 -0.114126 -0.0380977 -0.0309816 -0.0453574 -0.0500742 0.000903839 0.0586783 -0.071243 0.0625375 0.0341245 0.0675659 0.0522804 -0.0625917 0.0624252 -0.00902321 -0.0732558 0.0231212
-5.04632
2.47495 4.35015 -8.64286 -0.585929 -4.21948 -7.70295 -0.926736 -2.97424 3.65848 -0.826399
-0.333219
5.08689 1.33566 -4.47656 -1.70949 -1.27207 3.33817 -3.26251 1.37668 -0.692862 -0.000468883
-0.00149507
-0.440224 -1.30392 1.03408 6.29809 3.13709 0.346407 4.10061 3.6421 -0.819563 0.411541
0.126249
1.65075 -1.62833 3.28962 1.4348 3.23682 -1.11656 -0.724529 -3.99801 3.30549 -1.28197
-0.601876
3.95978 0.0992773 0.308032 1.97487 3.13751 -1.26103 -0.593712 0.668625 -1.80925 1.538
0.93075
-6.96397 1.16352 -4.74994 2.94647 1.08851 -0.808406 -5.67137 -3.01591 -4.62564 0.194295
0.434424
-6.33497 0.586697 1.19602 -2.11417 -4.51766 -5.0466 -1.42689 -0.370563 -0.987156 0.417949
0.282146
0.204793 -2.23315 -6.10235 1.23484 2.69227 3.78162 -0.972018 0.648769 -0.0624488 -3.06303
-0.542885
6.18055 -3.40256 0.509606 -0.510821 4.65592 -0.660894 -3.93385 -7.54165 3.37366 -6.26584
0.319353
-5.65711 -0.302301 -2.02396 -0.480658 -2.76644 -7.17137 -1.9604 2.97499 -2.21735 -4.59704
0.388168
-3.67606 -3.20091 -1.7575 0.930686 0.00541789 0.113521 0.458542 1.15574 -1.96164 -0.752303
0.0477943
-1.61106 -1.34967 1.70225 -6.1516 4.48641 3.69433 -1.73244 -2.2971 7.9011 -2.82132
-0.659944
-2.32089 -0.0924388 4.46209 1.47353 -2.66074 -1.13389 5.11088 -3.48711 -4.46218 -3.53102
0.0901444
-1.57217 -3.82106 -0.507214 -0.401254 -0.137958 -0.0215317 -0.249346 -1.3758 -2.34101 8.02313
-0.1347
-3.19452 -2.75313 0.0379574 2.03995 -0.577596 -6.27245 0.554976 0.43166 2.8422 0.494562
-0.0073485
5.42656 -4.46111 -1.86656 2.31623 3.34997 0.482013 0.30274 -1.61504 -4.62593 -2.62675
1.66761
-4.3581 -7.74003 -0.696841 -1.29374 0.964184 -2.27191 -0.152754 -9.20284 -3.36934 -2.95875
0.656736
-4.32062 -0.838925 5.81411 -6.5744 -1.82728 -0.994393 0.70569 -6.83409 -6.90587 1.25757
0.0831066
-0.560339 -2.17124 -1.77004 0.979794 -0.322167 -7.98569 0.257151 3.08276 2.90273 -6.51962
-0.765886
0.881239 0.898358 -0.511826 3.49296 9.37779 1.09706 2.24924 0.172829 -3.46008 0.355636
0.0553423
-5.2087 0.563932 1.06305 -3.99813 2.77121 1.13859 0.313164 2.19524 -1.52914 -4.09386
-0.198915
-1.633 1.82309 -1.51071 2.29766 0.431973 0.137062 0.241625 -2.00343 5.99842 0.39166
-0.346463
1.2284 -3.6396 3.20897 0.426518 -5.82208 -1.65784 0.517436 2.24704 -4.42582 1.23995
0.206329
-1.99046 -3.05944 0.84811 -2.83763 3.72393 -3.08219 -0.75236 0.105214 -1.69252 -1.15571
-0.318122
-4.09377 1.11091 8.11097 0.805658 3.18545 0.539588 3.16977 -1.15234 -4.62146 1.55972
-0.143028
-1.72503 -2.86787 1.50755 4.09398 2.34109 -0.218959 0.863883 -0.728261 -2.65486 1.63657
-0.030483
4.86334 -0.172963 -0.292546 -2.46373 -5.43247 0.43731 -3.28223 -4.33713 -4.26089 4.38688
-0.249284
-2.98764 1.29011 7.94825 -0.48665 6.23007 -0.307466 -2.4785 2.64608 -1.34144 -0.941344
0.545095
-0.817877 6.09518 -5.48417 4.6184 3.58015 3.24062 0.883845 -8.28803 -4.50645 -1.18195
0.0163254
4.21891 -3.53056 -2.12828 0.697122 2.29373 -3.18029 -0.514207 -2.38737 7.73623 0.0164588
-0.485389
10.5453 2.34144 -1.87923 -1.59654 -4.33197 -2.90085 -7.16696 -3.53342 -4.84702 2.57717
0.0283942
-4.63637 0.536503 -1.71079 1.82716 0.420852 3.4216 1.16904 4.71985 1.09728 0.218403
-0.0884525
-3.54604 0.901817 1.94162 7.50267 0.204467 -0.916985 -0.989936 4.58404 0.36204 -1.61694
0.612081
-5.53932 -0.548538 -5.3413 -7.86914 1.57905 3.44374 1.25174 2.39936 0.762694 -0.512656
-0.620134
4.22672 2.10207 -6.6065 -2.05047 2.5868 -0.764335 -2.66979 1.84393 -3.03636 4.85261
0.240873
-1.92232 -1.09889 -1.46531 1.14355 0.464945 -3.24217 -6.69047 1.2563 1.97413 -2.08249
-0.318191
3.19478 -0.489442 3.5907 3.00968 -2.71427 -4.71903 0.661009 -4.48578 5.86095 0.00905622
-0.470063
-2.25802 -2.23001 -2.06382 -0.343858 -2.33471 2.93569 -3.02972 8.33137 0.173693 -3.94602
-0.565649
3.85862 3.21619 -1.00405 -1.62805 7.02118 1.71158 7.61908 -4.859 -1.15889 0.731658
0.0639415
-0.236188 0.239402 2.52955 5.08466 -1.89673 -2.15821 -5.99368 -2.40136 -0.937343 -0.663943
-0.582602
-0.947214 -4.67733 2.58039 0.40043 -2.63401 4.40465 2.30248 3.38538 -4.39445 -3.89445
0.264899
-0.556648 0.938145 3.31894 -5.06085 5.51199 -2.74891 -1.84357 -3.12443 -0.345427 -4.75375
-0.702227
-0.99574 5.73606 0.145322 0.721441 0.694785 2.17776 3.30279 3.31547 1.86351 -2.03795
-0.372932
-0.703047 -4.14216 -2.40038 -0.838887 1.43733 -4.03662 -0.143621 2.22373 -2.43238 4.81342
0.188584
-1.2862 1.39541 -6.14981 3.02266 1.76916 -0.783553 0.97965 -2.94267 3.9522 5.16818
-0.139616
-0.25086 3.23469 2.01595 -1.49675 4.03203 0.111694 4.23441 -6.71793 -2.67129 3.35335
-0.419926
-3.4895 2.0065 -1.6451 -1.37655 0.0130078 2.00373 -0.265002 4.38629 -1.08281 -0.172857
-0.839696
4.86932 2.17938 -2.32173 2.96886 -0.326693 -2.97022 -2.92564 0.367912 -1.34444 1.81541
-0.812725
1.50902 -3.88018 5.28825 -0.298028 1.18488 0.661714 -2.19937 2.46352 2.29076 4.93373
-0.406569
0.84699 5.77983 -6.0361 2.64298 -0.525218 0.914717 -0.787673 -1.60291 0.9211 -3.08838
-0.303435
0.480601 3.9883 -0.0286568 1.15954 -2.12136 2.20313 0.58604 -2.00091 0.450798 8.93419
-0.122256
-2.16062 -5.49873 -4.17434 -1.27431 -1.41841 -7.48267 0.83429 0.169444 -3.62372 -2.72563
-0.0922132
3.24393 -0.958451 -3.22057 2.14855 4.23801 5.65086 3.91194 -2.00558 0.954555 0.386409
0.0564413
0.150555 2.3372 3.00731 1.94037 0.177585 -1.80538 -1.69955 -0.206297 -2.20252 -3.84467
-0.169277
-1.65022 0.00859801 4.54235 -2.13677 1.36732 2.75533 -0.475353 1.40722 -3.15853 -3.17931
0.312795
-1.26465 -0.761307 -4.68829 5.93921 -2.66926 -0.583266 2.12035 -7.4995 -2.61835 1.74573
-0.141864
-2.27795 -0.516142 4.19285 -2.64225 -1.8068 2.39086 -2.44274 -0.405387 -0.666718 -1.80458
0.0183838
-2.33821 2.42142 4.86191 -5.02787 1.27345 0.650718 -4.72714 1.10705 -3.19672 -2.00954
0.00609994
-0.988889 1.882 -0.995137 -0.656349 3.15047 -0.0714501 1.62826 -0.0807133 -5.60363 3.23905
-0.0171581
-4.67133 3.49186 -2.29343 -2.2493 -2.57774 -3.56947 1.25356 4.49804 -4.15743 3.68014
-0.176761
3.70433 1.51196 -1.12918 -2.01603 1.32288 -5.44995 -3.75329 -0.489381 -2.48548 0.704016
0.487067
-3.43322 3.18266 1.52017 1.41138 -1.21674 0.903562 -6.05607 -1.43275 2.55605 -3.88741
-0.0958516
4.45265 -2.79409 -5.78957 -1.69593 -1.1205 -2.12788 -1.34467 1.37408 -2.47465 2.20666
0.194033
-0.526642 -3.30106 -0.385505 -3.36994 -2.78499 -3.45257 4.04614 0.988736 -0.216164 -0.673952
0.126544
1.25766 -8.35904 -1.98313 -0.291062 -4.70686 -0.104971 -2.13735 2.9784 -3.36227 -4.50716
-0.225623
3.90287 -0.998239 -0.181834 0.27726 -0.183444 -0.699327 -0.665409 -2.03876 -0.902265 2.88181
0.386509
-8.05394 -1.03827 -0.170598 0.308904 -3.36999 2.5772 3.91067 -0.379794 -3.26017 -2.50968
-0.00766945
-3.01352 -0.202832 1.14485 1.91134 5.72477 3.65551 2.82363 0.0380358 -2.51301 -0.593895
-0.106621
-3.07435 -2.95871 5.32285 0.419836 2.5379 2.30657 0.250639 0.223229 2.8083 -0.113372
0.369113
-4.41343 -0.140747 -0.450392 2.18765 -0.00929618 2.85475 -0.499433 -0.533472 1.32044 -2.59444
0.00602893
2.40772 1.05534 -1.79673 2.08264 -3.08726 5.39586 -3.71703 -2.98646 0.299639 -1.72234
-0.766827
2.02653 -2.41011 2.33556 -2.79511 1.17048 3.4219 2.53858 3.22537 1.24999 -1.51654
-0.0748299
-1.33836 -1.92712 0.0495706 0.313809 -3.33935 -0.850033 1.04564 -2.77759 5.50378 -0.546429
0.293082
-4.04335 -4.95975 -0.824838 -2.21843 -1.40633 0.342923 1.43116 2.71121 3.61856 -0.744771
0.0680662
-1.22731 -5.39102 5.7051 -2.19508 -1.90321 -3.49706 0.0873613 1.56826 4.68354 -2.89916
-0.271194
4.31378 -0.284284 -5.80038 -2.46281 -1.17352 -1.58509 -4.06526 4.11931 4.23049 2.29368
-0.048836
3.92302 0.45502 -3.21131 -2.07063 0.132563 2.52409 0.314873 -2.86614 1.32626 2.62744
0.0920921
-4.87279 1.67531 -8.23482 0.275957 5.74983 -2.96621 5.5488 5.4972 3.21949 2.88427
-0.0702407
3.03835 -2.34228 1.60779 -0.262796 7.83202 1.5077 3.76887 -1.8326 3.84459 -1.22662
0.300307
-0.147755 -4.29315 0.360822 1.5829 0.889674 1.0456 -0.516022 0.836862 -3.09412 -4.9176
-0.278566
0.321528 2.09843 0.846593 -1.83055 1.15483 1.9484 -3.4034 -3.5022 0.0841734 2.26489
0.116433
-0.115617 0.624698 -6.83897 1.33441 -1.36255 2.37467 -3.34663 1.69707 7.32439 -1.27208
0.180241
-1.28006 1.38935 -7.48884 -4.61981 2.83249 -0.63462 -1.68821 1.60555 -3.49998 6.7809
0.473187
-1.31181 -2.52323 -1.39929 3.87888 -2.23101 2.54402 -1.73148 -3.71827 -2.3812 -3.22238
-0.331024
1.42286 -0.776414 4.14725 -0.742397 1.8477 4.15139 -1.2458 3.29069 -2.22289 0.331087
0.223381
-1.06191 3.96985 -1.51751 -4.03103 -1.6958 -0.0795672 -0.304441 -3.89615 -1.85544 -0.661589
-0.0154486
-0.52562 -1.10022 -2.94073 -0.38572 6.13459 -5.60805 -3.65987 4.13981 5.46644 1.95224
0.169358
-1.28697 4.43135 0.776745 -9.78438 1.56175 -3.69032 -0.955524 -4.1148 1.96355 -0.622857
0.134931
-1.47452 0.875644 3.88963 -8.64039 1.35405 4.00322 -4.03009 -2.08995 1.49255 7.78252
0.651975
-1.17182 -5.46544 -3.72988 -4.32649 1.85382 -2.08941 -2.99417 -2.64887 4.99244 -2.46512
-0.0239345
-4.74991 0.904021 0.842287 7.0042 2.72852 0.135059 4.50889 1.95663 0.496857 4.22451
0.296871
1.26518 -2.21267 -4.77385 0.448629 -5.28506 0.917595 -3.32203 -2.25358 2.08855 2.89398
-0.761451
-0.0519212 9.67504 2.94233 -4.78771 -3.28162 1.79456 1.60497 3.84532 -3.74752 5.66542
-0.842358
1.75729 7.94832 -0.286138 -2.56872 6.19569 0.0170656 4.10523 5.44088 -0.197488 2.17681
-0.139995
2.36037 2.5543 2.41635 -2.74176 1.52856 2.65277 -7.72825 0.138326 -2.18085 0.148209
0.607135
-5.55478 -1.43661 4.93358 3.71885 2.72939 -1.92106 -3.4758 -3.21846 3.15363 0.140996
0.294486
0.965177 0.748948 -1.03817 2.45985 0.692321 -3.06225 -4.41526 -2.29384 2.80761 -1.84582
-0.049631
0.339602 -2.65616 -0.755103 -3.5022 2.97338 3.68707 -2.06751 3.3066 1.77231 2.43032
-0.46127
0.920191 0.779345 7.07401 -0.80449 0.161276 2.0886 0.557087 2.70604 1.58959 2.71524
0.45063
-0.0728426 -4.29566 -2.45078 -4.44157 0.345443 -1.06808 -0.879669 -4.08769 0.79729 3.75036
10 10
1 0 0 0.009303 0 0 0 0 0 0
147 1.19486 4.51285 1551.26 0.157971 1542.55 4.5111 0.788967 2.13175 0.065174
