0.986667 10537 296 7 1
100
1.8021 1.52659 0.510017 0.467343 0.287022 -0.330571 -0.0252637 0.241918 0.10111 1.02597 0.365868 0.0756061 0.151791 0.342141 0.203522 -0.309197 0.268312 0.346201 0.210826 0.0988287 0.0319414 -0.126257 -0.00716175 0.150625 0.00838328 -0.156858 0.196848 0.0992132 -0.312101 0.259258 -0.10704 -0.270319 0.220366 0.0530135 0.173783 0.187327 0.00758075 -0.0101155 0.00193325 0.0969063 -0.230004 0.312107 0.156193 0.0529411 0.0989494 0.21593 0.127709 -0.235219 -0.150461 0.0778767 0.0464756 -0.0691504 0.00350365 0.0158508 0.0607787 0.142658 0.0718745 -0.0266719 0.216561 0.106619 -0.42892 -0.0287765 -0.00878817 0.0367478 0.0284454 0.459971 0.305733 0.0882682 0.0798966 -0.0281972 0.0217455 0.0778308 0.015642 0.0244046 0.0353966 0.0116411 0.0799539 0.0623949 0.0219187 0.119003 0.0938745 -0.0300379 -0.00793347 0.0802849 0.0458819 0.195222 0.1145 -0.0585977 0.020592 -0.0257192 -0.00253871 0.0438092 -0.00262397 0.0312433 -0.169827 0.216171 0.0714213 0.0224774 -0.0197243 0.0609994
-3.64889
3.07117 0.342351 -2.92908 -3.3185 0.200608
-0.0567134
2.12674 -1.00876 -1.72854 -1.28452 -2.06569
1.01771
-0.032767 -0.154361 0.18737 2.79645 -0.0911846
0.170218
2.57276 -2.29235 -4.19061 -3.25364 1.54403
-0.39238
-1.0223 -2.39658 -0.162761 -3.17957 -5.06981
0.158634
-0.522761 -1.8471 -0.699619 1.10642 0.451691
0.368248
-4.03559 -0.313201 2.98286 0.0853825 0.399788
0.252244
2.79107 -0.69907 -3.54738 0.0153335 3.26558
-0.13354
0.609342 -3.07687 1.61099 -1.44285 1.71836
-0.0251299
4.20711 -0.384598 -5.1272 -0.727369 5.26724
0.744774
-0.402979 -2.29695 -1.65192 1.33553 2.63585
-0.128582
-0.812926 1.27349 -1.07592 1.3287 -0.697345
-0.0460963
-0.540178 2.52242 -1.63356 -1.40359 0.269354
-0.123785
4.09324 -2.00004 1.00023 1.02281 -0.387209
0.336051
1.22799 -2.5829 -0.273498 -0.792811 -0.400848
0.121698
-2.53619 -3.40953 2.01765 4.26876 -0.680624
-0.362351
3.52652 -3.85583 -1.30898 -0.2572 -1.47345
0.249881
-1.31419 -0.429278 -1.44799 -3.87725 -2.27478
-0.118279
0.278752 -2.51019 -4.24158 1.26289 -0.0858461
0.0531867
2.11421 -1.85701 -1.69035 0.833147 2.19035
0.358702
-1.40504 -6.24419 0.335443 2.17968 5.12953
0.0133071
-2.06349 0.711775 0.373392 -3.86373 0.776746
-0.096652
-0.384746 3.5003 -2.84045 3.34117 -1.07208
0.0134553
-1.1046 1.41763 -1.60902 -2.42204 -1.35841
-0.223002
3.73614 -2.26367 1.7395 1.40059 -1.31753
-0.417483
2.0272 5.3485 -1.01056 -0.310301 2.73173
-0.271379
5.36457 -0.735776 -5.57791 -0.267215 0.329254
0.165165
-1.96346 2.59406 -2.6962 4.20082 -2.67134
0.00484383
-1.23818 -1.23338 1.24511 -1.52289 3.25954
-0.429839
0.706387 -3.70708 1.64557 -1.03042 2.16755
-0.130889
0.623812 0.166932 1.84863 4.06193 3.58886
0.127387
-3.611 -1.21202 -1.00934 3.80223 1.77066
-0.284002
1.71537 -1.83711 -3.72028 -1.02484 2.85926
-0.027875
-3.69116 2.92303 1.65801 2.13294 -0.498137
0.385139
-0.776724 -3.65601 -4.09834 -1.78843 -0.305167
-0.10347
2.26119 -0.248306 -4.24683 0.7107 0.203248
0.182102
-4.99096 3.71731 1.81628 1.84111 1.03396
0.197658
-3.34278 0.268911 3.59281 2.41908 -0.589021
0.127256
-2.44071 4.95491 -1.66302 -1.7072 -2.01238
0.0676275
2.82084 1.79725 -3.20429 0.892692 -2.36333
0.247916
-4.51147 -0.0920948 -0.891493 2.32115 0.715724
0.434802
0.674662 -4.09277 -1.52442 -2.86586 5.31237
-0.3038
-0.0399339 -0.358367 0.420036 -0.979462 -1.70265
0.265585
-1.5943 -3.58021 -0.790596 -0.0861112 0.0587822
-0.0373014
1.23848 -2.86511 2.18593 -0.877401 -2.34008
-0.0273951
3.79414 1.36636 -2.67013 1.76239 -5.17684
-0.187345
0.496611 -1.81398 -0.199935 4.89586 1.75828
-0.00903215
4.62826 -3.19471 -1.614 6.29172 0.664219
-0.000500539
-4.66947 0.643453 2.82018 1.19377 2.12392
-0.0724129
-1.18118 -1.02468 0.800508 4.30151 -0.863714
0.174715
-0.449686 -0.797124 -3.113 -0.511544 -1.12025
-0.232768
0.298714 0.561137 4.10498 -1.73961 -5.29842
-0.232926
0.792703 1.45562 -0.926918 2.3058 6.26769
-0.218957
0.83324 0.746836 0.10799 2.27517 -2.76642
-0.202055
2.32278 -0.355276 -0.351446 -0.460132 6.93679
-0.155508
2.46045 0.331584 -0.0104496 0.505819 4.06714
0.0896228
-0.710106 1.39315 0.662562 2.75367 -0.722872
0.205643
-2.67309 -1.83829 1.14081 0.498321 -1.17863
0.245587
-0.0644538 -0.740597 -4.18985 1.00534 -0.0603926
-0.341077
-3.39523 2.10378 2.99268 3.58992 0.781075
0.257545
-3.36191 -2.59219 -1.71157 -0.378411 -2.88279
0.251409
-2.80745 -1.93021 -2.89224 -1.24492 4.03679
0.21194
-1.88101 -4.22673 0.541582 -1.21037 1.93557
-0.0987675
-0.963807 1.64064 -1.49491 -0.473719 4.91091
-0.0520969
1.73868 -0.796234 -0.517331 0.978552 -2.45219
0.163691
0.951832 -2.35289 -1.38007 0.237277 -1.4832
-0.487297
1.87579 -2.60679 -2.3373 -2.25467 0.781691
0.0119293
-0.436928 -0.346891 0.654709 -2.00641 0.00289962
-0.0133231
1.4432 -1.60465 -0.747919 0.308688 -1.13327
0.107474
-3.40101 2.98588 -0.335884 1.46887 -1.46589
0.0124582
-2.011 2.3 3.01159 2.55688 -1.63854
0.157957
1.38171 -5.37824 3.60035 3.87452 3.27065
0.0174327
1.97125 0.439295 -4.41559 1.69552 0.682561
-0.0514784
0.701043 -0.291305 0.448569 -1.45698 -1.55752
0.172207
-1.3161 0.881173 -4.29884 -2.42899 -2.71602
-0.240271
-0.855102 4.89667 0.751226 -1.01925 -1.31462
-0.126738
3.1598 2.78177 -4.76567 -0.537297 -2.45154
0.278491
-2.64076 -0.264094 -2.2675 -2.62983 0.987787
-0.208308
4.50035 0.645752 -0.808676 1.83139 2.51334
-0.381748
1.39194 4.85831 4.39377 -4.62714 -0.323978
0.0473184
0.00204228 1.41894 -1.89481 1.1158 -0.782278
0.0123308
-1.08173 -0.0894979 -2.60141 -3.35534 -2.79227
-0.281166
0.674136 -0.657831 2.84939 -2.83356 1.40334
-0.218375
-1.69503 1.86485 -0.0398546 5.80366 3.01403
-0.0302724
0.847716 -0.362773 -0.691746 -0.401608 -1.83596
0.112338
0.451697 -1.75666 0.155186 -1.74257 -1.92645
-0.351426
0.80904 0.880154 -0.140411 -0.820232 -2.76219
-0.18468
1.12399 4.4022 -4.14764 6.78227 4.20213
-0.214598
-1.35536 -0.393712 4.17264 1.8554 -3.52678
-0.186171
-2.03797 1.96412 2.023 1.46651 -3.79395
-0.401767
0.976001 3.50626 1.36113 1.28736 2.17102
-0.263663
1.51383 0.0756354 0.847384 4.1088 -2.23386
-0.165065
0.80401 0.0884756 1.263 -0.00690496 -5.14402
-0.340074
4.91076 -0.687213 2.69554 -1.68685 4.06189
0.19733
-1.17663 -3.79113 -1.19948 -0.100751 0.144786
0.090747
-1.81127 -2.47719 0.156434 -2.78372 1.39997
0.0749523
0.942875 2.35094 -2.64905 0.913153 1.65219
0.176854
-3.37358 -2.8244 2.75373 5.17433 2.69027
-0.13454
1.81979 0.369578 0.288719 -0.966435 4.95965
0.071136
-1.93275 -0.938039 0.074836 1.32038 -6.63686
5 5
1 0 0 0.002806 0
124 0.886404 3.1523 1551.27 0.151636
