0.991511 21560 292 2 3
100
2.15498 1.0116 0.522531 0.286538 0.21773 0.0974294 -0.0620007 0.132998 0.426728 0.374038 0.0497383 0.233292 0.589594 0.351002 0.118867 0.0313982 0.0659599 -0.0502567 0.0211153 -0.955579 0.463739 0.363277 0.206648 -0.111969 0.176261 -0.587097 0.213235 -0.349975 0.124375 0.877147 0.331041 0.292883 0.203845 0.362163 -0.212633 0.168209 0.23546 -0.00679562 -0.0108349 0.138727 -0.0280556 0.0563821 -0.130807 0.121724 -0.90604 0.454464 -0.161064 -0.451736 0.0424237 0.129523 -0.120524 -0.0151726 0.1731 0.297018 0.214728 0.243517 0.471281 0.262696 -0.243512 -0.15701 0.179954 -0.12071 -0.115262 -0.126062 0.271802 0.0349318 0.0949468 0.0926439 -0.140676 0.146349 0.0439158 0.0722435 -0.0597239 -0.0531345 -0.0115652 -0.186801 -0.10881 0.092365 0.0141666 0.0428678 0.00639693 0.00746307 0.0784436 -0.115303 0.448939 0.101682 0.0064208 0.0853978 0.0912341 0.12383 -0.039774 -0.0216404 0.216105 -0.131668 0.204034 -0.189341 0.0104669 0.00162567 0.573365 0.279022
-4.12684
-4.11179 -0.818781 1.04091 -1.58463 3.12213
-0.898367
5.70581 -0.360778 -0.855162 -0.964212 0.313713
0.367224
2.00982 -5.09111 1.01009 1.06947 -0.196525
-0.060551
1.09904 -6.18443 -0.942315 2.89038 -4.80146
0.196971
-0.0682867 -0.887857 -0.488869 2.84818 1.43618
-0.574293
1.43383 1.25085 -0.900555 1.69288 1.03844
-0.22074
-0.388441 2.06121 -0.58454 -0.615053 -2.11603
-0.167067
-0.684168 -1.46622 2.04125 3.27746 -2.05373
-0.50988
3.73532 -1.03431 0.182168 -2.25875 2.15631
0.349367
2.83692 -0.0384776 -6.54406 1.06991 1.02295
-0.613042
0.755433 1.87919 -0.273197 0.209521 -4.14538
-0.362239
2.03043 -0.685224 -1.89367 2.54461 -0.823649
0.0186635
3.36854 -4.56828 0.123256 -1.66681 -0.109465
-0.870634
2.94535 1.32226 -3.50068 -2.86789 -1.40549
0.0649655
0.206313 1.39859 -2.40975 -2.59393 0.286259
-0.379763
2.79415 -2.84336 0.676378 3.88014 1.72264
-0.588589
4.23836 -3.10185 2.27551 -4.34563 4.71467
-0.280112
1.43771 -0.919307 1.48008 2.83752 -0.934215
-0.489947
0.436365 1.11642 4.72311 -0.704415 -1.78788
0.251866
0.65927 -4.93019 -3.11837 -2.72591 4.97745
-0.738691
-0.360808 -1.21718 0.202101 0.527081 -0.948801
0.19969
0.269994 -0.0969699 -2.51116 5.31721 -0.379174
-0.701709
1.29266 -0.806265 0.908699 -1.58982 -1.99333
-0.378545
-0.784519 1.69417 1.88919 -0.0798355 1.90138
-0.240551
0.438494 -4.80031 3.58215 4.49418 -1.76359
-0.0218745
-1.88657 1.11491 2.59342 0.408433 1.24269
-0.356458
1.58385 -3.68764 0.106196 3.25379 -1.49704
0.066991
-1.28197 -1.50821 3.5932 -2.18652 -2.72129
0.11072
1.38845 -0.304091 -0.427137 2.94778 -1.93086
-0.502716
1.49321 2.39372 3.21564 -1.85367 1.18788
-0.0458951
-3.26272 -0.630076 0.354664 -1.14698 -2.52798
0.294296
-0.295104 -3.15087 0.623954 -2.24448 -1.08586
-0.116421
-2.11634 3.90995 -3.75364 0.17411 -0.70393
0.128696
-0.84005 -0.192785 0.125865 1.49451 -2.71955
-0.632015
3.11275 1.01132 -0.761506 -6.37582 1.67018
-0.047967
0.512383 -0.180908 -6.57115 -0.489233 -0.836952
-0.494553
1.94028 2.00708 1.7516 -0.704696 -0.105461
-0.393548
1.37801 3.58461 -0.704994 3.31494 3.41208
-0.332962
4.42413 -1.35437 -3.61632 5.28134 5.6811
0.0441114
-0.941426 -0.0479132 2.00894 -5.65 2.9655
-0.150553
1.98264 -0.637323 -3.4687 -1.38181 2.21932
-0.158073
0.68886 -0.611727 -0.740362 1.77942 1.00777
-0.0813086
-0.252602 1.59117 -0.882293 4.17169 1.86564
-0.315469
0.304182 0.10661 -0.357964 4.86979 2.70322
0.185974
-0.332118 -0.686813 -1.86657 2.92784 -1.71824
-1.03514
3.2069 -3.0362 -1.12631 -1.23223 2.46504
-0.0802135
0.431509 1.98841 -2.17833 -0.404847 -1.53398
0.245549
-4.51558 0.448069 3.32874 -0.304883 1.91107
0.0423626
-0.733184 0.23473 -2.62537 0.926413 0.21517
0.535723
-0.72528 -2.02886 -5.1439 -2.9807 -0.476348
0.217501
1.11191 -4.93538 -1.30596 0.691677 -1.34317
0.154897
-1.78354 -2.78579 2.06408 2.30534 -2.61062
-0.221106
0.0461089 -0.4223 -1.17283 5.22651 1.35859
0.554591
-1.87123 -2.37915 0.839867 -2.15018 -1.38809
-0.591732
4.11021 0.437038 -4.95239 0.743928 -1.05734
-0.00312246
1.64049 -2.78917 -0.0452102 -2.42733 -2.90851
0.0737907
2.35205 -1.08499 -3.15032 -2.48339 -1.25099
-0.294785
-1.17311 1.22686 -1.79294 4.488 -1.16451
-0.0352176
1.78545 -2.13471 -1.87801 0.475092 0.539852
-0.0988657
1.21944 -4.01458 0.487164 -1.46948 0.256492
-0.148606
-0.816659 -2.21222 1.67969 -0.0585141 -1.01539
-0.384553
2.20885 0.0599316 -0.247755 1.22926 0.0109936
-0.18183
0.0844385 1.22468 0.256297 4.36764 -2.22777
0.108268
-0.843567 -3.69842 0.618698 -2.92024 4.10822
-0.646143
1.83331 -2.13171 0.544459 1.46728 0.296713
-0.189976
2.2427 -1.03634 -0.698455 -3.69734 -0.0339657
-0.0613683
0.84276 1.51187 -2.19529 -1.6847 4.07486
0.335029
-2.28993 -0.258273 0.968477 -1.45931 -2.05995
0.0306132
-0.413966 -2.44972 2.5592 4.03262 -0.295896
-0.599928
1.60485 -0.914889 1.35561 -0.828257 -2.05205
0.284505
-1.78831 -1.35558 1.36927 -1.07713 1.16318
-0.438588
1.7579 3.9443 -3.46708 4.04028 -2.21131
-0.420937
2.01959 -0.395943 1.24207 -2.20176 1.28086
0.450627
-1.14104 -1.34752 -2.4329 -0.329433 2.67156
-0.200537
1.46992 -1.14274 0.338905 -0.418053 3.45729
0.111852
-2.36117 1.35315 2.30573 -2.20663 2.20277
-0.246032
1.72437 2.23943 -1.52108 0.271329 -3.06707
0.437044
-2.38216 1.60455 0.329749 1.08767 3.53342
0.204395
-1.73627 1.00733 1.69586 -0.307303 -4.66667
0.18198
-0.824581 3.13293 -3.19497 1.77658 1.75191
0.303055
-1.25089 0.507331 -1.31564 -0.140067 -0.85013
-0.305424
2.68619 -2.72378 1.32508 -4.20968 -1.07002
-0.0186902
-0.566342 -1.97618 3.99407 -0.662604 5.12331
-0.338758
-1.44728 3.98496 4.03984 -6.23667 -1.42303
0.213712
0.593503 -3.02307 -0.869521 1.75596 -1.33776
0.00350834
-1.79915 -0.851073 -1.641 -2.45188 -0.373977
-0.767737
3.64211 0.742069 -2.16952 2.27198 0.257726
-0.158393
-1.38701 2.28317 -0.0871643 2.9452 -1.84472
-0.353366
0.6656 0.282816 2.46012 2.43857 2.472
0.534289
-2.59351 0.659887 -1.55809 0.852058 -2.26454
-0.552406
3.22933 -1.03705 1.46731 -0.764119 0.634818
0.264096
-2.2764 0.445915 0.468386 -0.504995 2.40763
-0.179962
-0.633472 2.9759 0.887743 -0.114547 -0.435748
0.0542257
-1.12493 0.0146925 2.60422 -0.294457 -2.69655
-0.0300365
1.73962 -3.1881 1.08301 2.68182 0.00980011
0.150567
1.26477 -0.589709 -4.6685 1.85302 1.50568
0.515081
-3.62619 0.479011 2.29637 -0.347681 -0.0600113
0.228806
-0.902286 1.62669 -1.88734 -1.603 -2.27306
-0.347632
-0.158874 1.41198 5.2813 0.253119 -1.93078
-0.0885366
-3.03241 -0.369718 1.28189 1.89073 -1.28941
5 5
1 0 0 0.002806 0
147 1.19486 4.51285 1551.27 0.157705
