0.994924 10719 294 0 3
100
1.80422 1.27068 0.498701 0.952957 0.226169 0.419718 0.173195 2.32209 0.572328 0.425373 0.144122 0.193691 0.331675 0.164077 0.220502 0.222457 -0.129573 0.202672 -0.000812277 -0.711898 0.427011 0.605025 0.36648 -0.0833309 -0.0221644 0.0365428 -0.387451 0.256242 -0.724177 0.324139 -0.18959 0.240655 0.2593 0.195928 0.214474 0.145329 -0.161349 0.0888026 -0.00826104 -0.126946 -0.170696 0.213339 -0.490259 0.152807 0.184035 0.0160066 0.0590577 0.244305 0.023864 0.0385125 -0.0764195 0.0962496 0.162469 0.313758 0.0931588 -0.0635005 0.101633 0.113272 0.166923 -0.0642158 0.11324 -0.0157362 0.0135579 -0.0330044 -0.00547292 0.0886293 -0.203238 0.0578607 0.51533 0.338547 0.187378 0.188661 0.158388 -0.0365833 -0.147823 0.19051 0.0423748 -0.138434 0.197674 0.165589 0.158661 0.227969 0.0720565 0.109048 0.0963782 0.0646696 -0.0157037 0.0497589 0.147748 0.118636 0.0270425 0.0338844 0.387358 -0.143911 0.117904 -0.0332034 0.119635 0.189214 0.116525 0.0843517
-3.45331
-1.87779 -1.0379 0.753068 5.79047 1.51021
-0.194382
3.1986 -4.74029 -0.120362 -0.712462 0.884255
0.0849447
4.13781 2.09239 3.86939 -4.02368 3.07147
-0.383523
1.5711 0.896738 2.22104 -1.87509 2.238
-0.0531667
0.944767 -3.94086 2.53122 1.59362 -3.89302
0.56375
0.19642 -2.44515 -0.0902633 1.97263 -3.95858
-0.375557
0.10629 1.55991 -2.40235 -2.45236 3.83625
-0.0207744
3.62805 -2.85762 -2.5873 -2.67326 0.891616
-1.00174
3.15401 -1.23971 -5.23412 3.06986 -6.66959
0.0363582
2.20396 -1.7856 -2.39579 5.34725 -0.942001
-0.896609
2.01581 2.55358 -0.84767 0.303497 -1.04398
-0.218422
2.28334 -4.0033 -0.0670928 2.15882 -2.87875
0.570498
-1.02547 -3.89572 -0.546862 -4.37525 2.39885
-0.406139
0.795323 0.884632 -1.49425 0.852072 1.08657
-0.240398
2.6195 -1.021 -0.196495 -0.877366 0.0833567
0.207079
1.61273 -4.52592 0.980153 -0.674331 -1.70329
0.07698
-1.89337 0.75776 -3.31641 0.736903 3.65763
-0.525368
-0.0897722 -0.569518 1.28749 6.39579 7.25872
-0.150972
1.05619 -2.40358 2.05327 1.14263 -0.600731
0.300045
-0.968802 -3.29045 -0.431509 -0.0289167 0.758423
-0.585517
-3.56574 1.23812 1.75353 -1.26857 -0.528062
0.196255
2.93853 -3.79359 -3.51193 2.58717 -1.89074
-0.767815
0.0489211 0.167792 0.354234 -0.263005 -1.22844
-0.264761
3.5587 0.33255 -3.17182 -3.00096 -1.67778
0.335058
-0.998441 -2.94379 -0.115163 -2.33412 0.669356
0.154767
3.53056 -2.62127 -6.79655 -3.2626 0.507756
-0.243563
0.0549384 2.29931 0.629057 -0.105924 2.74919
-0.295853
-2.79764 -1.0743 2.04076 2.39593 3.1789
0.166112
0.224302 -1.66388 -2.41267 5.50222 2.38277
-1.19252
-0.653321 0.52968 5.66939 3.43739 -0.828781
0.0945133
-1.67872 -1.3529 1.57062 -2.92489 -3.6189
-0.0100747
-0.72415 -1.65233 -2.96489 -1.39306 2.93962
0.0691865
2.03312 -0.249207 -4.35737 -1.21722 -1.90954
-0.409776
1.68806 -1.96255 0.389696 1.89156 -2.97232
0.208871
1.56088 -1.24145 -3.61604 -2.04844 -0.83754
-0.0773966
-1.1163 -0.520889 -0.750507 -1.1434 3.99252
-0.383078
1.33215 0.472211 1.98876 2.64849 1.59045
-0.468948
1.62585 1.68938 -1.12639 0.229997 2.94675
-0.811283
3.88264 2.7888 1.07895 -1.31778 -3.80806
0.217911
1.03899 -2.28863 -3.57623 0.950774 2.87953
0.153637
-0.4223 -4.10327 0.895415 2.67959 0.943323
-0.218158
-0.810629 -1.50084 0.334153 1.03682 -0.102197
0.0335496
-1.65952 1.83495 0.601637 -1.64366 1.17603
0.545038
-2.88302 -0.576412 4.09795 -1.237 4.54169
-0.473364
2.64244 0.606617 2.73517 -0.454072 -5.32307
-0.079773
-1.75774 1.22264 1.29239 -2.54471 0.754931
0.238215
1.85872 -8.07068 0.967599 -0.774245 2.24338
0.354
-2.18161 -1.6161 0.898893 0.42961 1.07436
-0.46389
0.908059 -0.910083 3.08237 1.42596 0.980753
-0.59326
2.80666 1.2488 -0.742096 1.90074 -1.13891
-0.28416
0.322305 2.00106 -0.136544 0.395199 -1.2674
-0.680634
3.33258 0.188254 -0.388017 0.362179 1.90885
0.00486477
2.88737 -3.83957 -2.00369 -4.56003 -2.29879
-0.242626
3.36574 0.484118 -1.29527 -1.43292 -4.07076
0.141374
-2.77505 -1.02035 -0.539712 -1.86008 0.900625
0.199449
-0.927984 -2.47494 -0.859024 -2.33547 1.05407
-0.469949
-0.320951 1.15683 1.44507 0.746925 -0.0165973
-0.248716
2.34909 -0.64311 -1.93446 0.408276 -0.323333
-0.0438803
-0.186391 1.74305 0.163127 -1.38021 1.82657
-0.927388
1.74743 3.16799 2.64281 2.71299 2.15257
0.00984577
-3.65848 2.07278 0.124178 1.31824 3.02582
0.280585
-1.95195 -1.9251 0.957835 3.29918 -0.0326485
0.110033
1.50173 -4.14916 -1.1077 4.89422 -1.30237
-0.125896
-0.522533 -2.6151 4.52038 3.04949 -0.37179
0.0520205
-0.961857 0.00109274 -0.805294 1.19283 -1.33038
-0.200747
0.770208 2.87019 -4.27519 -0.41078 0.899975
-0.648692
3.42896 0.829549 1.61835 1.09541 1.062
-0.115896
-1.09288 -1.76663 3.65029 0.433371 -0.781661
0.905505
-3.53954 -4.21993 -1.97406 -0.979328 -1.62797
-0.394262
3.45087 -0.267775 -0.97033 3.3268 -0.459409
0.621897
-0.969567 -0.701672 -2.60708 -4.51725 0.00966818
-0.343441
3.26416 -1.08179 -1.44583 0.130975 -4.44233
0.582058
-0.967205 -2.62894 -0.855058 2.51096 0.792761
-0.487831
1.72726 1.16626 1.04495 2.62749 2.37368
0.119438
-1.21172 -0.85145 -0.304482 -4.558 0.660322
-0.13935
-1.8164 -2.45663 3.14768 -1.17778 -2.54415
0.190817
-0.850142 1.34923 -2.60711 -0.630816 -0.206988
-0.216865
0.0298575 -0.0620151 2.77008 -2.69635 -0.69475
-0.34552
1.74728 -3.13045 1.01529 0.713998 0.829215
0.359485
0.447714 -0.611235 -4.45605 2.43342 -0.122323
-0.171119
1.73346 1.68918 -5.90301 -3.46106 -3.03798
-0.620893
3.84987 2.88421 0.308994 -1.05921 1.3388
-0.235746
-1.27138 2.02015 0.933647 -1.23672 1.72489
-0.280429
2.14036 -1.39702 0.979279 -2.62442 0.240718
0.214695
0.48344 -0.0144768 -2.50054 3.81319 -2.88726
-0.367789
2.84496 -1.5912 0.724966 -0.613011 -1.23297
0.492989
-4.57707 1.93283 -0.343006 0.226766 -0.732017
-0.179223
-0.534968 1.81833 2.10697 0.20713 2.90745
-0.0704328
1.12704 -1.60165 0.228246 0.0187654 -0.617514
0.0573426
1.69239 0.463811 -1.21988 -1.45617 -2.25483
-0.102017
0.902506 1.01695 -1.61617 -0.0791871 0.486382
0.291871
-2.74128 -0.171612 1.34844 6.00365 2.37363
0.287782
-3.66709 2.14203 0.138539 7.68949 -2.08264
0.219323
0.172983 -2.84488 -1.40469 -1.81699 1.67324
0.0571457
0.490305 -4.80372 -0.864909 0.103755 1.34406
0.0403678
1.21734 -1.39127 -2.31863 -0.670364 -5.7853
-0.184179
1.56356 1.60782 -3.96825 1.49257 -4.29388
-0.120352
2.11213 -0.343483 -0.175073 -3.71915 -2.52444
-0.429502
1.48019 -0.22511 0.463907 -0.540675 -2.03426
-0.405219
1.53491 -0.246945 3.32646 -2.41319 1.8064
5 5
1 0 0 0.004387 0
147 1.19486 4.51285 527.415 0.157705
