0.968067 21550 288 15 4
100
2.1595 -0.536367 0.309721 0.114702 -0.490511 0.242648 -0.504564 0.404845 0.097558 0.138492 0.28311 0.197516 0.143774 0.0123284 -0.377286 0.199208 0.0699077 -0.39768 0.185934 0.336278 0.200759 -0.399885 0.3863 0.198954 -0.211354 0.125948 0.172691 -0.115827 0.168224 0.621502 0.371985 0.433356 0.279187 0.114418 0.354739 0.215026 -0.190677 0.593422 0.070498 0.481554 0.335894 -0.301676 0.279078 0.0234134 -0.18904 0.252876 0.114605 -0.0701277 -0.106736 0.0253443 0.108922 0.100788 -0.151709 0.0702003 -0.0936415 0.128612 -0.00446603 0.252671 0.113412 -0.0988062 0.198792 0.0902903 -0.0632124 0.0340452 -0.154733 -0.0394265 -0.0163871 0.00107112 -0.00832965 0.0284659 -0.0670583 0.211827 0.0896581 -0.0339455 0.0292473 -0.0308066 -0.0894307 0.0178853 -0.205338 0.0776968 -0.0845846 -0.020216 0.0239629 0.0488786 -0.132111 -0.196556 0.187495 0.00868866 -0.0236848 -0.0567075 0.112465 -0.247945 0.156922 0.0682061 -0.00610139 -0.00116745 -0.167413 0.229517 0.0845814 0.0143013
-4.75703
1.2865 -5.75546 3.12485 1.1017 2.28513
0.332896
-2.57665 -1.13323 -0.598324 1.66189 3.24964
0.361908
0.830248 1.00567 -4.61229 -0.834704 0.285971
-0.337402
0.964455 -0.546465 -0.273549 0.925781 1.64246
-0.113378
-1.65603 3.07111 0.357298 1.27504 0.801803
-0.979735
2.5025 1.90706 -0.313692 -2.75094 -2.39899
0.154612
-0.823347 -3.47477 -5.764 1.06472 0.89849
-0.727454
0.312269 -0.409547 -1.17891 -2.7725 -2.03187
0.277644
-1.50564 -3.0716 1.72213 0.642052 1.74624
-0.470973
3.66111 0.683252 -1.541 -4.81557 0.639819
0.181284
-0.494395 -1.88271 1.26618 4.36265 -5.37085
-0.206081
-0.500123 0.613139 -3.75141 2.20829 -0.641588
0.257128
-1.04373 -2.86537 0.321877 -4.14791 -2.76794
-0.0963558
-1.26884 -0.555633 2.09919 3.99675 4.09467
0.0172793
-1.53596 -0.753967 1.51714 -3.47285 -3.67327
-0.834659
0.527942 -0.608969 2.65147 -2.78027 0.478775
-0.403864
1.83262 -2.39327 1.2242 -0.628607 -1.45824
0.165166
-1.49421 -0.13299 -2.53923 0.258325 -0.788351
-0.1545
-0.536858 0.533132 -2.57391 3.48334 0.690045
0.540076
-2.03327 -0.23923 -4.87252 4.78589 7.79111
-0.544873
3.19493 -1.54887 -1.67685 -3.0239 4.96804
0.296803
-5.49189 5.35393 -0.846813 1.61651 -2.60129
0.434207
-0.809304 -0.638048 -1.69324 3.6804 -3.89034
-0.563967
0.715672 -1.36692 1.62396 3.9902 -3.25673
0.0805072
-1.55045 -3.11728 3.99236 -1.79463 -0.871859
-0.0859722
-1.62054 -0.404808 0.837705 -3.13333 0.571442
0.214597
-1.71262 1.64618 -1.98637 1.47107 -0.462269
0.0602088
-1.62764 -1.582 1.18647 -2.75765 1.76417
-0.0730117
-0.881296 -1.26651 -1.11164 -3.15851 1.65337
0.395208
-0.141243 -1.93203 -5.01025 -2.54301 3.58975
-0.598326
-1.77951 1.57316 -1.96135 1.16653 -3.95652
0.0604562
-0.104098 -3.34308 2.63461 2.55851 4.779
0.236912
0.998218 -2.67614 -7.23577 -0.561728 -2.92925
-0.0472602
-0.700621 -3.57804 0.485256 -1.74002 0.872531
-0.0660523
1.11341 -0.0871892 -0.604906 1.59121 2.45254
0.561028
-3.44967 0.767026 1.177 -5.36609 -2.41068
0.135479
-1.15074 -1.31143 0.0564838 1.82274 2.86848
-0.0851613
3.76244 0.476117 -1.74178 1.40216 1.28601
-0.114802
-0.855945 1.40456 -1.93597 1.76904 2.4576
0.103913
0.748962 -0.512375 -3.2569 -3.40778 -1.29136
-0.474032
-0.581634 -3.37967 0.590041 0.758983 0.274178
0.0654804
-3.22362 -1.78466 7.03422 -3.91389 1.80455
0.288115
-1.2464 0.438558 -0.25951 0.974474 0.968803
-0.403314
0.746174 1.68905 -0.343527 0.785736 0.642678
0.022716
-2.95461 0.42216 -0.745192 0.581379 -0.789233
-0.307768
-1.97075 -2.12643 1.86043 -4.4412 1.65057
0.0487052
0.687968 -0.100823 -3.01151 2.47975 0.39059
-0.00649695
-1.75675 -0.359294 2.45483 -0.817874 -1.40012
0.0365161
-2.63621 -0.30228 -0.648573 4.13321 0.815761
0.0181599
-3.59599 -3.26249 0.6047 -3.44871 2.6096
-0.00855736
-4.19899 -0.559749 0.947071 4.15084 -3.85377
0.0618497
-2.27397 1.11375 -2.28977 4.37179 4.27762
0.113753
-1.71338 -2.74673 1.46007 -1.71662 1.67167
0.123153
-1.63821 -1.18163 -1.39296 -0.559466 -1.78659
-0.30388
3.62705 -0.660307 -3.02199 -1.22629 -0.879738
-0.160041
-1.16276 1.35938 -1.61101 1.3563 -2.29808
-0.0875472
2.41692 -0.82781 -1.86615 -3.33661 -3.66741
0.200627
-0.716313 -2.65861 -0.94905 1.08432 -1.5739
-0.0936293
-4.16856 0.581643 3.07491 0.88146 1.52687
0.228633
-4.01902 0.700332 -0.326794 0.42608 -2.34185
0.221128
0.889404 -4.72277 -2.11598 -3.5509 0.00854426
-0.053583
-2.68667 1.30689 -0.530416 -3.54705 3.24399
-0.107841
0.946569 1.19811 -1.17347 -0.0054222 -0.25556
-0.0783253
-0.946847 0.740987 0.375673 -6.57996 0.568648
0.0734616
-2.29692 1.699 -0.742156 7.49817 0.677333
-0.166884
3.2405 -1.04441 0.357511 0.219964 1.3617
-0.0685829
0.593125 1.48056 -0.902113 -1.47944 -0.24976
0.0360271
-0.209095 -0.103815 -0.753661 2.83311 0.155107
0.204473
-5.62662 4.07535 0.559068 0.58527 0.28528
0.319117
-2.20462 -4.44341 0.300434 -0.892774 -0.594619
0.0806703
-0.652604 -2.01773 0.973559 -2.39791 -1.21158
-0.091186
-1.12161 3.68209 1.68475 0.986143 -0.708887
0.271918
-1.56051 -2.01265 -2.50856 -1.20726 4.04821
-0.013001
-0.320492 -1.05313 -0.129276 5.13842 1.04484
-0.188244
-0.0889923 1.68638 -0.641464 -0.655458 -0.47155
-0.164079
0.71324 -1.19032 2.66375 -1.77536 -3.64671
0.121535
-3.27134 1.5934 -2.62708 1.74842 -0.285086
-0.190879
1.76338 -1.61227 0.28031 -1.01675 -0.478606
0.13066
-0.460474 -2.01276 -3.29495 2.78058 0.739521
-0.0885051
-0.884261 0.503657 -0.0953604 -1.74696 -2.81305
-0.223835
3.29006 1.95948 -3.6393 -0.649074 -2.88732
0.165732
-5.79484 -0.581094 5.50126 2.33764 1.90118
0.129092
-2.60802 -1.36439 1.85256 4.42244 -2.61202
-0.0673818
-0.243214 1.19092 -1.60117 0.583382 -2.56959
-0.107548
-0.901353 2.26121 2.38823 -3.60439 -2.15163
-0.467195
1.05661 4.83833 2.50878 0.914252 5.23453
-0.198344
-3.17616 1.92928 -0.900315 -3.74699 -2.97867
-0.0956889
1.05895 -2.5458 3.75006 4.20926 1.47069
-0.0975914
0.254269 -0.64462 3.6829 0.980382 2.5254
0.279917
-2.48901 -1.76957 -2.52598 -0.979122 3.67262
-0.0104792
1.31934 0.144339 -1.45445 4.21113 -3.87589
-0.124167
-0.188712 -1.23004 5.66799 -0.198831 1.71155
-0.608536
3.84362 3.00081 -5.57233 2.05872 1.48972
-0.016968
-1.77508 -0.789062 1.03668 -4.6855 0.474952
0.190792
-1.44263 -0.814227 -2.5833 -2.09374 -0.0798851
-0.0711391
0.377817 -0.941865 3.0414 -0.422485 0.0339252
0.0913267
0.422462 -3.57651 0.455117 -0.363225 1.95519
0.139423
0.21641 0.714144 -4.71807 0.247896 -1.05989
-0.597322
2.48865 1.40891 1.80764 0.913053 4.49402
-0.292041
1.03639 0.283193 0.0561371 -1.90809 3.45198
5 5
1 0 0 0.002806 0
147 1.19486 4.51285 1551.27 0.157705
