0.947826
100
1.23744 0.649464 0.364407 0.625375 0.410125 0.122308 -0.0620017 0.293627 0.185938 -0.173745 0.239357 0.135489 0.085377 -0.0971057 0.0766391 -0.0130752 0.0556582 -0.161797 0.242737 0.144349 0.00747687 0.00432984 0.0995672 0.0365592 0.0638558 -0.0238577 0.12649 0.017471 -0.231041 0.101978 -0.156654 0.0816493 -0.248878 0.0847763 0.135736 0.103417 -0.0524432 -0.194553 -0.0200929 0.0798003 -0.193395 0.0826563 -0.0511244 0.0348572 -0.0712974 -0.0294987 0.102942 0.116632 0.0541245 0.0728886 0.0524425 -0.0902792 0.0740526 0.0390137 0.0432897 -0.0449472 -0.0890732 0.049981 0.143378 0.0573318 -0.105402 0.0636782 -0.0539522 -0.0150474 0.0660476 -0.0817534 -0.0388296 -0.0146996 0.0955522 0.0314395 -0.127236 0.0882303 0.0351016 -0.0328219 0.0259976 0.0626594 -0.0926382 0.0612555 0.143514 0.0633809 0.0642831 -0.0666008 0.00858449 -0.0989986 0.0309968 -0.0495945 0.0577483 -0.0735769 0.0287539 0.058217 -0.00384806 0.0250452 0.0570262 0.181764 0.124489 0.062113 0.120594 0.000677786 0.0648186 0.123648
-2.00297
-3.14008 -3.0889 -0.351126 5.78579 2.74758
0.462294
3.08546 -4.79549 -3.68949 -0.0635582 -2.59201
-0.603121
1.06345 -2.795 -0.95784 2.3034 0.870223
-0.0373236
3.40434 1.6996 -4.69458 -1.92626 -2.51872
0.548482
-2.15346 0.262338 -2.21816 0.287355 1.01819
-0.305713
-0.416503 -1.45137 2.32563 2.3073 -2.2231
0.166835
-0.756192 -2.06106 -2.72359 0.602951 -1.21094
0.0994935
-0.0180698 -2.50132 0.183015 -3.79578 -0.92737
-0.332817
1.41749 -1.58869 -1.55088 -0.042694 2.25107
0.0672818
-1.26562 -1.26717 0.9726 0.73275 0.234147
0.324417
-0.604489 -2.94362 0.562406 1.15992 -2.0656
-0.142589
1.94587 -2.4404 -1.23683 -3.29071 -2.08703
0.023843
3.20506 1.42821 -5.92874 -0.172446 0.375929
0.291261
-3.29436 -2.06373 -4.64042 2.27338 -5.54398
0.155018
-0.613103 -0.995423 -3.0115 1.13176 -1.5429
-0.0882582
1.63461 0.279603 -3.82912 1.63782 2.15935
-0.131921
0.336616 -0.586543 -0.0883888 -1.58362 1.72826
0.0809233
0.740894 -0.933971 -3.6539 -0.126671 2.34079
0.207656
-2.17841 -1.31229 1.08846 3.14514 -4.27083
-0.115869
-3.91169 -1.2143 0.335334 0.527134 -0.845981
-0.0225703
-2.05292 1.45331 0.983531 3.87766 -0.664843
-0.0816609
0.371594 -0.263396 2.67385 0.585757 -0.235393
-0.0825324
3.31918 0.381579 -2.11902 0.233133 1.82546
0.261641
-3.55205 3.1968 -5.03741 2.06869 -0.729527
0.247575
-2.41083 0.603172 -2.65701 0.111972 -4.44046
0.183549
-1.64198 -2.66461 -1.24428 3.64908 -2.65274
0.287735
2.60547 -8.26093 -2.09589 0.940179 -1.07915
-0.120212
-3.69596 1.54882 1.54008 -1.47607 0.911151
0.122777
-2.36598 -0.829565 -3.09107 1.44414 -3.36765
-0.225236
-2.28778 2.89473 -2.66354 2.79 2.68539
-0.088064
-3.02478 2.69514 2.25031 0.922558 -1.08323
-0.159458
-2.37094 3.86078 -3.46505 1.34278 0.585292
-0.037342
1.04264 -1.92152 0.516941 0.854704 3.75058
-0.180842
-0.704089 -2.64492 3.5929 0.207892 1.5997
-0.0656798
1.79168 -2.09628 3.59394 2.79291 -2.97643
0.224786
0.763299 -2.75595 0.0579051 -2.27174 -0.0133551
0.26809
-2.14017 -4.34671 -2.92774 4.52883 -1.79362
-0.0168321
-0.281134 -1.32687 2.09405 -0.268208 1.42145
-0.0669873
-0.147449 -0.476779 -2.35435 -1.02194 2.54855
-0.11074
-1.04481 -0.378573 -0.566836 -1.18465 1.24987
-0.296114
-1.52162 4.53955 5.79771 0.0156416 3.24528
-0.233666
-3.06801 1.92417 0.729682 2.52495 1.30062
0.0982125
-0.260667 -1.50741 -1.39982 0.258402 -5.01518
-0.00689659
-3.26585 1.71607 -1.51762 -3.69677 1.93009
-0.0431227
-1.22697 -0.113642 1.53151 2.09631 0.550202
-0.05395
0.4652 -2.26738 -2.23556 -4.75538 1.75479
-0.175298
1.42669 1.36617 -3.52389 0.379228 -3.32215
0.22301
-3.30717 1.22829 -4.92522 -1.5429 -6.65017
-0.0633269
0.0380338 -0.251704 -1.46276 -2.11753 0.35587
-0.103483
2.26314 4.20811 -4.56859 -0.1819 1.0434
0.139401
0.955731 -2.4375 -0.0161647 0.0464875 -0.227055
0.155508
-0.875885 -3.35219 -2.35694 0.541522 3.09575
-0.204174
6.89585 2.05572 1.23024 1.04637 -1.79255
-0.123395
-1.41685 7.00593 -0.00564644 -0.543539 0.0422167
-0.0262601
1.36463 3.23798 -3.52659 -1.87274 4.5421
0.162636
-4.28415 -1.10658 -1.19749 -2.75939 0.88152
0.0337993
-1.03139 -1.05169 3.46398 -3.91965 -1.76737
-0.0067137
-0.937789 2.36388 2.15331 -0.207026 0.470885
0.100619
1.69785 -2.04845 -2.37047 0.786374 0.106156
-0.13463
0.285259 -2.461 2.44816 1.84256 -0.189226
0.0592094
-1.98605 1.49771 -1.91543 -1.47951 -3.83823
0.0213612
-2.27903 3.0768 -2.00685 0.451988 -3.55677
-0.234371
1.68884 3.37975 0.812729 -0.526524 0.560898
-0.116981
-1.48116 -0.174363 0.989736 -1.56195 2.55219
-0.0443517
-0.597769 0.422761 -3.90233 1.70442 -0.368866
0.0771445
-1.86885 -1.97612 1.07245 1.8264 -0.218934
0.0427575
-1.50127 2.45937 -3.06567 0.743891 3.77667
-0.0365596
6.04076 -0.5162 0.18997 -2.66664 0.994751
0.15145
1.64399 -3.54925 3.19007 1.7141 -2.73514
-0.10507
-0.958858 1.87522 -0.671838 3.91969 1.20643
-0.102703
-0.150724 2.2785 0.601143 3.42243 -0.315035
-0.0992156
1.31465 -3.36516 1.83166 -3.0769 -1.19728
0.178222
1.16882 -4.5999 -1.37681 0.351406 0.0416755
0.0255435
-2.67084 0.971482 -1.24809 1.58281 1.48559
-0.0947994
1.50505 -0.377217 1.09745 -0.526588 1.31014
0.027063
-0.0467991 -0.10707 -0.162588 -0.429483 -0.633916
0.0919644
-0.209614 -4.4543 -0.280787 -2.48606 -1.13379
-0.0874517
0.237585 -0.707223 -0.728058 -0.548016 0.358944
0.0256115
0.0628998 -1.71595 1.20804 3.02518 -0.639046
-0.136109
2.86772 0.763855 1.48498 -1.22118 -0.463913
0.20833
-0.438935 -2.20077 -1.83932 0.981141 -1.57354
0.163816
-3.46228 -2.49465 -1.7182 -0.202514 1.35288
0.218423
-1.19396 -1.86467 -4.78584 -1.66804 0.558143
-0.00347957
0.470808 0.502329 -0.285135 3.2783 -2.10896
0.0160933
-0.52232 0.422831 1.28084 1.73727 1.12651
0.0660203
3.11082 -5.17651 0.886406 -2.26809 2.40083
0.0844572
-1.96384 1.04472 -0.452539 -0.236323 -1.56891
-0.25069
-0.86617 5.08544 -1.59201 3.4937 6.20604
-0.196154
-0.653345 1.82324 0.223172 2.04704 -1.78186
-0.0875327
2.1354 -2.07858 -0.791489 2.56381 1.48946
0.207675
-2.4628 -5.36364 0.453193 -4.39037 3.38496
-0.274507
0.852909 3.55215 5.44047 -1.79964 2.47522
-0.102582
2.78867 0.548888 -0.380872 -1.52813 6.14975
0.0640504
0.0867906 2.04915 -2.55092 -0.529879 -2.03941
-0.254778
3.20734 -2.7876 0.63346 3.91935 -1.93122
0.00435632
-0.773677 -0.0744049 -1.19947 3.41671 1.47959
-0.0894621
-1.6753 3.47024 3.24068 -3.65221 -2.78791
0.103492
-1.08227 -0.545051 -0.260997 -3.42248 -0.0971151
-0.0508768
1.51978 -0.0783438 1.04522 2.05978 1.92072
0.163961
-0.0534278 -1.50734 -3.10824 -2.44635 1.06159
