0.866667 2168 52 8 2
100
1.78971 -0.043924 0.38402 0.0348763 0.148183 -0.303227 0.2143 -0.691505 0.194971 0.00186718 0.112837 0.653375 0.408178 -0.220057 0.182279 0.0887658 0.411999 0.284602 -0.0140187 -0.321332 0.0643561 -0.0623405 0.124716 -0.269905 0.00194984 0.0640091 -0.125758 0.0904619 0.340066 0.251922 0.190047 0.13032 0.423906 0.12469 0.0593152 -0.139307 0.127759 -0.0227086 0.0878446 -0.0671822 0.0725555 -0.304738 0.131785 0.0995933 -0.720831 0.125144 0.0304106 -0.15682 0.0467553 0.0477656 -0.441001 0.15899 -0.0576608 -0.0673767 0.102171 -0.260185 0.176342 0.0308173 0.236673 -0.156272 0.0351779 -0.0120721 0.0125639 -0.169829 0.136425 0.191279 -0.00572856 -0.0189114 0.0214282 -0.00490548 0.0459534 -0.27759 0.127639 0.0495231 0.18095 0.15121 0.0279831 0.0525769 -0.351889 0.0886866 0.0120632 0.0415346 -0.0149015 -0.47237 0.310932 -0.0388705 0.00965673 0.0367569 0.167485 0.150938 0.0358896 -0.304564 0.137403 0.087434 -0.0487644 -0.0281741 0.142385 0.0701766 -0.0109088 -0.0122876
-3.43871
0.778072 1.27429 -5.28953 2.14616 5.87892
-0.00649733
1.18925 6.01216 -3.59968 -0.593292 0.0724068
0.225626
-1.73293 0.415246 -4.35058 4.04241 -0.617323
-0.579609
4.2465 -2.77552 -0.705453 -0.392268 0.659136
-0.170852
0.190043 1.53057 -2.31418 1.04378 -2.56353
-0.183921
1.66867 2.82052 0.786689 2.76565 1.38721
-0.478035
0.964142 1.95359 -0.73238 1.48816 -1.30728
0.0884702
-0.52398 -1.80769 -2.66649 1.78878 0.181441
-0.956493
2.08994 1.86702 1.28066 -0.59646 0.464593
0.193447
-3.28895 1.85392 -4.7337 -2.23951 -2.49116
-0.185186
-3.74699 3.23127 1.65888 0.454607 0.745647
0.130601
-1.62338 -1.08274 -0.356348 -0.388341 -2.99325
-0.835636
1.3486 0.172817 -1.28586 2.6593 -1.35591
-0.00299535
-1.51214 3.48897 0.918704 -0.0926239 0.156251
-0.168462
-1.83717 0.911463 -1.80803 -3.66259 -2.84796
0.0372458
-1.4049 -1.11106 0.746023 0.101531 1.90405
0.0669395
-1.09566 2.25737 -0.424801 -1.60337 -0.326429
-0.417568
-1.45325 -0.144919 -2.96578 -2.32192 1.1754
-0.261038
2.67006 1.64957 3.43547 -2.10514 2.64284
0.0939993
-2.44349 -3.63258 -0.259855 -1.18725 3.41692
-0.367171
0.954053 -0.853898 1.12205 -0.15069 1.329
-0.339472
4.25109 -2.97065 -0.764171 3.29051 2.4323
-0.0952669
-1.19498 -2.23522 -1.81468 -0.646307 -1.94889
-0.12987
3.62332 0.101793 -1.00644 -2.03123 -2.10082
-0.388224
7.66247 -1.21951 -4.19464 -3.2205 -0.821234
0.032197
-1.86491 1.54499 -4.12937 3.30487 -1.2433
0.165967
-3.05508 4.21049 -3.38728 -1.21065 -0.00575752
-0.107745
1.74176 -1.53768 -3.35706 -0.676623 -3.89723
0.190947
-2.91744 1.93296 -1.10105 1.24024 -4.20439
-0.208471
-5.89279 0.449717 -1.33975 -2.77893 -2.63142
0.0892706
0.895807 1.26203 -3.59028 -0.374882 -3.36988
-0.262563
1.0583 0.980304 -1.20265 -0.516302 -1.86818
-0.153155
0.942169 0.830679 3.78315 -4.53467 -0.0325782
0.235706
-1.63338 1.81663 -1.74678 -1.0114 -2.69185
-0.0959288
-0.354328 1.76666 -0.929993 -1.6615 -0.108584
0.000662728
0.0952886 1.35964 -1.6357 0.462202 4.12477
-0.120905
-0.948311 1.18369 -3.36759 -1.5363 1.38579
-0.212938
3.77429 3.46464 2.06219 -2.12148 -6.69544
0.133035
-0.909715 0.10072 -3.02256 3.68717 -1.818
-0.185445
1.04409 2.46421 2.87477 -1.55833 0.849917
-0.151731
-1.4667 -3.29574 1.58647 2.66036 3.2021
-0.299202
4.066 -6.19015 3.7695 -2.68997 5.35329
-0.167973
-1.67021 2.21156 -0.99191 -2.20831 -1.24974
-0.188855
2.51458 1.29244 3.0201 1.39293 -0.521954
-0.0324214
0.42108 -2.01562 0.551671 -0.127776 1.50056
-0.180993
-0.700807 -3.16178 -0.79176 -1.06711 -2.09873
0.0754899
-3.72865 -2.89412 3.15607 1.7243 -2.21244
-0.0627502
1.91864 0.232363 -1.19168 -0.394908 4.09145
0.0649237
-4.30618 4.16119 -3.74933 0.0927565 -2.47129
-0.116338
0.312108 0.617774 0.0842237 1.63595 -2.704
-0.00369329
-0.390472 -4.11078 1.07832 0.549517 -2.14232
-0.460037
2.40951 3.61792 -0.0824927 -3.64206 2.29576
0.0720512
-4.81702 0.0101355 3.09622 -2.32461 -2.18621
0.0536826
-4.58738 -0.389819 2.04917 1.40551 -4.3308
-0.157691
0.814086 0.0315667 -2.10098 -3.21257 -3.33328
-0.00654294
-0.246694 -1.43006 0.528862 2.27712 1.25092
-0.664262
5.43357 4.60052 0.939953 -3.61333 1.59813
-0.0592631
0.942487 -1.45847 -1.09563 1.2271 -1.20222
-0.0407086
1.15918 -0.474448 0.0353596 -2.29069 -2.01218
0.138307
-1.78002 1.67948 -3.51156 2.93908 -1.71355
-0.177222
-0.0681009 -1.11769 1.71417 -1.44013 -0.373563
-0.170666
2.45938 -1.01721 0.0253528 -1.17106 0.523583
-0.00737469
-2.07589 -0.951252 0.331364 1.83074 0.419501
0.0951631
0.725296 1.77525 -6.58357 -2.39157 1.24595
-0.137545
-0.404437 -0.688819 -3.48734 1.95772 -1.86315
0.0703155
-2.07914 -0.379909 0.560163 2.10589 0.870475
-0.049242
0.691286 2.90306 -2.82158 0.0196048 2.57852
0.0219738
1.11854 -1.56279 -4.91068 2.22813 -0.272334
-0.25268
0.207942 1.98436 3.61824 1.66347 -1.53627
-0.247743
1.58767 -3.22197 3.30953 0.303819 2.68335
-0.0759586
-1.6516 -0.602708 2.23868 -2.29342 -2.15808
0.256733
-2.62179 0.918807 -4.98309 0.530108 -2.39345
0.369032
-0.634906 -1.16652 -6.30972 3.0885 0.768066
-0.0458003
-0.630755 0.46326 -0.475574 -4.64122 -2.02138
-0.133272
0.666523 -0.625353 3.03921 -0.612319 3.08883
0.306405
-2.66108 -5.2977 1.61269 0.256054 -7.00279
-0.0898566
0.179707 2.05817 -0.784591 0.00878023 -1.5019
-0.192868
3.20496 -2.2064 1.61707 1.58153 -6.42958
-0.28406
6.61378 -0.235976 1.6638 0.220582 -1.08182
-0.00856264
0.2624 2.7097 1.43727 0.465011 -3.531
-0.288055
1.23419 1.15885 3.79912 2.8063 0.459369
-0.057364
-2.82278 -1.12812 2.81883 2.03263 0.274366
0.183701
-3.26029 1.62305 -2.17462 0.857047 -0.50535
0.0259385
0.433408 0.96189 -2.62729 -0.921941 6.86723
-0.544828
-3.36979 1.00251 1.54627 2.76748 -1.60049
-0.102445
-1.02606 1.65708 3.62797 -1.47658 -0.652036
-0.121905
0.9576 -0.366771 -0.485439 0.215537 0.874866
-0.0316724
0.942737 0.695756 -2.35178 -5.4364 -0.638084
-0.0603432
1.39901 1.92903 -0.296657 -1.4684 -1.30662
0.314708
-2.07103 -2.64091 0.310439 -2.57312 -3.22001
0.0234442
-1.47683 1.0488 -1.22934 -0.853611 -2.59539
0.0378783
1.19079 0.819589 -2.85265 -2.62465 -3.75844
0.256069
0.409064 1.41382 -3.40127 1.34718 1.80098
0.162364
0.76594 0.46441 -8.78528 0.608628 0.183338
-0.142841
2.44208 -0.528511 1.48887 -3.5539 -2.67066
0.00600615
0.398245 -0.832096 -1.8503 1.64345 -0.169437
0.136204
-4.93981 -1.98684 0.255262 0.474211 -3.40972
0.0930325
2.30942 -0.134848 -4.07512 -2.14135 4.27316
-0.127152
1.97723 0.349888 -1.44799 4.04365 0.352663
0.0131362
0.322963 4.35877 -4.97328 3.39787 0.0140162
5 5
0 0 0 0 0
0.999913 0.0139114 1 1 1
