0.909091 1194 40 4 0
100
1.79875 0.382386 -0.219351 0.239438 0.187272 0.0811452 0.149236 0.146071 -0.157705 -0.0627109 0.231353 0.374145 0.336744 0.122445 -0.189872 0.184985 -0.0518669 -0.193491 0.317152 0.182593 0.211833 0.158843 -0.459135 -0.382657 0.254945 0.277835 0.215126 -0.301187 0.340851 0.0859966 0.0583207 -0.174301 0.146795 -0.341911 0.276058 0.0456472 0.0694584 -0.0901568 -0.306944 0.201757 -0.0943329 0.192069 -0.067937 -0.117336 0.0986579 -0.181411 0.158836 -0.396184 0.341387 -0.543286 0.404277 0.695682 0.384345 -0.455543 0.392365 0.141254 -0.221348 0.207113 -0.0142562 -0.134268 0.21765 0.0906783 -0.101713 0.0651568 -1.10176 0.518003 0.456576 0.30899 0.154604 0.122071 0.24701 0.197476 -0.330364 0.133268 0.0627028 -0.204804 0.22823 0.0636503 0.138103 -0.0383424 -0.889768 0.48885 0.156115 0.0660783 -0.158822 -0.0695053 0.177686 0.0409942 0.422793 0.299602 0.154471 0.0210491 -0.446612 0.0355124 -0.0659836 0.149224 -0.288287 0.134954 -0.0614853 0.0619896
-4.06699
-1.3361 0.20686 -0.758504 4.66595 -1.36242
-1.17527
1.7408 0.574666 -0.798123 1.01844 0.508522
-4.07097
5.7047 -0.0834681 -1.00611 1.85541 0.874572
0.302757
-1.08835 0.449075 -0.523864 -0.639372 -4.15172
-0.0970911
-0.160852 -1.17728 3.92527 -1.9604 1.42298
-0.866588
1.3513 0.449657 0.499618 1.59176 -3.74057
1.4177
-2.32047 -0.553082 2.58504 -3.12284 -0.819659
1.72975
-2.31788 -1.37345 1.47047 1.27575 2.46001
-1.16057
1.54154 -1.12806 0.545451 3.6344 1.89701
-4.20375
5.91058 -4.08042 -0.257558 1.55748 -1.20534
-0.0557647
-0.251905 -2.07828 -1.30697 -0.0169789 -2.00805
1.36963
-2.34877 2.67126 0.891967 1.10812 -0.15446
-0.0179035
0.65717 -1.42094 0.251245 -1.44979 1.06399
-0.160269
0.211429 -3.49431 -0.0566625 0.448547 0.726145
1.94888
-2.70754 -0.502806 -0.0892634 -2.40475 -2.81321
-0.388855
0.910592 0.397555 -2.79616 1.36525 2.13886
-0.903446
0.358411 -0.736055 5.44115 -2.09242 -1.9761
2.26639
-3.32705 -0.487612 -3.99165 -2.01662 3.10984
-0.273242
-0.48062 -2.14679 1.86319 -4.7477 -1.57875
2.38455
-3.46799 4.07839 -2.50307 -4.30513 -5.0315
1.11669
-1.44922 -1.53313 0.603054 0.918134 -2.57588
-0.337347
0.129983 -0.926161 -0.323569 0.316729 1.48445
0.339633
-0.326738 0.962984 -2.74355 0.64659 5.89504
-1.45033
1.95709 -4.35151 3.10043 -4.2452 -0.162047
-1.23772
1.18797 -1.29707 0.609873 -2.20697 -2.55577
1.04599
-1.31556 -1.39993 -0.186685 1.18284 0.965332
0.475886
-1.25297 -2.88763 1.88983 -0.189989 1.37664
-0.222874
0.447566 -2.37077 0.930246 -0.305335 1.70226
1.17375
-1.03463 -3.38127 1.33034 -2.26451 1.75101
0.778857
-1.61124 -0.994567 1.73062 -7.38816 0.417851
-0.907453
1.354 2.97122 -4.23345 -1.75634 0.74263
-0.290603
0.263879 0.169505 0.623396 4.17322 2.60041
0.456927
-0.8318 -1.5246 -1.58676 0.863313 3.13756
-0.152962
0.557833 -0.395219 -3.12737 5.3387 -3.33945
-0.933638
1.82749 -3.33994 1.68572 4.14621 1.68381
-0.152832
-0.108196 0.755562 -0.393251 1.15856 -2.04444
-1.08176
1.53334 0.684986 -1.96875 -0.114139 -0.208398
-0.205514
0.432587 2.21718 -2.97686 -2.20707 2.48784
2.54881
-2.90937 -3.36268 -4.93135 7.02467 -3.49999
1.17391
-1.61193 -1.81918 1.46968 6.49505 -0.160926
3.21444
-4.87912 -1.22181 0.126521 -1.55154 0.247333
-0.859253
0.875704 1.49377 -3.22037 2.33356 1.96781
0.366957
-0.46858 1.23136 -1.56759 -2.1322 -1.54881
2.07125
-3.05769 0.440854 -0.885886 2.88037 1.22826
0.933404
-1.63041 -2.70411 2.20441 -2.80188 0.0243205
-0.487386
0.449915 0.675479 1.00227 -1.09319 -0.584743
0.955998
-1.55952 0.62812 -2.44518 0.53664 -2.72813
-0.0888776
0.12637 -1.94913 1.34259 3.53144 -1.38338
-1.84737
3.45012 0.697866 -2.98084 0.673884 0.685554
-0.539719
0.838991 -6.13199 0.0358978 4.8912 -3.86109
-1.83884
1.34293 0.0939005 -0.691506 -1.24774 3.93371
1.74376
-1.94061 0.133292 -4.48274 -2.18976 2.20371
-2.41303
2.063 -3.68427 4.99758 -5.80024 -2.84876
0.426963
-0.594762 -2.24155 1.26016 1.95025 -0.826744
1.58247
-1.28853 0.528571 -4.15814 0.734956 1.24772
1.71303
-2.80735 -2.18492 0.729202 -4.47375 1.79866
-0.560107
0.739209 -0.648326 0.641204 1.04896 -6.0772
-0.268164
-0.185077 -0.479166 0.454084 -0.919307 -1.43763
1.04434
-1.8485 1.98071 1.67664 -1.7364 0.842863
-1.78486
2.98083 0.491755 -5.04243 0.272756 3.88391
0.566513
-0.238886 -2.10765 -1.65583 -1.16731 3.39177
0.308334
-0.607394 -2.06829 -0.240475 -1.67532 2.47018
0.386056
-0.770333 -0.619309 1.51832 0.599782 -0.00410702
-2.05169
2.51855 -2.04186 1.77732 -0.469149 0.681248
-2.48561
3.93303 -1.45664 -4.99497 1.4562 1.52461
0.695469
-1.94675 -1.80235 0.132786 6.11888 -7.40607
0.892428
-0.486626 -0.0540933 -3.27407 3.20597 -3.46441
0.173154
-0.643213 -0.852234 -1.9951 -0.435757 -2.98973
-0.517748
0.82246 1.5934 -1.29692 -1.37795 -3.36312
-1.75821
2.51115 0.661423 -3.35942 -1.3879 1.59018
0.311377
-0.169864 -0.371506 -1.39347 1.53637 -0.911444
-0.155806
0.055276 -1.80411 -1.77619 1.72459 -3.24731
-1.44463
1.81706 0.358942 0.811437 3.10467 2.55966
-2.11389
1.98005 0.484718 1.60984 4.73118 2.31308
-1.07953
1.06148 0.373459 0.0506129 0.784199 3.24971
0.663376
-0.809969 -0.754205 -2.16543 -1.74534 0.972546
-0.770734
0.762781 -0.365482 -2.13028 0.587804 -2.41194
-2.11532
2.98571 -0.150467 -0.0405965 0.219277 -0.305029
1.21868
-1.23276 -2.10242 -3.99865 -0.635976 3.97667
1.17743
-1.57309 0.433223 -1.7091 -1.84795 -0.867983
-1.16426
1.69407 -4.75132 0.793184 -3.13603 1.46864
-0.839001
-0.118519 -0.0383301 -0.22363 -0.325217 -0.807687
-1.05242
1.81119 -0.808804 -0.811289 -1.89967 -1.45406
-1.62981
2.24401 -1.59658 -0.411356 4.30884 1.0076
0.645793
-0.923768 0.156759 -0.205754 -1.44929 -3.95173
-1.70308
2.25557 -2.89588 1.34739 0.670561 -0.66891
-0.417677
0.540132 0.284454 -2.83966 -0.848189 -1.45538
-0.535191
1.11375 -3.29536 0.231486 -5.01462 1.56823
2.42748
-2.84193 -1.39123 -3.75216 -0.148899 0.899265
-0.0279249
-0.528642 -0.981129 -1.94203 1.10327 1.02192
-1.1551
1.62687 -2.3151 2.0673 2.06737 -1.79289
-0.261632
0.23335 -0.310457 0.0200681 -1.85679 1.12764
-0.552297
0.877571 -0.590381 -0.746378 -2.21801 -2.37304
0.597489
-0.344858 -3.19081 -2.05049 -0.679394 1.98118
0.260308
0.231743 -5.51114 -2.14427 -1.41799 -1.2292
-2.99673
4.617 -3.91651 -0.146723 2.99689 2.20873
-0.183073
0.540797 -3.49384 -1.55164 -0.818452 2.14956
-1.36624
2.00435 -2.20996 0.14118 -0.0887188 1.64087
-0.637714
0.794137 1.62543 -1.27845 0.111484 -5.45598
-1.73425
2.13856 -2.14531 1.17795 -2.2823 1.45438
5 5
-0.650459 0 0 0.004387 0
1.01289 0.966345 4.03379 282.079 0.137115
