0.983333 2167 59 1 3
100
1.7982 0.467299 0.285975 -0.479592 0.345696 0.453254 0.282863 -0.133674 0.0428586 0.0820217 0.0220769 0.635311 0.377933 -0.0247719 -0.601349 0.255472 -1.56201 0.330471 0.437704 0.300373 0.263743 0.314057 0.0968376 0.549665 0.382466 -0.118098 0.2 0.137732 -0.235526 -0.0129774 0.0430965 -0.0388332 0.0746052 0.045325 0.0587194 -0.0781306 0.122003 0.0783217 0.0330735 0.0415726 0.178962 0.203875 0.0897239 -0.133135 0.102061 -0.100189 0.125169 0.134614 0.26246 0.104002 -0.538476 0.35179 -0.126963 0.30428 0.16704 0.0374144 -0.0960606 0.115131 -0.2118 0.0928058 0.0297546 -0.114898 0.041099 -0.0542057 0.0641611 0.215625 0.138819 -0.0844027 0.0603471 -0.325164 0.0327643 0.00845413 -0.00906385 0.0241462 -0.0198142 0.0329781 0.00229482 -0.0943848 -0.0365061 0.0401014 -0.0755707 -0.303627 0.239805 -0.165616 0.0219336 0.291525 0.123218 -0.146213 0.142156 -0.0698466 0.035359 0.0247563 -0.0534365 0.0669326 -0.0662351 0.0457917 -0.222922 0.160989 0.0487607 0.0184353
-3.81639
0.423606 0.993113 -1.45026 -1.31264 0.613437
0.30215
-2.35849 -1.26079 -2.51267 -2.31583 -0.0952086
-0.753228
-1.85786 -0.629727 3.37517 -0.60868 4.66879
0.0452951
-1.56556 -2.96842 -1.11678 -3.92278 2.99413
-0.446347
-1.45258 -2.62574 -1.69899 2.39065 -2.59063
0.116629
-2.49128 -2.22858 0.9135 0.0973905 2.35554
-0.651244
0.107187 1.31293 -1.02508 -0.897712 3.33971
-0.184692
1.00388 1.01476 0.800061 -0.635335 1.05886
-0.464312
0.447861 -4.07423 4.16373 1.61283 0.74322
-0.175743
-1.33659 4.12351 0.115615 -1.73804 -1.11352
-0.0229169
-0.777683 -2.33838 0.809887 3.37692 0.0717173
0.0827763
-2.69431 0.435343 2.3868 0.208106 -3.49971
-0.534263
-4.54929 -1.29808 -1.15077 -0.256671 2.66958
-0.0586002
1.667 0.350198 -0.34793 2.26246 -2.16578
-0.0255127
1.39162 -2.67507 -0.917136 -1.58693 -0.351937
-0.494327
-0.488491 0.398166 0.184288 1.33115 -0.482077
0.0146058
1.49013 -8.70533 -2.21093 2.76232 4.68644
-0.160975
1.05365 2.0467 -5.76102 -2.20837 -3.2454
0.366453
-0.556085 -1.37193 -2.37333 3.73936 -0.412213
-0.56321
0.416242 -0.665697 -0.758117 -1.43325 0.151921
0.0211406
-2.11605 1.68195 1.66764 0.0915962 -1.71151
0.424763
-1.47662 -0.616829 -0.368612 1.03613 -0.29773
0.0531053
-0.70889 -1.98103 -4.66092 1.56635 -2.49716
0.101776
-1.5269 -1.35496 -0.0835245 0.659014 -4.45407
-0.592666
-0.707052 -2.72616 -2.59385 0.956365 -1.45634
0.10595
-0.770731 3.94687 -2.87838 0.229891 -0.471402
0.182873
-3.35749 0.413553 1.60026 -3.93189 0.208894
-0.112005
-1.44601 -1.03477 -2.25521 1.25583 -0.48053
0.0986088
-0.934573 5.44416 -3.67894 -0.995779 3.28774
0.00537464
-1.7424 1.61973 -2.70953 2.74249 1.69794
-0.213397
-1.20897 -1.76582 2.17287 1.54344 3.0074
0.0272846
-1.29708 5.17787 -2.73242 -2.92882 0.660755
0.18718
-3.25085 -0.404435 -5.61535 -1.33524 -2.31528
-0.057534
2.05625 -3.63378 -2.52007 0.899833 -1.04898
0.0462485
2.24126 -3.46809 -3.22147 -2.14687 -0.0837215
-0.270835
3.23023 -0.688681 0.0603764 3.26846 -0.180132
-0.070335
-2.13428 -4.3495 -1.42739 -0.495068 -1.30129
0.10839
-2.44722 -0.706053 -0.000626444 0.645302 2.03125
0.00517822
-0.703593 2.70121 -1.57699 -1.9969 -0.915223
-0.0594299
3.43511 1.68749 -2.71599 -0.372575 -3.81661
-0.0636858
-3.33171 5.03962 5.45347 2.6422 3.31125
0.378089
-3.90348 -3.68032 0.6304 -1.32119 -0.921382
-0.12079
1.08292 0.225743 -2.82681 -0.589217 -1.67313
-0.0196923
2.12901 -2.15403 -1.29424 4.44554 -4.69763
0.161855
0.216513 -0.0606683 -1.12275 -0.921302 -1.10981
0.0100939
0.144136 1.56542 -3.8972 2.50013 3.52287
-0.0507986
-3.96935 -2.73786 -0.577844 1.36695 0.105721
-0.00050167
-0.0306998 1.48861 -0.199872 -1.14036 -0.475229
-0.147194
5.6212 -2.41425 4.95614 -2.43335 -0.0130122
-0.231205
0.141756 -0.546395 -0.555012 0.349689 1.98423
0.00701399
1.51824 -1.79644 -2.59792 1.51734 0.383868
-0.637427
-1.10654 -0.304546 -0.588589 1.13116 2.45553
0.0205766
0.680397 0.885138 -1.7256 3.24812 -0.655879
0.315518
-4.69343 -1.67977 -0.663339 1.68237 -1.73402
-0.582472
-1.61434 2.7035 4.71419 3.30644 -1.30319
-0.0886013
-2.65424 1.86019 1.56373 -1.78184 0.860302
-0.145717
2.9266 -1.02142 -1.90274 -1.2787 1.74973
-0.0314386
-1.5739 1.82557 -3.1847 -1.11498 -1.80135
-0.0450012
3.12992 0.246551 -3.39644 1.88646 1.07644
-0.271099
-1.47774 0.532046 2.09702 4.40761 -0.279835
-0.0119265
-2.24819 1.78514 1.06712 -1.49345 -1.10475
0.203617
-3.81666 -3.95465 -0.749579 -0.620627 2.99467
0.0443352
-1.71369 -1.43175 2.31591 -0.384075 2.31811
-0.00106495
2.39509 1.78047 -3.99399 -0.655058 -1.08926
-0.0912914
1.32431 -2.5861 -1.76467 -2.14433 -0.599095
0.206685
-3.13089 -3.30567 -1.03893 2.48592 1.00627
-0.0829102
-2.05391 0.441761 -2.94093 0.387083 -1.08282
-0.0252821
0.195086 -2.10418 1.03123 -0.396544 -0.32503
0.0739842
0.402585 0.527836 -0.730571 1.20336 -0.8984
0.0884548
0.364945 -3.94023 -3.79952 -7.72765 -0.251977
-0.312203
1.58497 0.584318 0.276829 -2.52713 3.36682
-0.15911
-0.53047 4.30566 -0.142946 -0.593608 1.15018
0.0818123
-3.23549 3.80206 -1.03587 -2.06442 -4.0567
-0.036034
-3.17822 0.813129 0.837273 3.07268 2.2512
-0.102281
0.573473 -4.98248 1.35238 -1.32459 -0.848642
0.0242204
-5.72176 -2.30402 4.15511 0.168673 1.24637
-0.031832
0.539128 -3.4773 -0.127904 -4.08798 -0.496647
0.223582
-4.08923 0.0298677 -2.93552 0.0779055 5.48994
-0.0602811
-0.616524 -0.759691 1.80172 -0.985867 -2.26116
-0.0547342
-0.0295756 2.1579 -2.14146 -3.17891 0.433318
0.0219283
-0.378925 -2.22768 0.0535778 -0.987484 -1.34602
-0.294772
3.28519 1.66053 2.41622 -4.94442 1.79838
-0.418314
1.95059 -3.35255 -3.89202 -0.218936 3.07116
-0.0583504
0.547388 -1.38468 1.27618 -1.34079 -0.428477
-0.24235
-0.446629 1.66647 2.56369 -0.451769 1.19803
0.191351
-6.34487 -3.26058 0.0513046 -3.9921 -6.06118
0.258869
1.03988 -5.25703 -3.12167 2.26195 -0.742861
-0.150603
3.87083 -6.22578 -1.12049 0.26306 -1.05215
-0.361205
0.201777 0.96143 1.42532 1.00141 -4.52538
-0.0489982
0.196779 -0.884349 1.08059 -1.49369 -4.04989
-0.322843
-1.15648 -3.64714 7.22936 -2.18508 -0.221065
-0.109351
0.389926 -3.23662 0.310675 -1.22105 2.58703
0.0155025
1.21429 0.574234 -4.17469 4.91335 1.01547
-0.118764
1.99999 2.8572 -4.0959 0.818644 -1.63316
-0.2049
3.81548 0.758213 0.215773 -0.527308 3.5282
0.00203037
-1.69018 -0.803925 -0.830828 2.11674 -2.33569
0.0808169
-1.11428 1.13816 -1.27776 -3.12251 -1.64551
0.18336
-1.80577 5.69946 -2.19952 -1.67905 -0.259985
-0.376966
2.99973 2.28914 0.865909 -1.24342 -3.08653
-0.147251
2.89566 3.42591 -3.72873 1.17698 -2.0541
5 5
0 0 0 0 0
0.999913 0.0139114 1 1 1
