0.983333
100
1.7982 0.926539 0.449664 0.56286 0.351596 0.526055 0.286637 -0.162896 0.0727584 -0.129499 0.223861 0.390083 0.278098 -0.358834 0.339964 0.177918 0.124963 0.236579 0.16557 -0.18691 0.0136477 0.0802611 -0.312979 -0.0366381 0.125976 0.983341 0.459946 -0.119878 0.132003 -0.438397 0.216398 0.352325 0.168655 -0.243541 0.140171 -0.204228 0.0919919 0.325738 0.0959086 -0.173241 0.167315 -0.553943 0.357056 -0.150922 -0.0277677 0.29516 0.105925 -0.219905 0.551134 0.337797 0.195333 0.0799216 -0.0317549 0.221008 0.238055 0.114315 -0.135667 0.158923 -0.541517 0.00576987 0.266381 0.149325 0.426694 0.24703 -0.17956 -0.572324 0.376153 0.254622 0.200292 -0.132095 0.167782 -0.165516 0.22369 0.00030618 -0.0587919 -0.0880163 0.0928011 0.0245481 0.00055284 -0.00180651 -0.0892306 0.0327968 0.0857113 -0.0804487 -0.212724 0.150383 0.0989984 -0.32367 -0.330065 0.284607 0.0397217 -0.620994 0.396407 0.305001 -0.0219024 0.00871559 0.0588416 0.016893 -0.0627645 -0.0270667
-2.67352
-0.340384 3.30171 -2.05593 -0.211995 -5.99407
1.80798
-3.46379 -3.98701 0.905734 -0.0196311 -7.75797
-0.218892
0.909458 -1.12733 -0.840004 -2.05176 -3.04479
0.828397
-4.24194 -3.74308 0.0183401 0.562194 -3.30543
-0.023449
-1.26328 0.468202 -1.60087 -0.139378 -2.96887
0.819151
-2.75733 0.574322 -2.17011 -2.76425 -2.94906
-0.96654
-0.340835 0.74513 4.39872 1.07687 -2.88442
0.14886
-0.0383503 3.83362 -0.960785 -0.0486936 -1.64533
0.216615
-1.39612 1.00813 -1.73388 1.55453 -2.89881
0.239752
-1.07518 0.614849 -1.94711 -0.554533 -1.39818
-0.329052
-2.60318 0.275243 2.00968 -0.598751 -2.57657
0.336639
0.152205 0.763351 0.196145 -5.31182 -3.51524
-0.381534
3.34968 -5.01239 -1.32362 -3.02238 -0.789439
0.513069
0.389212 -2.63126 -3.33298 0.391648 -0.507765
0.418867
0.822944 1.41822 -2.43313 0.572598 -0.980184
-0.402962
1.38498 -2.19264 3.53232 -2.79491 -5.86865
0.0401502
-0.433927 3.15866 1.48511 -0.399152 -3.62207
0.0519599
1.86469 2.0589 0.957351 -0.207763 -2.79486
0.039246
0.564215 -2.89425 -0.6562 -1.60852 -3.17503
-0.1765
4.4478 0.778292 0.52183 -2.00112 -0.977386
-0.25743
0.882097 -2.24318 2.6542 1.34419 -1.3156
-0.0185793
2.11328 0.493052 0.384514 -0.315291 -1.42114
0.516535
1.77108 0.405805 -1.48065 0.22692 -5.35949
0.325059
-2.17612 -0.737823 -2.33816 -0.962073 -0.946073
-0.172885
1.70205 0.576986 -0.169493 -1.68797 -1.33544
0.130583
-7.99938 1.31629 2.67456 -3.20403 -1.61365
-0.482586
-5.29584 -0.693623 0.524149 -3.56066 -4.18399
0.0124038
1.36851 1.26578 -0.390207 -1.71054 -0.275505
0.325544
3.80296 1.44364 -1.99019 0.0871475 -0.698174
0.300959
-4.34904 -3.00748 -2.03103 -0.982155 0.666557
-0.11156
-0.3151 0.825287 -2.40168 0.185573 -0.102111
0.0587753
-2.23047 2.74463 1.43767 -2.99072 -2.22405
-0.036883
1.83047 2.7726 -2.47419 2.67903 -1.37851
0.135328
-3.59405 -1.86824 1.47172 -0.336607 -2.13272
0.353014
-2.71399 -3.76889 -1.14664 -0.281756 -0.226373
0.557848
-0.061999 -2.97924 -3.02548 -1.20961 -3.05121
-0.0592816
-1.08121 1.44664 -0.37314 0.0415048 -0.597812
0.374021
-3.33867 -0.343762 -0.402266 -2.92057 -2.24285
-0.00734705
1.52652 -1.13249 -0.726941 1.22743 -1.9811
0.40899
-1.7191 0.696086 -0.895928 -0.708015 -3.2293
0.422071
-2.5392 1.92185 -3.10358 0.57299 0.831706
0.0260473
1.59716 1.25064 0.0752967 -0.241197 -1.83996
-0.672024
5.43268 -6.20095 -1.23932 1.46364 -0.763919
0.260142
-2.30373 -2.66255 -0.989427 -3.19921 -0.228291
0.59624
1.80771 -2.08773 -3.59096 0.0765241 -2.15944
0.485223
-1.10847 1.82933 -2.31109 -4.38788 -1.60916
-0.143474
-0.606049 2.73184 -0.0697714 -0.243709 -0.767311
0.243108
0.954937 -1.00105 -3.56719 0.0303034 2.06359
0.0800176
-5.11207 0.999013 2.03357 -3.75538 -1.64068
-0.721969
0.0837824 4.44274 -1.17896 -3.90813 1.72965
-0.212915
1.35133 3.18546 0.178447 -5.70123 1.2053
0.164702
-3.4825 -0.438939 1.35713 -0.263127 -0.89441
0.190694
3.6185 1.19858 -2.78494 -1.05744 -0.388836
0.0444668
-2.12104 -0.40541 -0.563456 -5.81602 0.984823
0.201401
-1.63423 -0.128076 -0.530107 -0.046973 -0.260279
0.203252
-6.67681 0.586809 -2.87668 5.60449 -0.148666
-0.292553
3.80959 -2.9562 0.824207 -0.238678 -0.256031
-0.438275
2.95541 2.7708 -1.01325 -1.52604 0.980053
0.252248
-1.26907 -2.84453 -0.0225344 -0.123906 -2.90385
0.0562035
1.95934 -0.796933 -0.193631 -0.276395 -2.8029
0.270347
-2.9335 -0.777081 -1.9154 -1.62679 -0.560408
-0.137265
-2.56869 -1.14245 2.93675 -0.753814 -1.78797
0.0342863
-9.07753 -1.42561 3.38673 -1.21936 -0.761143
-0.401897
-3.76313 -0.488887 0.83795 -0.163228 -0.66828
-0.0784588
3.15328 0.872959 0.0841682 0.214511 -0.737835
0.088592
0.75843 -1.55118 -0.334295 -2.95516 -1.32162
-0.220798
-2.65393 2.86316 -0.44419 -1.94184 -4.74331
0.0697903
-1.15156 0.0713465 0.783161 -3.81181 -1.26556
-0.261543
1.31833 0.814664 -1.15356 1.84674 -0.674141
-0.117659
3.43737 0.193687 0.935494 -5.67969 -1.54306
0.179584
0.134371 -0.286133 -0.427635 1.08314 -1.26614
0.158623
-0.710156 1.41633 -2.80636 0.258952 0.213144
-0.249707
-3.2121 -2.574 -0.134364 -2.46781 -0.178943
-0.18343
5.26515 3.81979 1.16879 -1.22107 -2.56723
0.314037
-0.946978 -1.49925 -2.60196 -2.83427 0.934224
0.0517195
1.50434 -1.34393 -0.493005 -4.45143 -0.130838
0.0929182
0.487138 -0.950957 1.08196 -4.51326 -1.15075
0.342988
-4.25457 0.0148653 -2.16744 -0.0463669 0.57112
0.612614
-2.52163 -3.38492 -4.15859 0.272135 0.0240884
0.510048
-1.16037 5.25162 -3.10289 1.02979 -2.32655
0.101686
5.81567 2.01404 -3.14678 0.823882 0.0879584
0.409993
-2.35567 1.90856 -1.49529 -0.392522 -2.91446
0.219593
-2.80929 1.59354 -0.910351 -0.357366 -0.881533
0.238002
-0.144514 -2.97587 -1.6103 -2.63791 0.0689551
0.245398
0.179604 -3.1103 0.422204 0.530315 -3.54273
0.171643
0.261573 2.15389 -0.585493 -2.62156 -0.694007
-0.0071466
3.61198 -1.59852 -2.73004 -1.00847 0.425879
-0.270743
5.23521 -4.68563 2.4074 -0.995247 -2.40897
0.0675088
1.79604 -1.8517 -2.00932 -3.49223 0.659321
-0.5234
0.322583 0.285716 1.37588 -0.514552 -2.83429
0.0533183
2.41189 0.408794 -0.65873 -1.62301 -0.571557
0.222109
2.484 -1.85568 -0.854846 -2.09464 -2.97944
-0.0603786
-1.08956 -3.65886 -4.13207 0.173389 -0.103193
0.563973
-3.67871 -2.78608 -2.06775 -0.0272433 -0.426923
0.426856
-1.01062 -2.42549 -2.5625 0.00282667 -1.66777
0.688309
-5.27693 -1.68275 -3.68942 0.209479 -1.18472
0.0514097
-0.900184 -4.18508 -0.652893 -2.15215 -0.193424
0.265371
-0.11552 2.04134 -2.0455 -2.07039 -0.412664
0.489135
-1.68029 -0.296937 -3.36509 0.161719 0.178235
0.318772
-0.449753 -2.80915 -0.476917 -0.265829 -2.83821
