0.953368 10538 276 27 0
100
1.8021 0.259663 0.17416 -0.112902 0.133195 0.0332531 -0.74761 0.276861 0.398345 0.280654 -0.151871 0.370086 0.200026 -0.617188 0.305085 0.149373 -0.300073 0.162101 0.271659 0.108292 0.0843284 0.0493413 -0.145048 0.13951 -0.139298 0.296832 0.149651 -0.136801 -0.00371816 0.111288 -0.400346 0.260821 0.222517 0.0927221 0.0202667 0.0790831 0.0988793 0.0860038 -0.340381 0.0433214 0.128061 0.041016 -0.0409267 0.0955325 0.0796742 -0.05363 0.182896 0.14957 -0.0935146 0.112812 0.0129411 -0.801024 0.359629 0.211986 0.173055 0.108356 0.122412 0.172912 -0.0626416 0.109918 0.200802 0.0440095 0.12767 0.0779003 0.052252 0.0192362 -0.0779158 0.0849579 -0.142359 0.0643927 -0.0613132 0.0985812 -0.0408041 0.0120895 -0.0301554 0.0501584 0.0596342 0.043468 -0.071283 -0.38553 0.213591 0.0158473 0.0689405 -0.0991113 -0.167782 0.19987 0.106653 0.0114772 -0.0635987 0.102792 0.0485468 -0.0321715 -0.0277862 0.0735131 0.0397416 0.00273359 -0.0568424 -0.189991 0.118875 -0.134553
-2.98702
-1.1016 -1.2869 -0.0733333 3.0158 -3.29865
0.460102
-0.511644 -1.20931 -1.24646 -1.70394 -3.67509
-1.87619
2.25807 -1.53622 0.902805 0.0128042 2.00365
-0.612006
0.679409 1.25989 1.02918 2.89999 2.01886
2.40578
-4.15092 -2.88887 2.26987 -0.164122 -4.36573
-0.48876
0.89681 1.04707 -2.60554 0.648359 -0.173569
-0.126147
0.318646 -0.0502528 -2.7549 -1.98154 1.60508
-2.58168
3.52276 -1.65149 -4.9291 3.78991 -0.858674
0.0425277
0.141346 0.63642 -2.52023 -0.257738 -0.455221
-1.28064
1.40906 -1.58855 -4.01889 4.24573 2.08045
-0.211931
0.513579 -3.30348 -1.1472 1.2214 -0.354491
-1.68777
2.78205 0.178103 0.440126 -1.95189 -2.51366
0.186252
-0.675343 -1.55856 -1.61472 0.729569 -0.738662
-1.6939
2.52352 -0.543313 0.47933 1.18536 -3.62298
2.63275
-4.7393 -1.78107 -1.47006 0.528394 1.06212
2.21672
-3.47128 -2.09922 2.23715 -3.69688 -3.12078
2.30883
-3.66613 -1.0929 1.09686 1.17894 -2.32912
0.476911
-1.09054 -2.41185 0.273833 -1.19093 -2.00216
1.18732
-1.5977 -0.0794675 -2.34956 -3.84175 2.0902
-0.355947
-0.149704 0.0865967 1.17857 -0.857921 2.47926
-1.47215
2.29122 -0.637592 -3.48746 -2.20982 3.11052
1.44486
-1.98176 -1.4847 -2.068 -2.26807 -1.15293
-1.48053
2.15288 -0.573998 0.819885 -1.08579 -1.82999
-1.21014
1.47556 -2.10632 0.584553 0.71655 1.93225
-0.110307
0.360568 0.685532 -3.19784 0.572769 1.75509
-1.18429
1.91357 1.45183 -0.0858374 -0.289824 2.59473
1.48631
-2.86133 -0.312132 0.514646 -0.331308 -2.53875
0.354377
-0.539037 1.0816 -1.89373 -1.60563 0.214763
-1.04585
0.832531 1.11315 1.95452 -3.47469 -0.65048
-1.42887
1.6952 -1.67826 1.55465 2.51947 -0.739663
-0.821562
1.38278 1.09658 -3.15487 -0.228788 -2.70456
0.276208
-0.910247 -2.38375 -0.986007 -1.05719 -1.08009
-0.716591
1.50888 0.601596 -4.42994 -1.03361 3.60794
-3.26244
4.26025 -2.20897 2.77857 -2.85291 1.33867
0.422442
-0.614032 -1.64674 -2.99373 3.05051 5.78177
-0.959866
1.43952 0.894089 -2.77577 -1.67196 0.24297
-0.698626
1.19448 -1.31512 -0.483826 -2.89254 1.03566
0.552297
-0.954756 -2.2109 -0.56435 2.86254 2.94702
-0.997736
1.35557 -2.98579 3.2563 -2.57445 3.69414
-3.14566
4.13565 -0.83206 2.08547 3.17487 -0.877374
-1.05309
1.4462 0.0176421 -2.34105 -1.33024 1.25316
2.33848
-3.49348 -1.5374 0.132182 0.683682 0.246498
1.99801
-2.87079 -0.615166 -2.06529 -5.6848 -6.97219
-1.47508
2.602 -1.96834 -3.18664 -0.211647 -3.46199
-0.481565
0.581641 -1.39539 -0.270809 0.149848 2.78022
-1.44175
2.14259 -3.71662 3.11027 1.57444 -1.75076
0.157261
-0.261994 -0.964603 1.12122 -0.466795 -3.72351
-0.908116
1.18965 1.87137 -4.05298 1.6234 -1.78174
-1.15946
1.90049 1.64079 -2.43662 0.776553 -1.51452
0.337085
-0.28751 2.55226 -2.49285 1.51472 0.230047
3.33133
-5.15719 -1.89633 0.115107 -2.0989 -0.177998
-1.1306
1.89099 -4.21721 -1.88088 -2.27807 1.72635
-1.56703
3.30494 -0.852537 -4.2382 -0.232811 2.23059
0.156592
-0.632163 -1.07294 -0.92714 0.123687 -2.22014
-1.31446
2.28452 -2.39353 -0.617629 0.377891 1.61355
-1.67764
2.32501 -3.94761 0.0513162 -0.780989 2.235
1.8441
-2.63018 -2.33573 -1.60734 -0.430544 -0.63517
4.33219
-6.54712 -1.34033 -3.12192 -0.999812 1.2622
1.13984
-1.86801 -2.22201 1.03407 -0.65013 1.47795
-0.987758
1.34064 0.0986751 -1.75843 -1.26753 0.0756229
0.37944
-0.41214 -1.73459 -0.567511 2.0826 -4.11227
3.47921
-5.638 -0.37461 -2.4011 1.58526 0.78319
-1.09018
1.45917 -2.54857 -1.09866 -0.886149 0.822909
1.15143
-1.6221 -1.73066 -0.720807 -0.532535 -1.58378
-0.213689
0.324485 -2.36147 -0.94164 0.324983 0.5495
0.209122
-0.112053 -0.442681 -2.59328 1.19519 -0.422233
0.296055
-0.63251 0.867091 1.13869 -0.635567 0.674448
-0.609713
0.818295 1.92316 -2.96097 -2.72043 -1.52652
1.54151
-2.26308 -1.72595 -0.498909 1.87644 0.191965
0.215103
-0.242327 -2.25876 2.54903 2.83755 0.681414
1.14147
-1.82004 -3.44257 2.87694 -1.88011 -0.032494
-1.75434
2.97109 -0.351073 -2.23295 0.587706 2.89176
1.48589
-2.35949 1.44774 -2.31063 3.86635 1.85303
0.587899
-0.97495 -3.68566 -1.53259 2.47317 0.370804
-0.263306
-0.103695 3.5417 1.73496 0.369594 0.544388
1.09315
-2.06423 0.455167 0.142665 1.52989 1.9224
-0.440908
0.600236 -0.191498 -1.44732 -3.43862 2.49867
2.2444
-3.15328 0.651332 -4.41081 -1.54845 -1.03295
0.999476
-1.48278 -1.62248 -0.70458 1.68563 4.27939
-1.21851
2.01333 -1.94122 -2.26437 -0.686019 3.92482
0.534853
-0.413791 -1.57357 0.330859 -5.649 -0.372767
1.47197
-2.50246 1.46281 -1.16029 3.17185 -4.04309
-1.71855
2.71268 1.99965 -4.89638 -2.08602 0.84985
0.060841
-0.0658571 2.13487 -2.12418 2.07085 5.55331
-2.19597
3.01721 -0.51822 1.61125 1.09287 -0.0458095
0.791337
-1.72414 0.0187932 -1.29457 -1.52239 -1.65573
-0.202321
0.412621 -0.329854 -1.30186 -1.17695 0.246365
-1.49894
2.03857 0.496277 -0.294355 2.89865 -1.54296
-0.79596
0.732844 3.16461 2.75251 0.658318 0.231893
1.42615
-2.34905 -4.61245 -2.39011 -2.55247 -1.19007
1.19235
-1.63963 0.245373 -4.72656 2.10932 0.53227
1.06143
-1.99473 2.28398 4.17547 0.473078 -1.23721
-1.59366
2.32505 0.79781 -0.937302 -2.87641 0.280405
-1.06756
1.52534 -0.599674 -1.67878 4.17016 -1.02173
1.40108
-2.13161 1.0237 -1.08815 4.00945 -0.819753
1.8332
-2.57982 1.09283 -4.34261 -0.990853 -0.437315
-1.21506
1.80772 -0.185323 1.04206 -3.27734 -1.75631
0.670324
-0.964874 -2.67806 -0.310787 -1.93084 3.6871
-0.0957163
0.453789 -0.195423 -1.37911 -3.44244 4.21943
-1.96751
2.82583 0.216781 0.557762 2.45068 3.09831
5 5
-0.50842 0 0 0.002806 0
0.838937 0.767121 3.1523 1551.27 0.151636
