0.982759 10721 285 9 1
100
1.80574 0.585334 0.134419 -0.39498 -0.102547 -0.276975 0.279296 0.314881 0.237628 -0.24222 0.108018 0.0938218 0.272389 0.188222 0.0772118 -0.841276 0.34048 0.0858163 -0.163372 0.17664 -0.097878 0.22365 0.0247382 0.120276 0.47627 0.316266 -0.367396 0.348244 0.0694663 0.130529 -0.253719 0.209574 -0.148509 0.0552218 0.201526 0.170634 -0.00425126 0.0392608 -0.0432714 0.0140003 0.0763523 -0.123669 -0.209707 0.369394 0.153713 0.0801471 -0.173945 0.198921 0.0399781 0.197564 0.143944 0.148623 0.119021 0.124266 0.462412 0.276553 0.281874 0.142399 -0.645938 0.280741 0.111932 -0.24903 0.0553147 0.0320498 -0.348678 0.263032 -0.346237 0.271023 0.445419 0.277919 0.27157 0.0721568 -0.000986191 0.0285198 -0.0979788 0.14644 -0.37312 0.270023 -0.722717 0.178919 0.159579 -0.208038 0.262961 0.231651 0.200257 -0.0952904 0.0785428 0.0355806 -0.056382 -0.391988 0.149966 0.0656047 -0.11905 0.194796 0.0885505 -0.190703 0.203378 0.0835747 -0.0611954 -0.0156462
-0.831244
-3.77484 0.137508 -3.19077 -3.20658 2.4749
-1.09231
1.44315 0.326825 0.265942 0.856969 -0.275321
1.07644
-1.62422 -2.41506 0.306948 0.259033 1.22982
2.29109
-3.21832 -3.39187 4.31089 -3.02991 -1.29712
0.981135
-1.39224 -1.51211 1.50332 4.16635 -0.555581
0.670607
-0.717867 1.08586 -4.12108 -1.9654 -2.2941
-1.50525
1.60339 -2.47553 -0.292789 -0.364818 -1.76402
0.95797
-0.571852 -2.91629 -3.52399 1.56429 -1.20563
-0.758967
0.32212 -1.29622 1.41395 0.797522 -0.0593184
0.21787
-0.545421 -0.928724 2.61408 2.98983 1.07043
0.991151
-2.11127 0.742689 1.92727 -2.76071 -3.71193
-0.90305
1.00213 0.511738 -0.968555 -3.26588 0.533246
0.910693
-1.22473 -0.156038 -0.0598692 -3.64313 0.243115
0.745224
-0.50793 -2.39059 -0.768574 -0.926578 -2.59825
-0.547419
0.558048 -1.1965 0.146034 -2.6753 2.95209
-0.102573
0.289443 -0.261024 -1.92734 1.52519 -1.06446
2.25544
-4.28725 -3.26235 4.06523 4.0864 3.1845
0.155549
0.0801575 -0.0919823 -3.23975 -0.969316 -1.23969
-1.17696
1.31959 1.25588 -0.745976 7.02032 2.10536
0.820979
-1.35463 -0.931248 -0.880043 0.369798 -2.74617
-1.64111
2.81645 0.851329 -6.85936 0.369891 3.60641
-0.11902
0.646582 -0.933874 -2.48967 4.66406 0.901661
-0.541983
0.117825 -0.818483 2.12472 0.170191 2.05801
-1.15673
1.34443 1.80415 -2.36075 0.870585 -4.97216
0.197981
0.162375 1.02216 -4.85863 -0.0840657 -0.339023
0.149346
-1.07097 0.454874 0.0714395 0.68725 -5.1513
-2.37999
3.25711 -2.54602 1.197 -0.648392 -2.3292
-0.0590628
0.0594284 1.28294 1.17952 1.28824 -2.65347
-0.888527
0.341528 1.27091 1.59031 -0.168256 -1.15579
-1.5129
1.75283 -1.77087 0.162145 2.75242 2.03947
-2.23967
2.63112 1.56612 1.80115 6.30525 -3.55718
-0.424749
0.289286 -0.971535 -2.29761 1.51038 -3.0563
-0.247861
-0.0449371 0.630886 3.27201 -0.0241601 0.748333
0.337056
-0.933511 0.544684 0.774157 -2.34984 3.07034
1.42844
-2.48529 2.97134 2.06885 0.803157 -4.11159
0.247694
0.0746853 -3.26664 0.0610437 2.93969 2.19333
-1.39229
1.47314 3.23932 -1.14088 1.00198 3.35402
-1.05046
1.25443 -3.43925 1.34504 -2.03063 3.06532
-1.42274
1.76741 -1.15078 0.784466 2.19555 -1.06466
-3.4948
4.45524 -0.238851 -0.33617 -0.441372 1.87211
1.08048
-1.55468 0.132913 -1.03617 0.760009 -2.81442
-3.41055
4.50056 0.218576 0.103663 2.94059 1.51835
-0.365531
0.853062 -2.65088 -1.91724 -2.61448 0.537733
-0.738597
0.928759 2.09081 3.17789 1.95779 -1.0461
-0.01381
-0.127981 -0.812617 -2.1832 1.95673 1.70806
0.236738
-0.0941023 -0.55711 -1.94809 -0.616842 2.06445
-3.16126
4.46114 2.29327 -5.72942 -0.690043 -1.13032
-0.964254
0.814655 -4.68765 3.28432 -2.03375 -4.53573
2.13033
-3.17493 0.156537 3.2314 -5.82933 -2.3098
1.09896
-1.27203 -0.658512 -0.854428 5.07757 0.538391
0.375285
-0.576907 -2.74711 -1.02018 -0.466329 -7.6134
0.768377
-0.820511 -1.00899 -1.18611 -1.27797 -0.547463
-0.912376
0.985149 -2.39978 0.340708 2.39823 0.761485
0.48793
-0.609172 3.52442 -3.17977 0.409089 -1.58935
4.49174
-5.85196 -1.01984 0.493051 -0.431815 1.40419
-0.603097
0.290432 -1.51655 -0.992223 -5.48038 -1.42203
-0.174632
0.514643 2.25447 -4.66325 -0.328982 0.243573
1.54668
-2.32558 0.724629 -1.90676 -0.713064 -1.61542
1.19436
-1.1568 -5.02968 -2.79154 -0.230427 1.39536
1.51464
-1.41772 -2.53974 -0.404954 2.54648 1.62099
0.527669
-0.835289 -0.268854 -1.16019 -0.400902 -3.34802
3.08819
-4.20125 0.245357 0.790598 -2.24687 -1.10696
0.200498
-0.770909 2.27193 -0.364363 0.097878 1.24219
0.966537
-1.57245 -0.188932 0.87338 -2.97589 -1.40616
1.41627
-1.63243 0.0386829 -4.73253 2.4503 0.920722
-0.774094
0.39364 1.69373 -2.94336 0.985672 2.41802
0.552419
-0.579998 -0.0677322 -2.41252 0.136569 1.09462
0.43617
-0.863134 -2.14697 -2.15904 -1.58725 -2.92507
2.69589
-3.35721 -1.77772 -0.866305 -4.37896 2.45664
-0.128039
-0.613272 -0.612635 0.515445 1.39105 0.690281
2.78934
-3.20812 -2.15992 -3.94236 1.45671 -2.23295
2.89721
-4.07996 -1.809 -0.909675 0.413374 0.657077
-0.0461719
0.0722679 -0.8185 -2.48928 1.18643 1.85807
-1.04227
1.08248 -0.0680474 0.753859 -2.26319 0.255886
0.122874
-0.0299287 0.938065 -3.94657 -0.0850325 0.593022
-0.168961
0.0176136 -4.95193 1.19162 -2.57712 -3.38279
-0.214786
0.328664 -0.309172 -0.410372 2.51532 0.314663
-1.07336
2.03106 0.387056 -0.720468 3.16538 -2.33855
-1.86212
2.42712 -5.7209 2.80914 -1.79656 -3.60423
-0.428329
0.353796 -4.54857 1.51765 3.54498 0.0372669
1.36747
-1.68605 -3.27093 1.14612 0.085197 1.61059
0.996999
-1.23343 -0.276533 -2.84892 -0.709317 -6.44607
-2.2295
2.42791 1.85531 -2.49061 0.818015 -3.31082
0.827325
-0.952489 -1.18807 0.0821964 -2.83864 -1.98881
0.283657
-0.553818 -0.417687 -3.56635 -2.01525 2.86887
-1.77782
2.20337 2.17946 -0.00150467 -0.760122 -1.56508
-1.38717
1.73101 0.251985 -0.556245 -1.01535 -2.00938
0.0893935
0.329407 -1.72396 -3.54092 0.146774 -0.756567
-0.925831
1.55366 -1.31755 -2.96625 -0.588266 -2.89924
1.82978
-2.48347 -1.43961 1.28825 -0.518234 1.91806
-0.487702
-0.283193 -1.60253 2.82469 3.99371 3.54375
-1.45368
1.83108 -2.68736 0.994532 -0.908363 -3.63546
-0.196724
0.365101 -2.46807 0.0771126 -1.43236 1.43627
1.41773
-1.66201 -1.66189 -0.558772 2.1611 1.40783
-0.892725
0.692394 -1.56691 2.1742 0.470015 0.26883
0.540055
-0.586351 0.295667 -2.96013 0.928853 -1.41496
0.0357708
-0.523791 -2.10083 1.55758 -3.03457 -0.860335
-0.0199012
0.408902 -1.88566 -1.8131 -5.10409 -0.747127
-2.04781
2.39469 -0.152357 1.81535 -5.8007 1.11615
0.193135
-0.732624 2.18605 -0.113805 0.922401 -1.19215
5 5
-1.0133 0 0 0.004387 0
1.44189 0.968563 4.51285 527.415 0.157705
