1
5 5
-1.16269 -0.471819 0 0 0.012809
1.63146 1.33611 4.63638 6.61881 64.2762
100
1.77271 -0.285141 0.261491 0.486127 -0.558601 0.382368 0.35845 0.261682 0.283899 0.164176 -0.683607 0.331798 0.360179 0.271981 0.399662 0.243731 -0.0222727 -0.0802916 0.116672 0.413638 0.116674 0.146502 -0.274572 0.0397865 -0.536119 0.345148 -0.422461 0.0886268 0.0811131 -0.0326286 -0.263486 0.414874 0.297786 0.350435 -0.439966 0.319824 -0.151789 0.441624 0.332765 0.0702765 -0.303807 0.238275 -0.595278 0.360585 0.363559 -0.149758 0.250625 -0.0123749 0.00287016 -0.0791548 0.148721 -0.0914457 0.114428 0.0739569 -0.319096 0.190719 0.0403673 -0.296201 0.245551 -0.400398 0.28074 -0.0199849 0.0180871 0.0131585 -0.387288 0.292958 0.353514 0.176797 0.0419556 0.0674301 -0.196257 0.19868 -0.14817 0.220022 -0.00280642 0.298317 0.163634 0.0729449 -0.12014 -0.00576583 0.100742 0.148169 -0.648043 0.416188 -0.263364 0.331421 0.0112092 0.115277 -0.150138 -0.314386 0.108731 0.177998 0.105104 -0.0071632 0.10248 0.278038 0.0612686 -0.289787 0.139155 -0.242502
-2.71946
-2.23082 -1.90168 3.2703 -4.76841 2.54556
-2.86672
4.03322 -1.0224 2.52942 3.37725 -1.26722
-1.6601
1.90239 -0.276951 -1.74892 1.2058 -0.698972
-3.96621
5.04939 -0.05965 3.33446 -0.508473 1.46722
0.776704
0.450802 -3.20738 2.32401 -3.37609 -4.267
-3.0707
2.77099 1.41211 -1.9797 -0.139536 -2.12228
-1.64598
2.18929 0.389353 -0.137627 0.775482 -1.5056
-0.854879
0.906276 0.368401 -5.12172 -1.74847 -2.05362
1.84157
-1.28954 -2.01681 0.463131 0.163812 -2.79095
-2.18131
1.86172 0.913874 0.169495 -3.17811 0.465017
-0.798006
2.04446 -1.4538 -4.24345 -0.716097 2.79488
0.852449
-0.324824 -1.69773 -5.3345 1.2586 -1.18911
-0.571035
1.11715 -0.136152 -1.47773 -0.957227 -1.31299
1.19834
-0.803603 -2.05698 -2.55711 -5.78028 -3.39063
0.098888
-0.00108357 0.362551 -2.32037 -0.333457 -0.966321
1.82102
-2.94153 -0.0572173 -3.14129 1.83653 2.54392
-1.53353
0.0648506 4.38908 -4.66467 -3.52253 2.26185
-0.772757
-0.101252 1.72559 0.357582 -1.32081 1.62562
2.39945
-2.6963 -1.42541 -0.532989 1.36219 -1.77564
-2.28971
1.60791 2.83872 0.77812 -2.32022 -4.4248
-1.01718
0.197787 1.95434 -1.77751 3.0103 -2.16008
0.440043
0.0865712 -0.923151 -1.91495 -1.98368 -1.51435
1.14953
0.816384 -4.20386 -3.03074 0.173791 0.142634
0.950639
-0.434339 -2.13444 0.512159 -4.97078 0.98911
-2.93549
2.90889 0.99221 3.73513 -3.20836 -1.87987
-1.5658
1.67949 -1.5226 2.86938 1.24823 -3.16976
-2.67669
3.83215 -0.791219 1.6963 -0.632256 -4.53284
-1.05537
-0.479705 3.00787 -1.48621 -5.18636 1.45873
-0.454436
1.40327 -1.61622 -1.5147 1.94004 -0.457366
3.84935
-3.62739 -2.55305 -1.62064 2.6801 -3.31003
2.37392
-2.23278 -1.76603 -0.85652 -4.39196 0.9182
0.909563
-0.760895 -0.95975 1.5047 -1.19944 -3.70001
1.13919
-2.8793 1.37571 -1.22479 -2.46292 -0.668992
0.170215
-0.356857 0.62054 -2.43351 1.18011 0.99473
-0.429343
1.814 -2.97629 2.22057 -1.68603 0.667161
-0.036414
-2.60099 3.87389 -2.16123 -2.35498 -1.82332
1.13287
-1.49722 -0.0212782 -0.177636 -2.81568 -0.789969
-0.257971
-1.79816 3.9969 0.871066 -1.53975 -1.3875
-0.319824
0.631288 1.18217 -2.67351 -4.00845 -0.735008
-0.45407
0.737536 -0.748048 0.447302 1.29421 -3.34964
0.152614
0.286616 -1.43459 2.71644 -5.59226 0.0444771
0.647979
-1.3044 -0.563852 -0.0280746 -2.04554 2.45376
0.200956
0.661834 -1.80566 -2.27432 4.46465 1.87013
0.622446
-2.39099 1.75695 -4.41709 3.90422 -2.17146
0.764483
-1.8911 1.9014 -2.75539 -0.934469 2.06672
0.913388
-0.214391 -2.10227 1.50276 -3.81873 0.837636
2.41836
-1.40842 -2.63111 -1.70725 3.15251 -1.15604
-0.409842
-0.595712 1.16984 3.32391 -1.99015 0.619275
1.03031
0.610026 -4.69336 0.704987 -0.962835 4.05532
2.30546
-4.80354 3.18154 -4.09115 4.66939 -0.103716
0.563433
-1.34033 0.447707 -1.78919 -0.882811 1.27009
-0.940421
0.321893 1.51536 0.227715 5.92009 0.23418
-0.580097
-0.0523121 1.70989 -4.13826 -2.94354 -0.139918
-0.65387
0.15712 1.78853 -2.85166 0.585712 1.46391
2.01221
0.337872 -5.34201 -5.07227 1.07231 -1.56066
0.511259
0.885887 -2.2741 -3.55442 1.29777 2.21809
-2.48133
4.08217 -1.60721 -1.69496 -1.70374 -4.28677
-0.00333141
0.827624 -1.49491 -2.78333 -0.123278 -1.14881
-0.00255457
-0.545588 -0.516937 1.25432 0.868102 -3.1555
-0.208283
1.57527 -3.8759 6.08929 2.80429 -0.0117875
0.380316
-1.22137 -0.295383 0.0702984 3.15116 -2.89258
0.765605
-1.60892 0.795439 0.278208 2.00952 -1.76272
0.0806788
0.539683 -1.69659 0.939226 1.51508 -3.56254
-0.986387
1.07277 0.631584 -2.79667 2.0321 -2.90796
-0.849293
1.31309 -0.382106 -0.0415479 -5.07291 0.138109
2.30026
-1.81505 -4.0405 -1.51108 2.49251 0.315081
-1.93348
2.25887 1.02977 -1.5337 -2.20459 -2.16176
-1.00711
-0.67118 2.35514 0.261105 3.19657 0.0201213
1.22286
-1.51628 -0.97642 0.291923 2.36903 -1.22897
0.80425
-0.339538 -1.77347 -0.440486 0.543186 0.0611711
-1.71858
4.74375 -4.34976 -3.03455 2.19431 -4.09084
0.42742
-0.805167 0.475261 1.8998 1.14836 -0.748326
3.63035
-1.93922 -6.14825 -0.458787 1.00842 -2.73393
-1.18905
1.96087 -1.45343 -2.12506 0.993549 -2.79885
2.24446
-1.90668 -1.71897 -2.24904 0.0656588 -2.44872
-0.279816
0.143909 1.24942 -4.45963 -1.48031 -0.323037
0.235099
-0.0856492 -1.66419 -0.630589 3.72404 -3.89178
0.208159
0.0313678 -0.962141 0.918176 -1.47913 -2.03477
0.461115
-1.33916 1.20694 0.164258 2.29029 -0.156079
-1.34965
-0.323226 3.21562 1.98128 0.661234 3.71343
0.0795277
-0.615863 0.77225 -3.20845 1.51025 -1.36854
1.44826
-1.74992 -0.298375 -0.956073 -0.861782 -0.610011
-0.2682
2.2984 -3.88715 -1.88013 0.348592 2.89131
-0.864119
0.217574 -0.183248 0.415225 -1.68742 -2.21672
0.24688
0.400265 -1.41123 -0.149737 -0.714274 2.94572
3.52474
-3.10565 -2.21916 -0.905772 0.31111 -4.08025
-0.804314
-0.322736 1.88924 -1.18133 1.81168 3.95146
2.48895
-1.37792 -4.5328 -0.686561 1.51427 0.386688
-0.235299
2.15241 -3.56041 -0.156021 -3.03058 3.28459
-0.0532714
-1.47585 2.64622 5.36432 1.17902 2.41281
-1.64614
1.30536 1.6007 0.454753 0.456912 -1.3316
-1.43521
1.65377 1.43254 -4.00481 -2.58907 3.42573
1.88528
-1.26131 -3.03904 -1.06346 1.55584 0.0889142
-1.8508
1.2716 2.47866 -1.70351 2.45724 -0.808348
-0.507278
0.12609 1.57244 -4.28777 0.671463 -1.73701
2.24111
-2.64446 -0.698996 -2.73697 0.582048 2.0502
-1.11019
0.57476 1.43863 1.54234 1.3911 -6.48358
0.43632
0.749578 -2.65256 -0.21026 3.74229 -3.59998
1.37869
-0.397076 -2.2932 -2.22385 3.76919 4.45066
-0.962308
2.36485 -1.91953 -1.98362 -2.84996 -0.705167
