0.95
5 5
0 0 0 0 0
0.999913 0.0139114 1 1 1
100
1.7982 -1.03659 0.312647 0.713135 0.377968 -0.28597 0.0578195 0.0202453 0.183835 0.53176 0.340428 0.468691 0.303661 -0.163183 0.13433 0.011005 -0.133635 0.125749 0.747698 0.409505 -0.112063 -0.21377 0.18575 -0.416651 0.148979 -0.211364 0.178017 0.494674 0.0433853 0.508402 0.227464 0.0792578 -0.397328 0.275023 -0.0738922 -0.122222 0.126185 0.179902 0.0430903 -0.0530765 -0.0784526 0.0584834 -0.0953749 0.0324455 -0.00489862 0.0441251 -0.0635136 -0.00339399 -0.0134675 -0.0226316 0.011813 0.0972398 0.0994521 -0.072858 0.09179 0.0344149 0.0537495 0.000591314 0.0165161 0.0608773 0.0674512 0.0800063 0.100846 0.0306672 -0.501579 0.255043 -0.181261 0.140089 -0.0549732 0.00852602 0.0806309 -0.0288932 -0.377212 -0.235216 0.173301 0.00903638 -0.0279126 0.0191433 -0.0105676 0.108299 0.0539041 0.223112 -0.231996 -0.000221772 -0.0180724 0.0787519 0.455424 0.187871 -0.0634343 0.0580209 -0.186607 0.183033 -0.0647585 -0.0235403 0.0646244 -0.108883 0.115538 0.0992568 -0.0125622 0.0364419
-3.39335
-2.22986 1.82359 0.655616 -2.59335 0.940133
0.00219796
1.08259 -3.53554 -1.33939 2.22159 2.15929
0.0529084
-1.36779 0.0644548 -4.38231 -0.9367 -4.40946
0.162454
-0.16617 0.679937 -1.07298 -4.74368 -3.21908
-0.882921
-0.206584 0.379238 0.590086 -5.0733 0.832982
-0.324193
0.670933 -1.20107 2.21659 1.67847 1.28788
-0.980355
4.14114 2.70884 0.677138 1.07827 2.47168
-0.687395
3.44653 -1.2671 1.5904 -4.42263 -6.74906
-0.0107273
-1.37888 -1.40842 -3.77311 4.33021 -2.4678
0.213666
0.324884 0.559618 -3.97195 -1.60133 -0.857136
-0.403986
-4.56152 -3.23078 0.853752 0.267062 -3.03794
0.260764
-3.42144 -2.68022 -1.41352 -4.67742 0.250287
-0.654341
1.71904 0.971558 -2.57839 -0.90338 1.65412
-0.038783
-2.18586 -0.791602 2.91126 2.40013 1.03271
-0.328376
-3.06855 -0.132707 4.50693 -6.52647 0.765546
-0.0113092
0.695774 1.64178 -1.22212 3.30567 -2.62614
-0.0224697
-1.83719 2.83916 1.60934 4.67379 0.613867
-0.125928
-1.48632 -0.432433 -1.88609 0.870809 0.630838
0.109369
-3.39095 2.53618 2.69791 -1.94719 -5.82499
-0.713414
-2.48392 -1.02599 0.514984 -2.06269 -2.22806
-0.126508
3.89441 -5.08029 -0.310523 -1.45535 0.051503
-0.0313799
-1.44403 2.74213 1.13055 3.09145 3.35862
-0.329291
0.181243 -4.60704 -1.61599 -0.248867 2.67923
0.115123
-1.83213 2.84927 -2.85681 -1.97775 6.37293
-0.348271
1.27074 3.16361 -1.84364 -2.58176 5.33917
-0.101944
0.574626 -0.38559 2.04925 0.298239 -2.32358
-0.347813
1.10711 0.399622 -1.84263 5.19899 -0.722
0.0393582
-1.82806 1.79929 1.11313 -0.618148 -1.35284
-0.0626796
-0.351978 0.937908 -0.29105 -1.12883 -1.50194
-0.0573653
-0.883873 1.8308 3.16278 4.08255 -1.11288
0.535158
-4.41729 0.424364 -3.23276 4.14397 1.95783
-0.0943029
-1.02981 1.57814 -0.770413 3.97867 -1.57888
0.00106216
0.675303 0.0644784 -1.23124 2.28671 1.2962
-0.506961
-1.68991 3.35479 0.0187827 -2.64418 0.709141
0.130718
-2.03348 3.22771 -2.74107 2.54279 3.88146
0.0582352
-2.8182 3.18223 -0.343763 -3.90087 2.1991
-0.140637
-2.08069 -0.440826 -0.0190047 -3.20112 -5.64067
0.0443755
-2.61207 -0.943156 2.58346 -0.641881 -1.86489
-0.178068
5.80788 0.404847 -2.70002 2.20307 -1.79178
-0.0378268
0.151436 1.13107 0.896894 -3.02576 -2.97481
0.223042
-3.83218 0.879295 -4.03351 1.0831 -3.2563
0.0243636
-2.825 0.105016 -0.417814 0.404912 -3.37715
-0.0501661
0.933045 3.12808 -0.290639 3.27131 -0.618097
-0.0280891
-2.43558 3.05619 -1.42846 0.25764 6.70843
-0.158399
1.81239 1.97208 -0.208001 0.293288 -3.76273
-0.000497294
-3.03795 2.43448 0.952673 0.752249 -1.03849
0.218139
-5.51732 1.51763 -0.130132 -0.656485 4.15192
0.00380295
-3.34704 -0.299556 3.62934 0.28804 3.54655
-0.0117933
-0.202479 -0.899727 -0.150078 0.160366 0.886643
-0.0946822
1.13496 -3.2928 0.168406 2.411 0.218937
0.0437004
-3.40676 0.248335 0.398681 -0.168529 -1.835
0.139616
-3.72015 6.96624 -2.55445 -3.84048 -0.870227
-0.0233368
2.27418 4.60752 -2.47611 -2.33706 0.897693
-0.167296
-0.179178 3.35718 3.32398 0.743408 -1.18519
-0.101336
0.426375 -1.44596 -3.60668 3.40027 2.5496
0.11564
-2.55225 3.29963 -0.881133 -1.39571 -0.853934
-0.183935
2.37592 -2.37591 3.00893 -1.84928 -0.355795
0.0200183
-1.19897 -1.48806 0.987994 2.68224 1.08597
0.13552
-2.54955 0.429635 -0.868139 0.0183147 -2.09549
0.233512
-5.57553 6.39239 -0.993088 -0.610704 2.4211
-0.12545
2.56279 0.403811 0.511153 3.0579 1.45239
-0.00625457
-1.26102 1.13515 1.60393 2.84112 -0.267815
0.0175591
-0.797907 1.69373 4.81985 -1.17386 -2.65179
0.00400242
-1.27584 -0.0614991 -0.243816 5.36116 -0.618181
-0.0477196
-0.0806001 -2.57855 1.76167 -0.590554 2.19624
-0.654191
2.12239 2.39829 0.0547911 4.21425 0.43465
0.0255512
0.641931 -3.01343 -2.88851 -0.932384 2.07144
-0.461168
-0.227056 -1.36808 4.00202 0.951964 -0.993033
-0.206362
1.50231 -4.28664 2.71838 -2.56968 1.38733
-0.457741
5.49856 -0.415175 1.38762 -2.24835 -0.573777
-0.13163
-0.0196236 -1.34444 -0.482475 -0.192601 0.140016
-0.217873
2.4364 1.03508 3.40492 1.23518 0.78536
0.0648895
0.0696108 -2.48921 -2.37678 -2.54527 -0.998639
-0.405768
5.50181 3.6773 3.02078 1.14873 -0.110114
-0.461575
2.05964 -0.124304 -1.00047 -1.41018 1.04493
-0.0259193
2.16078 -3.08267 -2.81156 2.02992 -1.2454
-0.0127396
0.865343 2.52883 -3.06433 -0.76003 3.36381
-0.0819357
-0.675334 2.32969 0.160862 -5.74629 -1.90286
-0.0884224
1.0272 -1.49964 -0.121632 2.27151 1.16817
0.180626
-3.44523 -2.37823 -3.07953 1.7786 -0.0827094
0.0270869
1.12834 1.05835 -2.99289 0.297906 -1.00475
0.0295484
-2.91079 1.25711 2.93621 -0.493315 -0.379276
0.059001
-1.28978 -0.257929 -0.540723 0.494235 2.31341
-0.0546321
-2.16385 -2.93262 5.07131 2.36267 -4.98494
-0.0145238
-0.0160345 1.8445 -0.829278 -1.02933 -2.09081
0.117614
-1.70206 0.565191 -3.1873 5.3484 1.11841
0.00328924
-1.97195 -0.408715 2.67324 -4.89285 -3.40505
0.380807
1.10864 -2.15996 -3.1209 -0.712125 1.30033
-0.208941
2.40653 -0.341325 1.35303 2.01076 -0.666483
-0.230222
-0.334155 4.2672 1.5362 6.58458 -3.82468
0.0540272
-1.25089 -0.0595053 -1.49881 -0.706681 -3.11671
-0.274786
-3.11724 -0.909619 1.67327 -3.41566 1.74309
-0.0136952
0.186394 0.0801384 -0.313523 1.77848 3.17622
0.0750647
-0.732913 2.00791 -5.47631 1.79028 -0.796174
-0.0979878
-2.93578 2.00183 1.60014 5.3331 -2.05024
0.0102069
1.35564 -1.7282 -2.89283 -1.12464 0.713412
-0.0686342
-2.45367 2.47775 -1.82662 -1.06471 -1.68936
0.0758
-0.287586 1.97985 -2.24735 -1.50307 -0.442768
0.0386088
-0.778205 -0.299759 -2.43855 3.66686 -0.701291
-0.0219019
-1.47337 -0.984664 -0.567311 -0.993571 4.45895
